-2.7889912128448486
-1.2709670066833496
-0.6290417909622192
0.34224629402160645
-1.3257043361663818
-1.3648545742034912
-1.7340266704559326
0.1960618495941162
-0.7025964260101318
-0.03250432014465332
0.6562271118164062
-1.4807040691375732
-0.740917444229126
-1.0321509838104248
-1.379953384399414
-1.8616364002227783
0.03957486152648926
1.1168646812438965
0.03416705131530762
-0.4841156005859375
-1.003458023071289
0.8376016616821289
-0.6895160675048828
-1.316291093826294
-1.4481709003448486
0.259379506111145
-0.6944241523742676
1.1724320650100708
0.7973120212554932
-1.1055271625518799
-1.5504460334777832
0.25074446201324463
0.19507551193237305
-0.13711023330688477
0.14448845386505127
-0.4883549213409424
0.22786152362823486
-1.575500726699829
-0.3363032341003418
-1.6325514316558838
-0.9453637599945068
-1.7112560272216797
0.8754528760910034
-1.3333618640899658
-0.5498745441436768
-1.5273358821868896
-1.389263391494751
-0.7248399257659912
-0.7469666004180908
-0.8095238208770752
-0.8455326557159424
-0.3976238965988159
0.300945520401001
0.08446264266967773
-1.0061814785003662
1.2695915699005127
-0.2117786407470703
-1.517333984375
-0.08273923397064209
0.388466477394104
1.2038582563400269
-1.0614044666290283
-0.9985496997833252
0.5955235958099365
