0.23074685037136078
0.014409827999770641
0.014042472466826439
0.5911821722984314
0.05872952938079834
0.03201920539140701
0.3807228207588196
-0.027516135945916176
-0.03488695248961449
-0.04251847416162491
-0.005062992684543133
0.025288300588726997
0.028582653030753136
-0.0339389368891716
0.02768203802406788
0.03301462158560753
-0.02799014374613762
0.03043128177523613
0.0013301835861057043
-0.03277761861681938
-0.030597183853387833
-0.02078522928059101
-0.05024479702115059
-0.017076119780540466
-0.02784794010221958
0.007116037420928478
-0.014552030712366104
-0.10513486713171005
-0.025691207498311996
-0.024482486769557
0.011933138594031334
0.02976767159998417
-0.02723173052072525
-0.014634981751441956
0.03109489195048809
-0.031165992841124535
0.02328561805188656
-0.02936476469039917
-0.030194276943802834
-0.014492779038846493
0.015286741778254509
-0.03123709373176098
-0.02096298150718212
0.017917484045028687
-0.03100009076297283
-0.02310786582529545
0.06451242417097092
0.020856330171227455
0.00959865190088749
0.028369348496198654
0.02829824760556221
-0.031379297375679016
0.0394374243915081
-0.001487198518589139
0.1407802253961563
-0.14191783964633942
0.06655064970254898
0.13717776536941528
-0.03069198504090309
0.0307867880910635
0.014717932790517807
0.011636883951723576
-0.01084292121231556
0.03275391831994057
0.032137706875801086
-0.025786008685827255
-0.03114229254424572
0.06768827140331268
-0.08427853137254715
-0.005939906463027
0.03642747551202774
-0.03140299767255783
-0.08100788295269012
0.10949573665857315
-0.0307867880910635
-0.0337730348110199
0.08788099139928818
0.0013953596353530884
-0.031877003610134125
0.030881589278578758
-0.017716029658913612
-0.030976390466094017
0.010973273776471615
-0.01989646442234516
-0.033867835998535156
0.038631610572338104
-0.031379297375679016
-0.008840239606797695
-0.01219384279102087
-0.028274547308683395
0.030265379697084427
0.03291982039809227
0.015310442075133324
0.019789813086390495
0.0096164271235466
-0.018154487013816833
0.019256554543972015
-0.017656778916716576
-0.011038449592888355
-0.03524245694279671
-0.08593755960464478
-0.030407581478357315
0.03510025516152382
-0.3786371946334839
0.03175850212574005
-0.028179746121168137
-0.15244081616401672
-0.00692050950601697
-0.00203823228366673
0.03104749135673046
-0.03149779886007309
-0.024150682613253593
0.03171110153198242
-0.006730906665325165
0.021069632843136787
-0.026236314326524734
0.008135153912007809
0.029886173084378242
0.03149779886007309
0.024624690413475037
0.15120838582515717
0.009006142616271973
0.0002916257071774453
0.14893315732479095
-0.10579847544431686
0.00837215781211853
-0.012501947581768036
-0.07759502530097961
-0.02611781284213066
0.01643620990216732
-0.14305546879768372
-0.024103282019495964
-0.019920164719223976
-0.11736425757408142
-0.03656967729330063
0.022278351709246635
0.029862472787499428
-0.03052608296275139
0.03012317605316639
-0.0376598946750164
-0.02723173052072525
0.031568899750709534
-0.012057566083967686
-0.02976767159998417
-0.03434184193611145
0.03145039826631546
-0.02540680207312107
-0.030360180884599686
0.03931892290711403
0.0010213380446657538
-0.02247980609536171
0.034057438373565674
-0.01219384279102087
0.14732153713703156
-0.13158448040485382
-0.0013383305631577969
0.411817729473114
-0.11793306469917297
0.028013844043016434
0.1756671816110611
-0.10807371139526367
-0.028772255405783653
0.06906289607286453
-0.1094009280204773
0.11698505282402039
-0.059724945574998856
-0.10589327663183212
0.1279820203781128
0.03339383006095886
-0.024269184097647667
0.12390556186437607
0.07958585768938065
-0.032943520694971085
0.03173480182886124
0.030265379697084427
-0.1603093445301056
0.03154519945383072
0.009409048594534397
-0.03408113867044449
0.022669408470392227
0.16798825562000275
-0.06242678686976433
0.030952690169215202
0.24686311185359955
-0.02820344641804695
0.03033648058772087
0.03275391831994057
-0.002935884054750204
-0.0028573765885084867
0.029127761721611023
-0.023463372141122818
0.04522031545639038
-0.024553589522838593
0.02803754433989525
0.030573483556509018
0.0016916142776608467
0.04512551426887512
0.031213393434882164
0.041736360639333725
-0.015357842668890953
0.0134144127368927
0.1527252197265625
0.04687934368848801
0.031213393434882164
0.12466397136449814
0.02820344641804695
0.01616365648806095
0.011885738000273705
0.21633702516555786
-0.020228270441293716
0.04109644889831543
0.3077256679534912
-0.03140299767255783
-0.02372407540678978
0.09992077946662903
-0.03363083302974701
0.060530759394168854
-0.12485357373952866
0.034010037779808044
0.1318688839673996
-0.21595782041549683
0.02180434577167034
0.031379297375679016
-0.18609534204006195
-0.01914990320801735
0.019612060859799385
-0.15310442447662354
0.047021545469760895
0.1566120833158493
-0.3143617808818817
0.02768203802406788
0.09916236996650696
-0.17424516379833221
0.03033648058772087
0.014267626218497753
-0.008869864977896214
0.00761967059224844
-0.027800539508461952
-0.023700375109910965
0.027208030223846436
0.008869864977896214
0.010866622440516949
0.030620884150266647
-0.029530666768550873
0.020844480022788048
-0.019659461453557014
0.36726102232933044
0.03171110153198242
-0.024980194866657257
0.17803721129894257
-0.10048959404230118
-0.02687622606754303
0.041025348007678986
-0.03337012976408005
-0.031213393434882164
0.04730594903230667
-0.0808182805776596
-0.01981351338326931
0.04474630951881409
-0.03597716987133026
-0.031568899750709534
-0.016270307824015617
0.024861693382263184
-0.030146876350045204
-0.10750490427017212
-0.011891663074493408
-0.04714004695415497
-0.0341048389673233
0.0205245241522789
0.009426823817193508
0.13016246259212494
-0.08754918724298477
0.011346554383635521
0.4015791416168213
-0.18495772778987885
0.03273021802306175
0.3592976927757263
-0.22581717371940613
-0.019801663234829903
-0.005098543129861355
-0.03301462158560753
0.03002837486565113
0.0329672209918499
-0.0355505608022213
0.02753983624279499
0.018462592735886574
-0.07977546006441116
0.0147060826420784
0.029862472787499428
-0.01313000824302435
0.02789534069597721
0.027018427848815918
-0.005818441975861788
0.06200018152594566
0.016270307824015617
-0.031071191653609276
0.024624690413475037
-0.037873201072216034
0.11831226944923401
-0.008982442319393158
-0.07081671804189682
0.11963949352502823
-0.003857236122712493
-0.043253183364868164
0.031782202422618866
-0.031426697969436646
-0.028843356296420097
-0.030265379697084427
-0.020868180319666862
0.16931547224521637
-0.03230361267924309
-0.0017908596200868487
0.10399724543094635
-0.1971871256828308
-0.0012931517558172345
-0.019386906176805496
0.008449183776974678
-0.018012285232543945
-0.13423892855644226
0.029886173084378242
-0.01616365648806095
-0.008188479579985142
0.007987026125192642
-0.028938157483935356
0.014362427406013012
-0.06825707852840424
-0.042755477130413055
0.03159260004758835
-0.09944677352905273
-0.041286054998636246
0.029886173084378242
-0.04308728128671646
-0.02550160326063633
0.027800539508461952
-0.02509869635105133
-0.0044823335483670235
0.04237627238035202
-0.05398945510387421
-0.02247980609536171
-0.03348863124847412
0.013864719308912754
-0.02247980609536171
-0.035882368683815
0.021839896216988564
-0.02150809019804001
-0.03642747551202774
0.012857453897595406
-0.025833409279584885
-0.03052608296275139
-0.025572704151272774
-0.013769918121397495
0.12352635711431503
-0.05991454795002937
-0.026307417079806328
0.3534199893474579
-0.12418996542692184
-0.013201109133660793
0.11309818923473358
-0.09717153757810593
-0.020133469253778458
-0.03353603184223175
0.09006142616271973
-0.041736360639333725
-0.033867835998535156
0.13841019570827484
0.0012813014909625053
-0.053420644253492355
-0.029909873381257057
-0.027610937133431435
0.03028907999396324
-0.03898711875081062
0.01768047921359539
-0.032493215054273605
-0.03832350671291351
0.02176879532635212
-0.06427541375160217
-0.01014968566596508
0.02105778269469738
-0.020157169550657272
0.034578848630189896
-0.015180090442299843
-0.02257460728287697
0.03154519945383072
-0.001301298732869327
-0.01724202372133732
0.006950134877115488
0.031782202422618866
0.02088003046810627
-0.015535595826804638
-0.02217170037329197
0.030976390466094017
-0.04069354385137558
0.007850749418139458
0.01616365648806095
-0.012869304046034813
-0.011761311441659927
0.03100009076297283
-0.06854148209095001
0.024008480831980705
-0.0009820843115448952
-0.04548101872205734
0.0544634610414505
0.03118969313800335
-0.03481585159897804
0.026023011654615402
0.05711790546774864
-0.05574328079819679
0.06105216592550278
0.0298150721937418
-0.06489162892103195
0.03939002379775047
0.03114229254424572
-0.03083418868482113
0.0426606759428978
0.006861258763819933
0.0009457931155338883
-0.030360180884599686
-0.03028907999396324
0.02372407540678978
-0.013284060172736645
-0.030099475756287575
-0.021958397701382637
-0.08205069601535797
0.031118592247366905
0.014540180563926697
0.05925093591213226
0.11973429471254349
0.05105060711503029
0.08062867820262909
-0.06242678686976433
0.031379297375679016
0.0492967814207077
0.005578476004302502
0.04230516776442528
0.038892313838005066
0.005178532097488642
0.13822059333324432
0.027563536539673805
-0.037873201072216034
0.05176161974668503
-0.05014999210834503
-0.02945956587791443
0.008443258702754974
-0.12163032591342926
-0.029696570709347725
0.03607197105884552
-0.13878940045833588
-0.031521499156951904
0.025999311357736588
-0.008176629431545734
-0.009823805652558804
0.03557426482439041
-0.04074094444513321
-0.032801318913698196
0.029246263206005096
-0.09366387873888016
-0.027255430817604065
0.04495961219072342
-0.022645708173513412
0.03133189678192139
-0.08456293493509293
0.05043439939618111
-0.030454982072114944
-0.04014843702316284
0.013011505827307701
-0.031782202422618866
0.031071191653609276
-0.03225621208548546
0.019351355731487274
0.028369348496198654
-0.021555490791797638
0.031829603016376495
0.05669129639863968
-0.03159260004758835
-0.026331117376685143
0.021448839455842972
-0.02474319189786911
0.023333018645644188
-0.05304143950343132
-0.021614741533994675
0.0073589663952589035
-0.177468404173851
0.008028501644730568
-0.03592976927757263
-0.042850278317928314
-0.005495524499565363
0.0268288254737854
0.019789813086390495
-0.03109489195048809
-0.03483955189585686
0.06162097677588463
-0.024091431871056557
-0.07840084284543991
0.07603080570697784
-0.015215640887618065
-0.09385348856449127
0.025975611060857773
0.002688511274755001
-0.024316584691405296
0.022100599482655525
0.03017057664692402
0.004034989047795534
0.029696570709347725
0.00585399242118001
-0.03327532485127449
0.0034158164635300636
-0.0029788408428430557
-0.044224899262189865
-0.01856924407184124
-0.03327532485127449
-0.03168740123510361
0.001587925129570067
-0.03114229254424572
-0.0032647266052663326
0.03028907999396324
-0.03204290568828583
0.01305890642106533
0.1242847666144371
-0.013544764369726181
-0.04130975529551506
0.028843356296420097
0.010540741495788097
-0.02666292153298855
0.019529109820723534
0.024316584691405296
0.01088439766317606
-0.03268281742930412
0.03185330331325531
-0.03220881149172783
-0.17557238042354584
0.030905289575457573
0.027468735352158546
-0.002926996210590005
0.0025937098544090986
-0.0022959739435464144
-0.057781513780355453
0.032493215054273605
0.014943086542189121
-0.03012317605316639
0.02763463743031025
-0.015926651656627655
0.03282501921057701
-0.07432437688112259
-0.05787631496787071
-0.000338285812176764
-0.05460566282272339
-0.06427541375160217
0.008786913938820362
-0.0264259185642004
-0.0034632172901183367
0.008988367393612862
0.02390182763338089
0.003241026308387518
-0.03602457046508789
0.03173480182886124
0.020488973706960678
-0.03052608296275139
-0.004103127401322126
0.03946112468838692
-0.08195589482784271
-0.012964105233550072
0.1022908166050911
-0.12769761681556702
-0.008117378689348698
-0.027255430817604065
-0.10646208375692368
-0.011826487258076668
0.05029219761490822
0.026734022423624992
0.030763087794184685
-0.03145039826631546
0.031568899750709534
0.031213393434882164
-0.01116880215704441
0.027658337727189064
0.029341064393520355
-0.008028501644730568
-0.07105372101068497
-0.030905289575457573
-0.07702621817588806
-0.11470981687307358
0.025477902963757515
0.05180902034044266
-0.056928299367427826
0.03126079589128494
-0.0034306293819099665
0.032540615648031235
0.006535378284752369
0.026283716782927513
0.006458352319896221
-0.02198209799826145
0.0035313558764755726
-0.014575731009244919
0.016116255894303322
-0.0331331230700016
0.03154519945383072
-0.030241679400205612
-0.030881589278578758
0.030217979103326797
-0.026331117376685143
-0.009622352197766304
0.0076789213344454765
-0.02931736409664154
0.13006766140460968
-0.18818098306655884
-0.003972775302827358
0.2626001536846161
-0.19889354705810547
0.027208030223846436
0.0254542026668787
-0.13338571786880493
0.001050963532179594
-0.03220881149172783
-0.030241679400205612
-0.08560575544834137
-0.0313555970788002
0.009272771887481213
-0.06839928030967712
-0.044935911893844604
-0.02607041224837303
-0.032232511788606644
0.04967598617076874
0.042186666280031204
-0.028535252436995506
0.07247574627399445
0.18685375154018402
-0.028108645230531693
0.03227991238236427
0.036095671355724335
-0.040314339101314545
0.17879563570022583
-0.07413477450609207
-0.027658337727189064
0.25672245025634766
-0.07403997331857681
0.022136149927973747
0.04972338676452637
-0.03415223956108093
-0.030502382665872574
0.02443508617579937
0.00843733362853527
-0.0006476868293248117
0.01621105708181858
0.015559296123683453
-0.03069198504090309
0.012004240415990353
-0.024138832464814186
-0.02945956587791443
0.02967287041246891
-0.028985558077692986
0.03104749135673046
0.017135370522737503
-0.04607352986931801
0.03524245694279671
0.020808929577469826
-0.028819655999541283
-0.006179872900247574
0.3894445598125458
-0.03306202217936516
-0.006636105012148619
0.27189069986343384
-0.023937378078699112
0.030644584447145462
0.06797267496585846
-0.08868680149316788
-0.046049829572439194
0.03100009076297283
0.0568808987736702
-0.025477902963757515
-0.014753483235836029
0.08181369304656982
0.01732497476041317
-0.0050689177587628365
0.05095580592751503
-0.02931736409664154
-0.12504318356513977
-0.022491656243801117
0.03133189678192139
-0.04287397861480713
-0.01763307861983776
0.045694321393966675
-0.03239841386675835
-0.0008954298100434244
0.03073938563466072
0.08930301666259766
-0.03993513062596321
-0.010973273776471615
0.11404620856046677
0.027776839211583138
-0.030597183853387833
0.031071191653609276
0.0011390992440283298
-0.06285339593887329
0.04924938082695007
-0.11385659873485565
0.010896247811615467
0.05569588020443916
-0.03886861354112625
-0.011921288445591927
0.0329672209918499
-0.0008591386140324175
-0.011636883951723576
0.029578067362308502
-0.03931892290711403
-0.03389153629541397
0.034057438373565674
-0.016507310792803764
-0.032445814460515976
0.005667352117598057
0.028795955702662468
-0.03735179081559181
0.006890884134918451
-0.030573483556509018
0.020714128389954567
0.029862472787499428
0.00782112404704094
0.026236314326524734
-0.004431969951838255
0.022503506392240524
-0.01971871219575405
0.015559296123683453
-0.16106775403022766
0.030265379697084427
0.07119593024253845
-0.05280443653464317
0.027800539508461952
0.005137056112289429
-0.08674336969852448
-0.00977047998458147
-0.030241679400205612
0.030146876350045204
-0.02127108722925186
-0.09105683863162994
0.03126079589128494
-0.02550160326063633
-0.0812922865152359
0.0023167117033153772
-0.008739513345062733
0.01901955157518387
0.03190070390701294
0.0001484976673964411
-0.001116880215704441
0.031782202422618866
-0.024482486769557
-0.016187356784939766
0.029293663799762726
0.015357842668890953
-0.031023791059851646
0.12390556186437607
-0.09262106567621231
-0.06275859475135803
0.4042336046695709
-0.11954469233751297
-0.05460566282272339
0.26222094893455505
-0.1380309909582138
0.12163032591342926
0.02763463743031025
-0.005243707913905382
0.32251471281051636
0.03047868236899376
0.023866277188062668
0.30696725845336914
0.004239404574036598
-0.01937505602836609
-0.05853992700576782
0.09617612510919571
-0.028582653030753136
-0.04877537116408348
0.19794553518295288
-0.031877003610134125
-0.03962702676653862
0.099541574716568
-0.02820344641804695
-0.02829824760556221
-0.001050963532179594
-0.03047868236899376
-0.017917484045028687
0.0911516398191452
-0.027089528739452362
-0.03047868236899376
0.03052608296275139
-0.020915580913424492
-0.02962546795606613
0.047068946063518524
-0.013094456866383553
-0.035123955458402634
0.0323273129761219
-0.028843356296420097
-0.04192596301436424
0.029554367065429688
-0.019066952168941498
0.015464494936168194
0.020903730764985085
-0.017763430252671242
0.018462592735886574
-0.033962637186050415
-0.024363985285162926
0.029506966471672058
-0.02697102725505829
-0.01976611278951168
-0.02784794010221958
-0.029578067362308502
-0.01981351338326931
-0.005563662853091955
-0.05294663831591606
0.03028907999396324
-0.029293663799762726
-0.019043251872062683
0.027919040992856026
-0.027919040992856026
0.027776839211583138
0.003457292215898633
-0.016187356784939766
0.008976517245173454
-0.031877003610134125
-0.022017648443579674
0.006582779344171286
-0.025880809873342514
0.05654909461736679
-0.038892313838005066
0.028890756890177727
0.16523902118206024
-0.06228458508849144
0.028938157483935356
0.03164000064134598
-0.04258957505226135
0.01888919807970524
0.020820779725909233
0.03149779886007309
0.03069198504090309
0.030407581478357315
-0.0111510269343853
0.06072036176919937
0.02621261402964592
-0.025525303557515144
0.012371595948934555
0.027919040992856026
0.03514765575528145
0.006268749013543129
-0.02799014374613762
0.007145663257688284
0.023167116567492485
0.02874855510890484
0.02429288439452648
-0.00031143773230724037
-0.03118969313800335
-0.06508123129606247
0.06328000128269196
-0.052709635347127914
0.05166681855916977
0.012750801630318165
-0.008727663196623325
0.04877537116408348
-0.032588016241788864
-0.030502382665872574
0.030928989872336388
0.000935424177441746
-0.02621261402964592
0.02372407540678978
0.018723296001553535
-0.029483266174793243
0.034531448036432266
0.029222562909126282
-0.035787567496299744
-0.03104749135673046
-0.053420644253492355
0.02026382088661194
0.059203535318374634
-0.12456917017698288
-0.03301462158560753
0.05896653234958649
-0.11707985401153564
0.004600835498422384
-0.018059685826301575
-0.04052764177322388
0.012442696839571
0.02238500490784645
-0.052709635347127914
0.02723173052072525
-0.09058283269405365
-0.02860635332763195
0.31379297375679016
-0.00045956508256495
0.034010037779808044
0.22733399271965027
-0.019078802317380905
0.04441450163722038
0.046310532838106155
-0.010457790456712246
0.009225371293723583
0.02088003046810627
-0.030952690169215202
-0.01657841168344021
0.044130098074674606
-0.022159850224852562
-0.013769918121397495
-0.0032321386970579624
-0.019481709226965904
-0.03171110153198242
-0.0298150721937418
-0.029483266174793243
-0.022148000076413155
-0.023131566122174263
-0.03149779886007309
-0.007708547171205282
-0.005670314654707909
-0.05138241499662399
-0.037067387253046036
-0.03865531086921692
0.021117033436894417
-0.022503506392240524
0.02768203802406788
0.026307417079806328
-0.030810488387942314
-0.01514453999698162
-0.017206471413373947
-0.03273021802306175
0.12276794016361237
-0.02794274315237999
-0.03230361267924309
0.1861901432275772
-0.023522622883319855
-0.029127761721611023
0.03161630034446716
0.008158854208886623
-0.03984032943844795
-0.03754139319062233
0.028156045824289322
-0.03007577545940876
-0.04583652690052986
0.048964973539114
0.01052889134734869
-0.010191161185503006
0.018853647634387016
-0.02217170037329197
0.03348863124847412
0.024482486769557
0.019979415461421013
0.06057815998792648
0.023214517161250114
-0.001703464426100254
-0.018379641696810722
0.0341048389673233
0.03896341845393181
0.03310942277312279
-0.033464930951595306
-0.05707050487399101
0.03145039826631546
0.0034010037779808044
-0.03140299767255783
0.044224899262189865
-0.03273021802306175
0.026283716782927513
0.006067296024411917
-0.07574640214443207
0.029293663799762726
-0.030952690169215202
-0.10769450664520264
0.015535595826804638
0.0046867490746080875
-0.031474098563194275
-0.02834564819931984
-0.06290079653263092
0.031782202422618866
0.023688524961471558
0.06683506071567535
-0.014303176663815975
-0.018628494814038277
0.007524868939071894
-0.009859356097877026
-0.03073938563466072
-0.03145039826631546
0.011020674370229244
-0.03028907999396324
-0.08892380446195602
0.03256431594491005
-0.0294121652841568
-0.07963325828313828
0.04740075021982193
-0.02865375392138958
0.036688182502985
-0.03126079589128494
0.060530759394168854
0.16087815165519714
-0.08589015901088715
0.04619203135371208
0.032232511788606644
-0.0030840113759040833
0.02855895273387432
-0.01116880215704441
0.0051044682040810585
-0.0029314402490854263
0.016673214733600616
-0.1258963942527771
-0.016448060050606728
0.030312780290842056
-0.006659805309027433
0.02931736409664154
0.06522343307733536
-0.03322792425751686
0.033915236592292786
0.03318052366375923
0.043205782771110535
0.005848067346960306
-0.0463816337287426
0.028084944933652878
-0.007560419850051403
0.07650481164455414
-0.07508278638124466
-0.0047045242972671986
0.03256431594491005
-0.10115320235490799
0.015180090442299843
0.03002837486565113
-0.04789845645427704
-0.014303176663815975
0.006742756813764572
0.03126079589128494
-0.005211120005697012
-0.013817318715155125
0.06806747615337372
0.027610937133431435
0.03033648058772087
0.030763087794184685
0.026094112545251846
0.07162253558635712
-0.04010103642940521
-0.00948607549071312
0.033204223960638046
-0.03291982039809227
-0.013236659578979015
0.03912932053208351
-0.025074996054172516
-0.023024914786219597
0.036143071949481964
-0.018806247040629387
-0.08461033552885056
0.08465773612260818
0.030241679400205612
-0.028724854812026024
0.030810488387942314
0.03043128177523613
-0.012810052372515202
0.030881589278578758
-0.020856330171227455
0.02758723683655262
-0.006019895430654287
-0.0007872968562878668
0.004079427104443312
-0.029601767659187317
-0.004657123703509569
0.013426262885332108
-0.009302397258579731
0.031118592247366905
-0.027800539508461952
-0.04545731842517853
0.07816383987665176
0.005451086442917585
-0.02096298150718212
0.034981753677129745
0.015168240293860435
-0.038181304931640625
-0.025572704151272774
-0.030217979103326797
-0.017490876838564873
-0.03180590271949768
-0.024008480831980705
-0.026710322126746178
-0.030905289575457573
-0.02976767159998417
0.04367979243397713
-0.03211400657892227
0.02825084701180458
0.03429444134235382
0.014552030712366104
0.022456105798482895
-0.006298374850302935
-0.03033648058772087
-0.02247980609536171
0.37143227458000183
-0.028108645230531693
-0.013236659578979015
0.6632313132286072
-0.034010037779808044
0.007856674492359161
0.305450439453125
-0.11812266707420349
-0.025003895163536072
0.015108989551663399
-0.07389777153730392
-0.009278696961700916
-0.028938157483935356
-0.07408737391233444
-0.02768203802406788
-0.025880809873342514
0.023712225258350372
-0.01869959570467472
0.026781423017382622
0.029506966471672058
0.014552030712366104
0.03896341845393181
0.0659344419836998
0.025074996054172516
-0.020062368363142014
0.014030622318387032
-0.03583496809005737
0.18031245470046997
-0.12210433185100555
0.02367667481303215
0.4194018244743347
-0.13196368515491486
0.026046711951494217
0.0006910140509717166
0.006064333487302065
-0.027919040992856026
0.02233760431408882
0.030312780290842056
0.029601767659187317
0.031474098563194275
0.08878160268068314
0.019884614273905754
-0.04943898320198059
0.030881589278578758
-0.026331117376685143
0.03114229254424572
-0.0299809742718935
0.006565004121512175
0.0064702024683356285
-0.030881589278578758
-0.022195400670170784
-0.02554900385439396
-0.0258571095764637
-0.018948450684547424
0.21937067806720734
-0.04827766492962837
0.001038372633047402
0.2756827771663666
-0.030502382665872574
0.03130819648504257
0.04526771605014801
-0.009569026529788971
-0.0192328542470932
0.021247386932373047
0.007862599566578865
0.030004674568772316
0.03168740123510361
-0.011050299741327763
0.035882368683815
0.030241679400205612
-0.034531448036432266
0.043158382177352905
-0.03123709373176098
0.11357219517230988
-0.16504941880702972
0.0014390571741387248
0.35872888565063477
-0.15831850469112396
-0.028724854812026024
0.19187822937965393
-0.1609729528427124
0.02114073373377323
-0.07114852964878082
0.029483266174793243
-0.053562846034765244
0.030881589278578758
-0.03012317605316639
-0.0382998064160347
0.03479215130209923
-0.02799014374613762
0.029104061424732208
-0.01638880930840969
0.02962546795606613
0.001453129225410521
-0.029483266174793243
0.020086068660020828
-0.03118969313800335
0.043063580989837646
-0.05711790546774864
-0.0014086910523474216
0.00939719844609499
-0.015061588026583195
0.0022796797566115856
0.0329672209918499
-0.028487849980592728
0.02891445718705654
-0.025027595460414886
-0.02576230838894844
-0.025003895163536072
-0.030265379697084427
0.025430502369999886
-0.05868212878704071
-0.06896809488534927
0.04887017235159874
0.026307417079806328
-0.11290858685970306
0.04763775318861008
0.035645365715026855
0.005015592090785503
0.0268288254737854
0.022645708173513412
-0.022148000076413155
0.02865375392138958
-0.030217979103326797
0.030004674568772316
0.02865375392138958
0.004929678048938513
-0.007430067751556635
0.012644150294363499
-0.030407581478357315
0.003720958949998021
-0.022313904017210007
0.02257460728287697
-0.008229955099523067
0.01346181333065033
-0.022645708173513412
-0.01536969281733036
-0.0060524833388626575
-0.030644584447145462
-0.02332116849720478
0.021602891385555267
-0.018367791548371315
-0.03628527373075485
-0.015582996420562267
0.03159260004758835
-0.042352572083473206
0.004248292185366154
0.20078957080841064
-0.029838772490620613
0.028677454218268394
0.06602924317121506
-0.04962858557701111
-0.024245483800768852
0.03246951475739479
-0.06986870616674423
0.00875136349350214
0.01068294420838356
-0.1719699203968048
0.03204290568828583
0.03531355783343315
-0.030620884150266647
0.018225587904453278
-0.03270651772618294
0.03211400657892227
-0.030620884150266647
-0.012987805530428886
0.05863472819328308
-0.03083418868482113
0.03123709373176098
-0.020678577944636345
-0.0030988240614533424
-0.007915925234556198
0.007258239667862654
0.025643805041909218
-0.031568899750709534
-0.036356374621391296
-0.008881715126335621
0.027966443449258804
-0.030099475756287575
0.00470748683437705
-0.030928989872336388
0.0725705474615097
-0.036048270761966705
-0.032445814460515976
0.1548108458518982
-0.03194810450077057
-0.04555211961269379
0.03566906601190567
-0.023427821695804596
-0.025383101776242256
-0.06299559772014618
0.03261171653866768
-0.029080361127853394
-0.06427541375160217
0.04486481100320816
-0.005311846733093262
-0.030644584447145462
0.03190070390701294
0.028938157483935356
-0.0307867880910635
-0.027350232005119324
-0.03718588873744011
-0.035384658724069595
-0.0209274310618639
-0.03047868236899376
-0.01884179748594761
0.024600990116596222
-0.013852869160473347
-0.020465273410081863
0.011204352602362633
-0.013378861360251904
-0.03204290568828583
-0.0022204287815839052
-0.019043251872062683
-0.024672091007232666
-0.024186233058571815
-0.005062992684543133
0.013829168863594532
0.0029995788354426622
-0.012430846691131592
0.028867056593298912
0.03237471356987953
-0.014433528296649456
0.029483266174793243
-0.008259580470621586
-0.0402432382106781
0.029127761721611023
-0.028369348496198654
-0.05744970962405205
0.006025820504873991
-0.027966443449258804
-0.07953845709562302
-0.03100009076297283
-0.03100009076297283
-0.12001869827508926
0.011002899147570133
0.08930301666259766
-0.09143605083227158
0.06726166605949402
0.13698816299438477
-0.15082918107509613
0.029886173084378242
0.11689025163650513
-0.019955715164542198
-0.030099475756287575
-0.020086068660020828
-0.02803754433989525
-0.04033803939819336
0.027208030223846436
-0.03149779886007309
0.02905665896832943
0.0028529325500130653
-0.02611781284213066
0.029175162315368652
-0.023700375109910965
-0.050007790327072144
0.03986402973532677
-0.030952690169215202
-0.02220725081861019
0.022266501560807228
-0.01745532639324665
-0.029104061424732208
-0.1132877916097641
0.030312780290842056
-0.03140299767255783
-0.13566094636917114
-0.0034454420674592257
0.020323071628808975
-0.03002837486565113
-0.012300495058298111
0.06517603248357773
-0.06290079653263092
-0.02479059249162674
0.07313935458660126
-0.041641559451818466
-0.030312780290842056
0.03967442736029625
-0.041831161826848984
-0.03450774773955345
0.04761405289173126
-0.04069354385137558
0.014243924990296364
0.10172200947999954
-0.12324195355176926
-0.0038009476847946644
0.037328090518713
-0.054179057478904724
0.019623911008238792
0.03083418868482113
0.16154175996780396
-0.031118592247366905
-0.0339389368891716
0.11082295328378677
-0.23264288902282715
-0.01272710133343935
0.16618703305721283
-0.09039323031902313
0.029862472787499428
0.031829603016376495
-0.03704368695616722
-0.012300495058298111
0.11139176040887833
-0.05659649521112442
-0.019138053059577942
0.04251847416162491
-0.030857888981699944
0.0290092583745718
0.025999311357736588
0.021306637674570084
0.024506187066435814
0.026639221236109734
-0.03194810450077057
0.01714722067117691
0.028677454218268394
0.025430502369999886
-0.014824585057795048
0.0002445952850393951
-0.0016560637159273028
-0.10674648731946945
-0.08607976138591766
-0.006855333689600229
-0.03204290568828583
-0.034934353083372116
0.025312000885605812
0.05308884009718895
-0.04187856242060661
0.02865375392138958
0.12381076067686081
-0.021519940346479416
0.030763087794184685
0.0321614071726799
0.025027595460414886
-0.030810488387942314
-0.050671402364969254
0.06621884554624557
-0.028772255405783653
-0.03017057664692402
0.07475098222494125
0.020773379132151604
-0.030905289575457573
0.023214517161250114
0.0041416403837502
0.017787132412195206
0.09811954945325851
-0.06721426546573639
0.06095736473798752
0.20382322371006012
-0.08271431177854538
-0.03301462158560753
0.10788410902023315
-0.03998253121972084
-0.037470292299985886
0.037209589034318924
0.01955281011760235
-0.007927775382995605
0.03898711875081062
-0.022195400670170784
-0.03201920539140701
0.041072748601436615
0.02185174636542797
-0.03069198504090309
0.02820344641804695
-0.01259674970060587
-0.07138553261756897
0.16230016946792603
-0.030052075162529945
-0.03417593985795975
0.029838772490620613
-0.016756165772676468
0.020844480022788048
0.0033299026545137167
0.01445722859352827
0.10390244424343109
-0.1325324922800064
0.031474098563194275
0.008342532441020012
-0.02896185778081417
-0.023842576891183853
-0.08219289779663086
0.10608287900686264
0.02789534069597721
-0.0916256532073021
0.10039478540420532
0.015737049281597137
-0.015061588026583195
0.06285339593887329
0.02207689918577671
-0.02296566404402256
-0.002101927064359188
0.018142636865377426
-0.028132345527410507
0.02078522928059101
-0.031023791059851646
0.02976767159998417
0.002106370870023966
-0.0010428165551275015
0.25880810618400574
-0.09674493223428726
0.025691207498311996
0.21709543466567993
-0.174529567360878
0.02860635332763195
0.038679011166095734
-0.032185111194849014
-0.0035135806538164616
0.08740698546171188
-0.017692329362034798
-0.006950134877115488
0.18533693253993988
-0.08157669007778168
0.02159104123711586
0.12418996542692184
-0.02044157311320305
0.022278351709246635
0.0013050019042566419
0.017929334193468094
0.01582000032067299
0.03118969313800335
-0.016234757378697395
-0.010232636705040932
0.03204290568828583
-0.03073938563466072
0.030573483556509018
-0.03052608296275139
-0.01790563389658928
-0.005542925093322992
0.00835438258945942
0.03130819648504257
0.028535252436995506
0.008129228837788105
0.025027595460414886
-0.010789595544338226
0.004680824000388384
0.03126079589128494
0.025335701182484627
0.016673214733600616
-0.030668284744024277
0.03242211416363716
0.028724854812026024
-0.017929334193468094
0.010120060294866562
-0.16978949308395386
0.03161630034446716
0.013876569457352161
-0.03100009076297283
0.1490279585123062
0.00808775331825018
0.008324756287038326
0.11660584807395935
-0.03164000064134598
0.031379297375679016
-0.03460254892706871
0.041025348007678986
0.05512707307934761
-0.032232511788606644
0.031213393434882164
-0.03043128177523613
-0.022100599482655525
0.016732465475797653
0.1242847666144371
-0.0188299473375082
0.0004043876542709768
0.1511135846376419
-0.02945956587791443
0.04048024117946625
0.06493902951478958
-0.005762153770774603
-0.008093678392469883
0.025169799104332924
0.014623131603002548
0.02891445718705654
0.03206660598516464
0.016981318593025208
0.031877003610134125
-0.06816227734088898
0.07166993618011475
0.030407581478357315
0.025122398510575294
0.0228708628565073
-0.030597183853387833
0.02905665896832943
-0.00041957071516662836
-0.01465868204832077
-2.055266850220505e-05
0.019339505583047867
-0.029246263206005096
-0.03002837486565113
-0.05470046401023865
0.022693108767271042
-0.03133189678192139
-0.06692986190319061
0.03073938563466072
-0.049960389733314514
-0.13878940045833588
-0.018225587904453278
-0.03145039826631546
0.02870115451514721
-0.03374933451414108
-0.04972338676452637
-0.039650727063417435
-0.0384657084941864
-0.02758723683655262
-0.029957273975014687
0.01143543142825365
0.12409516423940659
-0.03626157343387604
-0.03261171653866768
0.4364660978317261
-0.09726633876562119
0.03348863124847412
0.20628806948661804
-0.13272209465503693
-0.00881653930991888
-0.037162188440561295
0.018509993329644203
0.029151462018489838
-0.03114229254424572
0.0294121652841568
0.03047868236899376
-0.01745532639324665
0.011690209619700909
-0.007868524640798569
0.11821746826171875
-0.0753197893500328
0.025999311357736588
0.24591508507728577
-0.033251624554395676
0.021626591682434082
0.10930612683296204
-0.06294819712638855
-0.027824239805340767
0.01724202372133732
-0.010025259107351303
-0.038276106119155884
-0.009853431023657322
-0.029388464987277985
0.019659461453557014
-0.018024135380983353
-0.017739729955792427
0.011222127825021744
0.027563536539673805
-0.03545575961470604
-0.0029862471856176853
0.023439671844244003
-0.13082607090473175
0.03100009076297283
0.04690304398536682
-0.030360180884599686
0.002275235950946808
0.024719491600990295
0.006760532036423683
-0.026686621829867363
-0.030763087794184685
0.09717153757810593
-0.13490253686904907
-0.05398945510387421
0.03109489195048809
-0.03275391831994057
0.0070923371240496635
0.02834564819931984
0.03536095842719078
-0.042399972677230835
0.014480928890407085
0.03315682336688042
-0.030099475756287575
-0.01884179748594761
-0.0034158164635300636
0.03149779886007309
-0.10921132564544678
-0.004740075208246708
0.06380140781402588
0.01035113912075758
0.021863596513867378
-0.014243924990296364
-0.024814292788505554
0.0015494120307266712
0.03159260004758835
-0.024909093976020813
-0.028274547308683395
0.17870083451271057
-0.026141513139009476
0.0009724560077302158
0.08190849423408508
-0.03483955189585686
-0.020228270441293716
-0.03211400657892227
0.016862817108631134
0.03337012976408005
-0.025335701182484627
-0.06939470022916794
0.03358343243598938
-0.027255430817604065
-0.001116880215704441
0.03464994952082634
0.03469735011458397
-0.02945956587791443
-0.026899926364421844
0.019872764125466347
0.021259237080812454
-0.03126079589128494
-0.030620884150266647
0.02926996350288391
-0.029933573678135872
-0.01709982007741928
0.14533069729804993
-0.050529200583696365
-0.030265379697084427
0.26316896080970764
-0.03353603184223175
-0.035526860505342484
0.1045660525560379
-0.07413477450609207
-0.025169799104332924
-0.002358187222853303
-0.031829603016376495
0.011257678270339966
0.09333207458257675
-0.01563039794564247
-0.060530759394168854
0.07332895696163177
-0.03265911713242531
-0.02385442703962326
0.0647968277335167
0.012300495058298111
-0.03339383006095886
-0.1263704001903534
-0.003175850259140134
-0.03476845100522041
-0.03820500522851944
-0.031568899750709534
-0.03100009076297283
0.02571490779519081
-0.03318052366375923
-0.0420207642018795
0.0076611461117863655
-0.0290092583745718
-0.025074996054172516
0.029957273975014687
-0.018249288201332092
-0.010967348702251911
0.02784794010221958
-0.017893783748149872
-0.006529453210532665
-0.0471874475479126
-0.02057192474603653
0.018059685826301575
-0.032540615648031235
-0.009254996664822102
0.0848473459482193
-0.06380140781402588
-0.011121400631964207
0.2256275713443756
-0.05574328079819679
0.030597183853387833
0.09153085201978683
-0.035479459911584854
0.0076611461117863655
0.006802007555961609
-0.049770787358284
-0.030549783259630203
0.0012494541006162763
0.1380309909582138
-0.030502382665872574
-0.03159260004758835
0.06015155091881752
-0.05574328079819679
-0.033251624554395676
0.074656181037426
0.009314247407019138
-0.0682096779346466
0.048964973539114
0.015535595826804638
0.031165992841124535
0.03275391831994057
0.0023137491662055254
-0.030360180884599686
-0.024067731574177742
-0.0057503036223351955
-0.03118969313800335
-0.018047835677862167
0.031521499156951904
-0.04531511664390564
0.007193063851445913
0.028535252436995506
0.03363083302974701
-0.0014286882942542434
-0.03069198504090309
0.003957962617278099
-0.04723484814167023
-0.027729438617825508
0.0005780669744126499
-0.024044031277298927
-0.00692050950601697
-0.017798982560634613
0.008721738122403622
-0.02559640444815159
-0.04019583761692047
0.00590731855481863
-0.027705738320946693
-0.03173480182886124
0.02891445718705654
7.758169522276148e-05
0.06920509785413742
-0.030905289575457573
0.027516135945916176
0.11499422043561935
0.019671311601996422
-0.0013331461232155561
0.009112793952226639
0.023830726742744446
-0.029862472787499428
-0.021733244881033897
-0.03412853926420212
-0.017123520374298096
-0.04242367297410965
-0.03754139319062233
0.0024278070777654648
-0.016068853437900543
-0.018284838646650314
-0.030668284744024277
-0.0205245241522789
0.03164000064134598
-0.002057488774880767
0.016933917999267578
0.22676518559455872
-0.019422456622123718
-0.024067731574177742
0.13831539452075958
0.029483266174793243
-0.04176006093621254
0.2114073485136032
-0.13613495230674744
-0.03052608296275139
0.4683194160461426
-0.2703738808631897
0.008727663196623325
0.16552342474460602
-0.10352323949337006
-0.010724419727921486
-0.040219537913799286
-0.15196681022644043
-0.0012287163408473134
0.11755385994911194
-0.2542576193809509
0.03246951475739479
0.14068542420864105
-0.28952378034591675
-0.03028907999396324
-0.001973056234419346
-0.02380702644586563
-0.03735179081559181
-0.07048491388559341
0.010025259107351303
-0.02150809019804001
-0.03661707788705826
0.029032958671450615
-0.02074967883527279
-0.032801318913698196
-0.029957273975014687
-0.03149779886007309
0.005919168703258038
-0.08911340683698654
-0.029530666768550873
0.04114384949207306
-0.05650169402360916
-0.019659461453557014
0.03118969313800335
0.023036764934659004
0.017668629065155983
0.022586457431316376
-0.06920509785413742
-0.013319610618054867
0.029341064393520355
-0.024861693382263184
-0.012312345206737518
-0.06854148209095001
-0.009480150416493416
-0.01657841168344021
-0.03100009076297283
-0.023297468200325966
0.0132129592821002
-0.009106868878006935
-0.030146876350045204
0.056928299367427826
-0.0824299082159996
0.031213393434882164
0.027776839211583138
-0.07953845709562302
0.022930113598704338
0.033867835998535156
-0.03130819648504257
-0.018272988498210907
-0.02146068960428238
-0.015476345084607601
-0.02150809019804001
-0.03109489195048809
-0.012418996542692184
-0.023700375109910965
-0.028156045824289322
-0.016910217702388763
-0.014267626218497753
-0.021697692573070526
0.023439671844244003
0.030454982072114944
-0.029388464987277985
0.029246263206005096
0.029791371896862984
-0.03185330331325531
0.04206816479563713
0.03403373807668686
-0.017964884638786316
0.0007821123581379652
0.03505285456776619
-0.02652071975171566
0.03206660598516464
0.035479459911584854
-0.005545887630432844
0.03028907999396324
0.03126079589128494
-0.013473663479089737
-0.05086100473999977
0.011826487258076668
0.004434932488948107
-0.02647331915795803
0.027658337727189064
0.03118969313800335
-0.023072315379977226
0.025951910763978958
0.03225621208548546
-0.03194810450077057
0.052567433565855026
-0.03109489195048809
-0.010807370766997337
0.10248041898012161
-0.03007577545940876
0.031782202422618866
0.025027595460414886
-0.030549783259630203
0.1247587725520134
-0.054131656885147095
-0.026188913732767105
0.29066139459609985
-0.06437022238969803
-0.03666447848081589
0.28611093759536743
-0.12096671760082245
0.030597183853387833
-0.06730906665325165
-0.0040468391962349415
0.08427853137254715
-0.2440190613269806
0.023214517161250114
0.024103282019495964
-0.03282501921057701
0.014018772169947624
0.2332116961479187
-0.29710790514945984
0.03109489195048809
0.2859213352203369
-0.2387101799249649
-0.023747775703668594
0.03495805338025093
-0.15016557276248932
-0.02438768558204174
-0.03322792425751686
-0.0186640452593565
0.010659243911504745
-0.006624254863709211
-0.10627248138189316
0.01829668879508972
-0.0025018707383424044
-0.030810488387942314
-0.023522622883319855
0.0299809742718935
-0.023937378078699112
-0.01121620275080204
0.08925561606884003
0.04074094444513321
0.02687622606754303
-0.03820500522851944
-0.0014738671015948057
-0.008093678392469883
0.10191161185503006
-0.033867835998535156
0.03017057664692402
0.03903451934456825
-0.030099475756287575
0.007133813109248877
0.022361304610967636
0.032232511788606644
0.030052075162529945
-0.030217979103326797
0.03002837486565113
-0.024020330980420113
0.012099041603505611
0.09333207458257675
0.007921850308775902
0.00768484640866518
0.03002837486565113
-0.004186078906059265
0.008384007960557938
-0.19045621156692505
0.07403997331857681
-0.028061244636774063
-0.18998220562934875
0.03159260004758835
0.0022441293112933636
-0.031924404203891754
-0.011470981873571873
-0.0006369475740939379
0.019138053059577942
-0.011755386367440224
0.029838772490620613
-0.01821373775601387
0.02234945446252823
0.001804191037081182
0.030573483556509018
0.01212866697460413
0.03237471356987953
-0.024600990116596222
0.02972027100622654
-0.033607132732868195
-0.029743971303105354
0.011145100928843021
-0.013532914221286774
0.035029154270887375
0.02198209799826145
-0.019351355731487274
0.03100009076297283
0.019872764125466347
0.029388464987277985
-0.029198862612247467
0.025975611060857773
0.08982442319393158
-0.03128449618816376
0.011079925112426281
-0.0298150721937418
0.03220881149172783
-0.031165992841124535
-0.03526615723967552
-0.0298150721937418
-0.0580185167491436
-0.06294819712638855
0.025477902963757515
-0.02794274315237999
0.029957273975014687
-0.00490894028916955
-0.012371595948934555
0.030573483556509018
-0.03545575961470604
-0.022598307579755783
0.018948450684547424
-0.03438924252986908
-0.007116037420928478
-0.026994727551937103
0.03159260004758835
0.025880809873342514
-0.030928989872336388
0.036451175808906555
0.03012317605316639
0.007584120146930218
0.028985558077692986
0.031379297375679016
-0.03628527373075485
0.03175850212574005
-0.031521499156951904
-0.055506277829408646
0.046808239072561264
-0.01153023261576891
-0.027705738320946693
0.039508525282144547
0.00854991003870964
0.11963949352502823
-0.031118592247366905
0.027516135945916176
0.1910250186920166
-0.026544420048594475
0.03891601413488388
0.02385442703962326
-0.015345992520451546
-0.00993045698851347
-0.004381606820970774
-0.014694232493638992
-0.027729438617825508
-0.030952690169215202
0.03017057664692402
-0.020382322371006012
0.03161630034446716
-0.03171110153198242
-0.02753983624279499
0.08607976138591766
-0.1297832578420639
0.037019986659288406
-0.026354817673563957
-0.025951910763978958
-0.0015271928859874606
0.029862472787499428
0.005942869000136852
-0.0303838811814785
0.007175288628786802
0.022598307579755783
-0.03190070390701294
-0.0319955050945282
0.03204290568828583
-0.0808182805776596
-0.029862472787499428
0.26752984523773193
-0.03130819648504257
-0.029743971303105354
0.016673214733600616
0.02896185778081417
0.021199986338615417
-0.11689025163650513
0.09138864278793335
0.013141858391463757
-0.006055445875972509
0.004073502030223608
0.003155112499371171
0.029838772490620613
-0.07124333083629608
0.01958836056292057
0.2552056312561035
-0.026331117376685143
-0.02718432992696762
0.13130007684230804
-0.11745905876159668
0.021910997107625008
-0.03047868236899376
0.018320389091968536
-0.003089936450123787
-0.0408831462264061
0.03488695248961449
0.012158292345702648
-0.08423113077878952
0.007892224937677383
0.06418061256408691
-0.06441762298345566
0.018723296001553535
0.08863940089941025
-0.03505285456776619
-0.0009302397374995053
-0.0005069658509455621
0.015440794639289379
-0.013343310914933681
0.10674648731946945
-0.15765489637851715
0.023735925555229187
0.1226731389760971
-0.06100476533174515
0.031213393434882164
-0.014006922021508217
0.012229393236339092
0.00210488960146904
-0.029080361127853394
0.030644584447145462
0.01937505602836609
-0.058397725224494934
0.04109644889831543
0.031521499156951904
0.01811893656849861
0.022278351709246635
0.030810488387942314
-0.005510337185114622
0.010955498553812504
0.031023791059851646
-0.02758723683655262
0.010641468688845634
0.031118592247366905
0.027373934164643288
0.030099475756287575
0.004980041179805994
-0.030052075162529945
0.15680168569087982
-0.0719069391489029
-0.03145039826631546
0.3380621373653412
-0.09527550637722015
-0.029791371896862984
0.07437177747488022
-0.09821435809135437
0.012738951481878757
0.0009887500200420618
-0.012750801630318165
-0.029957273975014687
0.021887296810746193
0.029506966471672058
-0.023759625852108
0.022278351709246635
0.00022719032131135464
0.03166370093822479
0.01412542350590229
0.019647611305117607
-0.011411730200052261
0.013378861360251904
0.003854273585602641
0.023783326148986816
-0.034057438373565674
0.01653101108968258
0.02362927421927452
0.028108645230531693
-0.031165992841124535
0.030360180884599686
-0.030763087794184685
-0.03114229254424572
0.008466958999633789
-0.03149779886007309
-0.02519349940121174
-0.03173480182886124
0.03403373807668686
0.007957400754094124
0.0006873108795844018
0.031568899750709534
-0.021199986338615417
0.03903451934456825
-0.016424359753727913
-0.023759625852108
-0.021211836487054825
-0.030644584447145462
-0.03486325219273567
0.026994727551937103
-0.06579224020242691
0.015606696717441082
-0.029151462018489838
-0.08498954772949219
0.029483266174793243
-0.024458786472678185
0.030763087794184685
-0.0028944083023816347
0.005931018851697445
-0.0147060826420784
-0.03171110153198242
0.03073938563466072
-0.03109489195048809
-0.007910000160336494
0.03033648058772087
-0.008662487380206585
0.030905289575457573
0.004600835498422384
0.03190070390701294
-0.03073938563466072
0.013852869160473347
0.028179746121168137
-0.03104749135673046
0.029838772490620613
-0.11907068639993668
0.015014187432825565
0.07138553261756897
-0.10759970545768738
0.03626157343387604
-0.030644584447145462
-0.10029998421669006
0.01063554361462593
0.07522498816251755
0.036190472543239594
-0.027966443449258804
0.19235225021839142
0.08285651355981827
-0.014303176663815975
0.03073938563466072
-0.0022470918484032154
-0.042186666280031204
-0.02443508617579937
-0.01919730380177498
-0.010653318837285042
-0.030881589278578758
0.024861693382263184
-0.04337168484926224
0.02519349940121174
0.0030306854750961065
-0.024885393679142
-0.008413633331656456
0.026710322126746178
-0.023214517161250114
-0.030241679400205612
0.005154831800609827
-0.029838772490620613
0.048135463148355484
0.0307867880910635
-0.02314341627061367
0.07873264700174332
0.16400659084320068
0.15784449875354767
0.07949105650186539
0.20325441658496857
0.146089106798172
0.07892224937677383
0.18334610760211945
0.11812266707420349
0.033654533326625824
-0.040669843554496765
0.006079146172851324
0.1385049968957901
-0.03891601413488388
0.020086068660020828
0.031071191653609276
0.023830726742744446
-0.028108645230531693
0.05702310428023338
-0.002521127462387085
0.0020974832586944103
0.1144254133105278
-0.03204290568828583
0.01896030083298683
0.036403775215148926
-0.011950913816690445
0.005294071510434151
-0.01741977594792843
0.005368134938180447
-0.029909873381257057
-0.06759347021579742
0.0400773361325264
-0.0331331230700016
-0.0820980966091156
0.029246263206005096
0.008561760187149048
-0.0235937237739563
-0.02202949859201908
-0.03450774773955345
-0.04429600015282631
0.04548101872205734
-0.04149935767054558
-0.028819655999541283
-0.01046371553093195
0.0307867880910635
0.02983533777296543
-0.0022270979825407267
-0.00974702462553978
-0.07859823107719421
-0.019649557769298553
-0.004815197084099054
0.034456148743629456
0.06313628703355789
0.005464998539537191
0.020704790949821472
0.10992200672626495
0.0434534028172493
-0.0340118408203125
-0.07171144336462021
0.058959782123565674
0.031012756749987602
0.016306133940815926
-0.030701739713549614
0.1803893893957138
0.37464120984077454
0.04054317995905876
-0.13409240543842316
0.14066816866397858
0.15977345407009125
-0.006492462940514088
-0.02510344795882702
-0.04256478697061539
-0.014206774532794952
-0.03367860987782478
-0.022581996396183968
0.019027525559067726
0.014695513993501663
0.05860433354973793
-0.01512871589511633
0.021593408659100533
-0.009058346040546894
-0.007225572131574154
-0.028880072757601738
-0.06300298869609833
0.0176057368516922
0.31528154015541077
0.3501153588294983
-0.05176197737455368
-0.044764112681150436
0.022837473079562187
-0.023326212540268898
-0.07966457307338715
0.029102228581905365
0.07255563139915466
0.005714922212064266
0.030768387019634247
0.026902899146080017
0.003129600314423442
0.024548063054680824
0.047629907727241516
0.15977345407009125
-0.0781094878911972
-0.047452181577682495
-0.014062373898923397
0.14057931303977966
0.01059121172875166
-0.01686152070760727
-0.032079096883535385
-0.016472749412059784
0.010141349397599697
-0.03163478896021843
0.040209949016571045
0.03005749173462391
0.11472053825855255
-0.01954958774149418
0.02181556262075901
0.03170143440365791
0.18234434723854065
0.09908086806535721
0.026258651167154312
0.029391027987003326
-0.07406628131866455
-0.01994946599006653
-0.024770217016339302
-0.03003527596592903
-0.02599206566810608
0.019860604777932167
6.0571790527319536e-05
0.019338540732860565
0.017416905611753464
-0.013695819303393364
-0.03014635294675827
-0.047852061688899994
0.0013870765687897801
0.029901983216404915
-0.0006227265694178641
-0.043097954243421555
-0.029990846291184425
0.008630698546767235
-0.03472273424267769
-0.029479891061782837
0.0317680798470974
0.023459505289793015
0.030279645696282387
-0.010352395474910736
-0.030368508771061897
-0.03152371197938919
-0.0515398234128952
0.018938664346933365
0.014595544897019863
0.04363112524151802
0.022970765829086304
0.013173757120966911
-0.031079402193427086
0.01372914295643568
-0.030079707503318787
0.030501801520586014
0.015473054721951485
0.03318987041711807
-0.02439255453646183
0.0005359475035220385
-0.027347208932042122
-0.048163075000047684
-0.20758108794689178
-0.06238095834851265
0.01834995485842228
0.22961880266666412
-0.029191089794039726
0.009996948763728142
-0.09006139636039734
-0.030124139040708542
-0.03878816217184067
-0.02161562442779541
0.020949160680174828
-0.0032323466148227453
-0.03094610944390297
-0.03354531526565552
0.030390724539756775
0.004009887110441923
-0.017827890813350677
-0.027147268876433372
-0.07171144336462021
-0.031101617962121964
0.026214221492409706
-0.03418956324458122
-0.030101923272013664
-0.006958987098187208
0.010585657320916653
0.0277693010866642
-0.031012756749987602
0.018561001867055893
0.03003527596592903
0.01239621639251709
-0.06793481856584549
-0.0515398234128952
-0.02419261634349823
0.022404272109270096
-0.0005810726433992386
-0.030612878501415253
-0.0660242885351181
-0.02092694491147995
-0.029724260792136192
0.025036802515387535
-0.029702045023441315
0.02934659831225872
0.0075810193084180355
0.03065730817615986
-0.028124747797846794
-0.030079707503318787
-0.03043515421450138
-0.030679523944854736
-0.029413243755698204
0.030124139040708542
0.0277693010866642
-0.0283691193908453
-0.029879769310355186
0.15266451239585876
0.06620201468467712
-0.13951297104358673
-0.0941934734582901
0.09366030246019363
0.21593408286571503
0.029901983216404915
-0.04283137246966362
-0.03094610944390297
0.029968630522489548
0.02925773523747921
-0.018816478550434113
-0.047052305191755295
0.030968325212597847
0.03330094739794731
0.0013891593553125858
-0.02479243278503418
-0.03152371197938919
0.11560915410518646
0.5683598518371582
0.46243661642074585
-0.08019774407148361
-0.1126767173409462
0.017194751650094986
-0.029324382543563843
0.008913945406675339
0.00019907117530237883
0.03936576098203659
-0.030412938445806503
-0.013606958091259003
-0.07717644423246384
-0.01809447631239891
-0.0583377480506897
0.030124139040708542
-0.007642111741006374
0.028613489121198654
-0.06646860390901566
-0.04629698023200035
0.005842661019414663
0.028924504294991493
0.031879156827926636
-0.03025743179023266
0.0006036352133378386
-0.004084864165633917
0.013173757120966911
-0.030213000252842903
-0.02854684181511402
0.006164785008877516
0.04494183883070946
0.0267696063965559
-0.022970765829086304
-0.002408986911177635
0.029102228581905365
-0.02519231103360653
-0.0024436984676867723
0.03676655516028404
0.0148843452334404
0.0013100168434903026
-0.024370338767766953
0.0018619316397234797
-0.02665852941572666
0.02728056162595749
-0.006747940089553595
0.028880072757601738
0.07539920508861542
-0.009713701903820038
-0.11152151226997375
-0.04494183883070946
-0.025370033457875252
-0.016283918172121048
-0.02696954645216465
-0.029368814080953598
0.028591273352503777
-0.010291303507983685
0.013307048939168453
-0.032167959958314896
0.050429049879312515
-0.0036377785727381706
0.026147574186325073
-0.0010545392287895083
0.028480196371674538
-0.024859078228473663
-0.012162954546511173
0.01675044186413288
0.02916887402534485
0.026214221492409706
-0.018683185800909996
-0.018705401569604874
-0.0005113022634759545
-0.017583521082997322
0.02794702537357807
-0.07673213630914688
-0.1327594816684723
0.06389161199331284
0.27955910563468933
0.0933937132358551
0.00823082122951746
-0.04660799726843834
-0.028302472084760666
0.029524320736527443
0.031012756749987602
0.030857248231768608
-0.056160636246204376
-0.033278729766607285
-0.029279951006174088
0.03647775575518608
0.0382549911737442
0.028124747797846794
-0.019460726529359818
-0.05740470066666603
-0.06144791096448898
-0.03816612809896469
0.35615795850753784
-0.029590968042612076
-0.030524015426635742
-0.034078486263751984
0.03054623119533062
0.032967716455459595
0.03243454545736313
-0.045763809233903885
-0.177812397480011
-0.1940740942955017
-0.058071162551641464
0.02985755354166031
0.0022645865101367235
-0.02728056162595749
-0.02785816416144371
-0.02725834585726261
0.02925773523747921
0.024436986073851585
0.03063509427011013
-0.00686457147821784
-0.004381995648145676
0.004579158034175634
0.007286664564162493
-0.030590662732720375
-0.1643054038286209
-0.04240927845239639
-0.03163478896021843
0.27369424700737
-0.030612878501415253
-0.0756213590502739
-0.030190784484148026
0.053805798292160034
-0.03898809850215912
-0.030701739713549614
-0.02636972814798355
0.030879464000463486
-0.03607787564396858
-0.03125712648034096
0.03083503246307373
0.04312017187476158
0.01923857256770134
0.029968630522489548
0.02273750491440296
-0.029502106830477715
0.008103081956505775
0.055183157324790955
-0.0091638695448637
-0.042498137801885605
-0.03125712648034096
-0.009558193385601044
0.044875189661979675
0.029679829254746437
-0.07957570999860764
-0.03632224723696709
0.12618370354175568
0.18892011046409607
0.06664632260799408
-0.004190387669950724
0.019482942298054695
-0.015139822848141193
0.026925114914774895
0.08277473598718643
0.019516265019774437
-0.003932133316993713
-0.029302166774868965
0.02608092874288559
0.04423094540834427
0.009652609005570412
0.1345367133617401
0.02963539958000183
-0.030501801520586014
-0.10405712574720383
0.21469002962112427
0.1294715851545334
0.031101617962121964
-0.03205688297748566
-0.030568446964025497
-0.029990846291184425
0.028191395103931427
0.028880072757601738
0.029413243755698204
-0.020193835720419884
0.004668019711971283
-0.0287689957767725
0.02885785885155201
0.028102533891797066
0.033767469227313995
-0.000493946427013725
-0.051228806376457214
0.008863961324095726
0.1345367133617401
0.030168568715453148
-0.030679523944854736
-0.029479891061782837
-0.006747940089553595
0.013318156823515892
-0.005128989927470684
-0.029035581275820732
-0.01958291232585907
-0.05847104266285896
0.023059628903865814
-0.0032545621506869793
-0.0022979096975177526
-0.02943545952439308
0.036744341254234314
0.032567836344242096
-0.03994336351752281
-0.03896588459610939
0.027924809604883194
0.06509124487638474
-0.0017744583310559392
-0.043475616723299026
-0.03043515421450138
-0.028524626046419144
0.012951602227985859
0.028680134564638138
-0.013473665341734886
-0.01189636904746294
-0.030301861464977264
-0.0004574992344714701
0.02341507561504841
0.0068368022330105305
0.03005749173462391
0.04240927845239639
0.05176197737455368
0.027702655643224716
0.0011489548487588763
0.02648080512881279
0.03043515421450138
0.027702655643224716
0.03043515421450138
0.027436070144176483
0.035744644701480865
0.025703266263008118
-0.007197802886366844
-0.027724871411919594
0.01909417100250721
0.01562856324017048
-0.0320124514400959
-0.02916887402534485
0.005634391214698553
-0.009397131390869617
0.028880072757601738
0.06904558837413788
-0.02994641475379467
-0.024014892056584358
-0.023659445345401764
0.03983228653669357
0.029679829254746437
-0.016905950382351875
-0.030524015426635742
-0.040409889072179794
-0.023837167769670486
-0.027591578662395477
0.02834690362215042
-0.03043515421450138
0.010641196742653847
0.02828025631606579
-0.031279340386390686
0.2463248074054718
0.3060399293899536
-0.03283442184329033
-0.06620201468467712
0.028235826641321182
-0.02765822410583496
-0.0077698505483567715
-0.05980396643280983
0.04167616739869118
0.03907696157693863
0.029724260792136192
0.032567836344242096
0.09126102924346924
0.18945328891277313
-0.004673573654145002
-0.009130546823143959
0.03250119090080261
-0.009236069396138191
0.015073176473379135
-0.11383192241191864
-0.1126767173409462
-0.12653915584087372
0.11205468326807022
0.01866097003221512
-0.019705096259713173
-0.031390417367219925
0.030501801520586014
-0.022137686610221863
-0.10574550181627274
-0.06175892800092697
-0.02943545952439308
0.028702350333333015
-0.029568752273917198
-0.029924198985099792
-0.012629478238523006
4.078616257174872e-05
-0.011851937510073185
-0.05731583759188652
-0.03827720507979393
0.11632005125284195
0.009946963749825954
-0.00023777464230079204
-0.029990846291184425
-0.013307048939168453
0.027236130088567734
0.02816917933523655
-0.02488129399716854
-0.011963015422224998
0.09685932099819183
0.14431150257587433
0.09677046537399292
0.09232737123966217
0.04563051462173462
0.21113555133342743
0.2770709693431854
0.01769459806382656
-0.034167349338531494
-0.0017980622360482812
0.027702655643224716
0.022293195128440857
-0.0005564274033531547
-0.02916887402534485
-0.0285690575838089
-0.028880072757601738
-0.01729472167789936
0.004368111025542021
0.031968019902706146
0.0007851769914850593
0.03145706653594971
0.029790906235575676
0.027636008337140083
0.03114604949951172
0.02905779704451561
-0.03969899192452431
-0.02834690362215042
0.04798535257577896
0.21788904070854187
-0.02768043987452984
-0.029080012813210487
-0.031168263405561447
-0.03005749173462391
0.013806897215545177
-0.013262618333101273
-0.028480196371674538
-0.08606261759996414
-0.015795178711414337
0.025214524939656258
0.07988672703504562
0.025525541976094246
0.026258651167154312
-0.026214221492409706
-0.01669490337371826
0.018050046637654305
0.056160636246204376
0.01963845081627369
-0.030279645696282387
-0.05216185748577118
0.014862130396068096
-0.0025825451593846083
0.21682271361351013
0.09605956822633743
0.01557302474975586
0.009491547010838985
0.02227097935974598
-0.05971510708332062
-0.023814953863620758
-0.015428624115884304
0.02885785885155201
-0.001492599956691265
0.0027255569584667683
0.00018536008428782225
-0.004687458276748657
0.05398352071642876
-0.0035239243879914284
-0.08113079518079758
-0.02923552133142948
0.05007360503077507
-0.028302472084760666
0.007192248944193125
0.013962404802441597
0.016672689467668533
-0.02350393682718277
0.02528117224574089
0.01635056547820568
0.015073176473379135
0.15195362269878387
0.3927690088748932
0.03045736998319626
-0.10645639151334763
0.05376136675477028
0.149021178483963
-0.0010892509017139673
-0.013529203832149506
-0.04905169457197189
-0.03074617125093937
0.01927189528942108
0.016883734613656998
-0.0382549911737442
-0.06335844099521637
-0.0297686904668808
-0.04016551747918129
-0.07953128218650818
-0.02645859122276306
-0.0033573084510862827
-0.03259005397558212
0.023259567096829414
0.002435367787256837
0.0765099823474884
0.030790600925683975
0.027702655643224716
-0.010957766324281693
0.005009581800550222
-0.03043515421450138
-0.025725480169057846
-0.0035350320395082235
-0.0007705981261096895
-0.01058010384440422
0.00959151703864336
-0.006248092744499445
-0.006481355056166649
0.02419261634349823
0.09161648154258728
-0.030390724539756775
-0.11054403334856033
-0.15959572792053223
0.030679523944854736
0.07211132347583771
0.028880072757601738
-0.08361892402172089
0.014662191271781921
-0.012862740084528923
0.006503570359200239
0.00481797382235527
-0.04118742793798447
0.012696124613285065
0.03927690163254738
-0.00395712535828352
0.026214221492409706
0.012673908844590187
-0.00838632881641388
0.007242233958095312
-0.05460555478930473
-0.036633264273405075
-0.06255868077278137
0.05398352071642876
-0.015084284357726574
-0.01954958774149418
-0.029568752273917198
0.0033489777706563473
0.017739029601216316
-0.0030018615070730448
-0.053494781255722046
0.00930271577090025
0.013706927187740803
0.0037571864668279886
-0.030524015426635742
0.024459199979901314
-0.007836496457457542
-0.07517705112695694
-0.03261226788163185
-0.01577296294271946
-0.22393165528774261
-0.031168263405561447
0.02195996418595314
-0.015073176473379135
0.030501801520586014
0.003821055870503187
0.06784595549106598
-0.030279645696282387
-0.04471968486905098
-0.01669490337371826
0.002385383006185293
-0.03332316130399704
-0.030968325212597847
-0.027147268876433372
-0.031479280441999435
-0.006220323499292135
0.03023521602153778
0.021937748417258263
0.021137991920113564
-0.012718340381979942
-0.015784071758389473
0.03183472901582718
-0.001046902616508305
-0.017683491110801697
0.02985755354166031
-0.00883063767105341
-0.029524320736527443
0.02914665825664997
0.01066341158002615
-0.02559218928217888
-0.01947183348238468
0.021315716207027435
-0.07473274320363998
-0.023170705884695053
-0.0317680798470974
-0.09366030246019363
-0.028235826641321182
-0.08868404477834702
0.017305828630924225
0.028924504294991493
0.016328349709510803
-0.012407324276864529
-0.02018272876739502
-0.017972292378544807
-0.046563565731048584
-0.0313682034611702
0.02517009526491165
-0.022293195128440857
-0.07704315334558487
-0.018505463376641273
0.03290106728672981
-0.016594935208559036
-0.05811559408903122
-0.08686237782239914
0.043764419853687286
0.030324077233672142
-0.025214524939656258
-0.03083503246307373
0.016683796420693398
0.030812816694378853
-0.044364236295223236
-0.062114372849464417
0.056071773171424866
0.2342396080493927
0.11987452208995819
0.004884620197117329
-0.03463387116789818
0.02985755354166031
0.030013062059879303
0.0632251426577568
0.030301861464977264
-0.03005749173462391
-0.05118437856435776
-0.03587793931365013
0.014695513993501663
0.018083369359374046
-0.013873542658984661
0.030101923272013664
-0.0023937136866152287
0.025858772918581963
-0.021337931975722313
-0.033767469227313995
-0.0223265178501606
-0.014895453117787838
0.029568752273917198
0.004962373990565538
0.001541196252219379
0.03134598582983017
0.057760145515203476
-0.03123491071164608
-0.09126102924346924
0.02550332620739937
-0.01780567690730095
-0.03045736998319626
-0.03292328491806984
-0.012018553912639618
-0.13977955281734467
-0.10290192067623138
0.32061323523521423
0.7023633718490601
0.06326957792043686
-0.1385354846715927
-0.09934744983911514
0.019427403807640076
0.030968325212597847
0.035744644701480865
-0.049629297107458115
-0.03221239149570465
0.049229416996240616
0.3209686875343323
0.01907195709645748
-0.03234568238258362
-0.030812816694378853
0.032878853380680084
0.03154592588543892
0.02963539958000183
-0.06029270589351654
-0.057271406054496765
0.004645803943276405
0.027636008337140083
0.06224766746163368
0.008480744436383247
-0.03045736998319626
-0.028413549065589905
-0.021449008956551552
-0.02796924114227295
-0.04985145106911659
-0.06291413307189941
-0.019427403807640076
-0.06069258600473404
-0.029879769310355186
0.02261531911790371
-0.004468080587685108
-0.04683015123009682
-0.03501153364777565
-0.04789649322628975
-0.03958791494369507
0.008080867119133472
-0.023370644077658653
-0.028302472084760666
-0.015761855989694595
-0.03005749173462391
0.011102166958153248
0.1947849839925766
0.2367277443408966
-0.005714922212064266
-0.10601208359003067
-0.09321599453687668
0.011718645691871643
-0.026902899146080017
-0.01878315582871437
0.014006835408508778
0.05491657182574272
-0.022148795425891876
-0.029413243755698204
-0.024970155209302902
0.02708062343299389
0.023459505289793015
0.04314238578081131
0.08477412164211273
-0.03598901629447937
-0.028835643082857132
0.04431980475783348
0.09934744983911514
0.0037599634379148483
-0.03203466534614563
-0.030679523944854736
0.04776319861412048
-0.04154287651181221
0.009752579033374786
0.02905779704451561
0.013773573562502861
0.029613183811306953
0.00453195022419095
-0.029279951006174088
-0.024525847285985947
-0.03163478896021843
-0.06589099764823914
-0.0313682034611702
-0.02885785885155201
-0.06331400573253632
-0.027547147125005722
0.024325909093022346
0.026347514241933823
-0.019160818308591843
0.05620506778359413
0.028413549065589905
-0.0340118408203125
-0.03152371197938919
0.018261093646287918
-0.030590662732720375
0.028991151601076126
-0.022237656638026237
-0.030412938445806503
0.004568050149828196
0.004337565042078495
0.029080012813210487
0.03065730817615986
-0.04094306007027626
-0.028613489121198654
0.05611620470881462
-0.024725785478949547
0.00976368598639965
0.029191089794039726
0.04172059893608093
-0.0018744278931990266
-0.03074617125093937
-0.09463778138160706
0.14848801493644714
-0.02221544086933136
-0.013795789331197739
-0.04736332222819328
0.12307354807853699
0.06566884368658066
-0.12031883001327515
-0.028102533891797066
0.20029442012310028
0.32967713475227356
0.0267696063965559
-0.07308880239725113
-0.07144486159086227
0.029502106830477715
-0.015906255692243576
-0.03243454545736313
-0.020715899765491486
0.06029270589351654
0.0632251426577568
-0.010152456350624561
-0.03310100734233856
0.004018217790871859
-0.018138907849788666
0.007492157630622387
0.01332926470786333
-0.016683796420693398
0.0015703539829701185
0.0257699117064476
-0.038232773542404175
-0.0222487635910511
-0.0364111065864563
-0.029724260792136192
-0.04205382987856865
-0.02272639609873295
-0.029568752273917198
0.016050655394792557
-0.016817089170217514
-0.016095086932182312
-0.019027525559067726
0.025236740708351135
0.03043515421450138
0.009058346040546894
-0.027213916182518005
-0.030990540981292725
-0.027791516855359077
-0.008025327697396278
-0.022859688848257065
0.018572108820080757
-0.008641806431114674
-0.0853072926402092
-0.08388550579547882
-0.031590357422828674
-0.0049457126297056675
-0.027391638606786728
-0.029279951006174088
-0.006909002084285021
0.024259261786937714
0.014340067282319069
0.023948246613144875
0.010474580340087414
-0.03767738863825798
-0.030124139040708542
-0.05362807586789131
-0.030479585751891136
0.02716948464512825
0.01894977129995823
-0.03332316130399704
-0.06180335581302643
-0.03818834200501442
-0.029102228581905365
-0.03034629300236702
-0.029502106830477715
-0.0193274337798357
0.02421483024954796
0.028791211545467377
-0.030923893675208092
-0.000364819192327559
-0.03005749173462391
-0.031190479174256325
-0.028924504294991493
0.03330094739794731
0.030857248231768608
0.03045736998319626
-0.027702655643224716
-0.0362556017935276
-0.008169728331267834
-0.04525285214185715
0.001069118152372539
0.030901677906513214
0.12120744585990906
-0.009269393049180508
-0.03412291780114174
-0.034545011818408966
0.029191089794039726
0.042587000876665115
0.02785816416144371
-0.017272505909204483
-0.040920842438936234
0.014517790637910366
-0.0028768996708095074
-0.0027547148056328297
0.02319291979074478
-0.00963594764471054
0.07726530730724335
0.18145573139190674
-0.021993286907672882
-0.030190784484148026
0.018960878252983093
0.08499627560377121
0.029613183811306953
-5.727418283640873e-06
-0.038832589983940125
0.010441257618367672
0.15995118021965027
0.11374305933713913
-0.0316125713288784
-0.12298468500375748
-0.11009972542524338
0.008297467604279518
0.0164061039686203
-0.027302777394652367
-0.05145096033811569
-0.02916887402534485
0.01511760801076889
0.19905035197734833
0.20580384135246277
-0.039410192519426346
-0.0793091282248497
0.012829417362809181
0.09410461038351059
-0.016183948144316673
-0.017483552917838097
-0.012118523009121418
-0.005273390561342239
0.0055427527986466885
-0.03909917548298836
0.03141263499855995
0.021171314641833305
0.0018438816769048572
-0.01617284119129181
-0.0285690575838089
-0.012573939748108387
0.030013062059879303
0.027924809604883194
-0.03541141375899315
-0.010818920098245144
0.02448141574859619
0.007497711572796106
0.10743387043476105
0.2856017053127289
0.03054623119533062
-0.031879156827926636
0.013018248602747917
0.1595068722963333
0.029191089794039726
-0.02983533777296543
-0.024570278823375702
-0.013751357793807983
-0.01050790399312973
-0.03974342346191406
0.04731889069080353
0.056160636246204376
0.06824583560228348
0.004343118984252214
0.004576380830258131
-0.030590662732720375
0.028302472084760666
0.0029935308266431093
-0.008264143951237202
0.03192358836531639
-0.06695733964443207
-0.02768043987452984
0.001977174310013652
-0.030324077233672142
-0.01511760801076889
0.005653829779475927
-0.030790600925683975
-0.027547147125005722
0.003376747015863657
-0.0006022467277944088
-0.028213610872626305
-0.014573329128324986
0.015150930732488632
-0.014639975503087044
0.061625633388757706
0.029901983216404915
-0.02390381507575512
-0.030701739713549614
0.021637840196490288
0.030968325212597847
0.03758852556347847
-0.030390724539756775
-0.02247091941535473
0.02207104116678238
0.05407238379120827
-0.09472664445638657
-0.07668770104646683
0.21131327748298645
0.26694074273109436
-0.018816478550434113
-0.08606261759996414
1.6835139831528068e-05
-0.03143484890460968
-0.08224156498908997
-0.05047348141670227
0.0072200181894004345
0.11036631464958191
0.033167652785778046
-0.0909055843949318
-0.17896759510040283
-0.15115386247634888
-0.021315716207027435
-0.030168568715453148
-0.029479891061782837
-0.022182118147611618
-0.05838217958807945
-0.037210863083601
0.01235178578644991
-0.0014273420674726367
-0.029702045023441315
-0.010991089977324009
-0.023370644077658653
-0.030013062059879303
-0.029724260792136192
-0.029724260792136192
0.01194079965353012
0.008808422833681107
-0.006064815446734428
0.0011017470387741923
0.028835643082857132
-0.027791516855359077
0.0267696063965559
0.01461776066571474
-0.023348428308963776
0.02896893583238125
-0.0020410437136888504
0.02768043987452984
0.03472273424267769
0.2011830359697342
0.34833812713623047
0.055005431175231934
-0.10850021243095398
0.07193359732627869
0.29022252559661865
-0.029413243755698204
-0.016650473698973656
-0.04669685661792755
-0.02828025631606579
0.025614403188228607
0.013551419600844383
-0.0039515714161098
-0.02785816416144371
0.007253341376781464
0.0285690575838089
0.01717253588140011
0.034944888204336166
0.017372475937008858
-0.030768387019634247
0.02788037806749344
0.015417516231536865
-0.028991151601076126
0.0148843452334404
0.009669270366430283
0.027991456910967827
0.042609214782714844
-0.004681904334574938
0.023059628903865814
-0.02421483024954796
-0.03132377192378044
-0.054383400827646255
0.02785816416144371
-0.022237656638026237
-0.03023521602153778
-0.02794702537357807
0.03174586594104767
0.029035581275820732
-0.03094610944390297
0.08135294914245605
0.17336930334568024
0.5018912553787231
-0.08486298471689224
-0.0885951817035675
0.010152456350624561
0.04454195871949196
0.033167652785778046
-0.02963539958000183
-0.028924504294991493
-0.001046902616508305
0.03063509427011013
6.595208833459765e-05
0.02439255453646183
-0.01069118082523346
-0.01595068722963333
0.012185169383883476
0.027636008337140083
-0.013473665341734886
-0.08219712972640991
-0.029479891061782837
-0.0063369544222950935
0.0362556017935276
0.006964541040360928
0.024081537500023842
0.056782666593790054
0.025547757744789124
-0.029524320736527443
-0.03352310135960579
-0.012473970651626587
0.0027366646099835634
0.029724260792136192
0.009963625110685825
-0.04005444049835205
0.0049956971779465675
-0.0636250227689743
-0.02943545952439308
-0.03123491071164608
0.05127323791384697
0.02428147755563259
-0.021226854994893074
-0.030679523944854736
0.01566188596189022
-0.09854769706726074
-0.11329875141382217
0.00419316440820694
0.5260616540908813
0.2294410765171051
-0.08255258202552795
-0.031101617962121964
0.07788733392953873
0.03112383373081684
0.024170400574803352
-0.01561745535582304
0.029901983216404915
-0.07944241911172867
0.0036960940342396498
0.012640586122870445
-0.02845798060297966
-0.012529509142041206
0.0022048824466764927
0.010785596445202827
-0.00550387566909194
0.027324993163347244
-0.03261226788163185
0.02368166111409664
0.001047596917487681
-0.0029490997549146414
0.006775709800422192
0.03649996966123581
0.028035886585712433
-0.08228599280118942
0.005809337832033634
0.23121830821037292
0.6366056799888611
-0.0740218535065651
-0.1312488317489624
-0.06509124487638474
0.040698688477277756
0.017850106582045555
-0.0861070528626442
0.21078011393547058
0.6885009407997131
0.2825804054737091
-0.029124444350600243
-0.04147622734308243
-0.030013062059879303
0.028391333296895027
0.030524015426635742
-0.034545011818408966
-0.028391333296895027
0.07308880239725113
0.09108331054449081
-0.02716948464512825
0.02190442569553852
0.008925053291022778
-0.05287275090813637
-0.10992200672626495
-0.015739640220999718
-0.031012756749987602
-0.13489216566085815
-0.06864571571350098
0.02645859122276306
0.029479891061782837
-0.006181446369737387
0.004232041537761688
-0.037632957100868225
0.03225681930780411
0.08512957394123077
-0.027502715587615967
0.014606652781367302
0.016706012189388275
0.030524015426635742
0.021226854994893074
-0.0317680798470974
-0.023948246613144875
0.03072395548224449
0.10583436489105225
0.09028355032205582
-0.02665852941572666
-0.03074617125093937
0.029924198985099792
0.025636618956923485
-0.006692401599138975
0.030101923272013664
-0.005223405547440052
-0.026036497205495834
0.0064591397531330585
0.035233691334724426
0.03212352842092514
-0.027102839201688766
-0.03636667877435684
0.013906866312026978
0.189986452460289
0.0736219733953476
-0.02716948464512825
-0.03392297774553299
0.039032530039548874
-0.028302472084760666
-0.020849192515015602
-0.06589099764823914
0.06513567268848419
0.23868270218372345
0.030479585751891136
-0.03527811914682388
-0.035055965185165405
0.030390724539756775
0.03192358836531639
0.016539396718144417
-0.030612878501415253
0.15088728070259094
0.37250852584838867
0.1353364735841751
-0.029391027987003326
0.19425182044506073
0.1826997846364975
0.03130155801773071
-0.05291718244552612
-0.02794702537357807
0.03132377192378044
0.020104974508285522
-0.029013365507125854
-0.029590968042612076
-0.03063509427011013
-0.027413854375481606
0.019605126231908798
0.03023521602153778
-0.029590968042612076
0.021537870168685913
0.026591883972287178
-0.02748050168156624
0.02688068337738514
0.01903863251209259
0.021404577419161797
-0.018960878252983093
-0.04272029176354408
-0.05642722174525261
-0.030168568715453148
-0.030701739713549614
0.029080012813210487
0.006087030749768019
0.09170534461736679
0.021249068900942802
-0.03318987041711807
-0.027902593836188316
0.03243454545736313
-0.027391638606786728
0.02090473100543022
0.030768387019634247
0.012907171621918678
-0.04340897127985954
-0.06131461635231972
0.04936271160840988
0.059448521584272385
0.027302777394652367
0.07748746126890182
0.023659445345401764
-0.07464388012886047
-0.03410070389509201
0.2059815675020218
0.13133768737316132
0.001718919724225998
-0.038321636617183685
-0.02176002413034439
-0.05100665241479874
-0.08917278051376343
-0.07339981943368912
-0.08846189081668854
0.028102533891797066
0.03696649521589279
-0.03989893198013306
-0.08561830967664719
-0.0648246556520462
0.039410192519426346
0.2560996115207672
0.030679523944854736
-0.03054623119533062
-0.045163992792367935
0.0328122079372406
0.019505158066749573
0.030279645696282387
-0.0317680798470974
-0.014595544897019863
-0.024436986073851585
-0.023926030844449997
0.0174057986587286
0.007680988870561123
-0.0769098550081253
0.029724260792136192
0.003082392504438758
-0.006736832670867443
-0.01878315582871437
0.011796399019658566
0.029879769310355186
0.023148490116000175
-0.016672689467668533
0.008525175973773003
0.029524320736527443
0.025658834725618362
-0.0031184926629066467
-0.027213916182518005
0.02101580798625946
-0.03014635294675827
-0.02619200572371483
0.014206774532794952
0.07824278622865677
-0.0128849558532238
-0.029279951006174088
-0.08339677006006241
0.028991151601076126
-0.029790906235575676
-0.02943545952439308
0.013651388697326183
-0.02468135580420494
0.0045847115106880665
-0.022482026368379593
-0.02934659831225872
-0.02965761348605156
0.23939359188079834
0.28684577345848083
-0.0042959111742675304
-0.06264754384756088
0.17727921903133392
0.3558025062084198
0.027747085317969322
-0.030612878501415253
-0.09765908122062683
-0.011529814451932907
0.0057649072259664536
0.023281782865524292
0.035144828259944916
-0.05584961920976639
0.02925773523747921
0.0652245357632637
-0.015039853751659393
-0.003482270520180464
-0.0317680798470974
-0.03005749173462391
-0.0211268849670887
0.00824748259037733
-0.02388159930706024
-0.005534421652555466
0.025147879496216774
0.03014635294675827
0.0328122079372406
0.10450143367052078
0.03338980674743652
-0.026325298473238945
-0.23281782865524292
-0.10290192067623138
-0.03581129014492035
0.01571742445230484
-0.010346841998398304
-0.02081586793065071
0.013262618333101273
0.01972731202840805
-0.040809765458106995
-0.028702350333333015
-0.030124139040708542
0.029524320736527443
-0.01103552058339119
-0.02925773523747921
-0.02688068337738514
0.027813732624053955
-0.013407018966972828
-0.002067424589768052
0.024148184806108475
-0.02665852941572666
-0.026058712974190712
-0.014551114290952682
0.02210436388850212
-0.0050401282496750355
-0.007036740891635418
0.03132377192378044
-0.0285690575838089
0.010213549248874187
-0.048340801149606705
-0.006175892893224955
-0.01800561510026455
0.029124444350600243
0.01344034168869257
0.011685322038829327
0.033256515860557556
0.024037107825279236
-0.02965761348605156
-0.02047153003513813
-0.012462862767279148
0.021882209926843643
-0.0088028684258461
0.046652425080537796
-0.022881904616951942
-0.01382911205291748
-0.0965927392244339
-0.03809948265552521
0.149021178483963
0.03701092675328255
0.0024645254015922546
-0.03747744858264923
-0.04611925780773163
-0.030124139040708542
0.0006515372660942376
0.03103497065603733
0.015584131702780724
-0.042675863951444626
-0.024370338767766953
-0.011763076297938824
0.02250424213707447
0.007375526707619429
2.8637092327699065e-05
-0.03103497065603733
-0.030324077233672142
-0.1867874264717102
-0.012918279506266117
-0.0057649072259664536
0.027391638606786728
-0.02430369332432747
0.030279645696282387
0.011718645691871643
-0.0664241686463356
-0.03298993036150932
-0.016050655394792557
0.2198440134525299
0.06824583560228348
-0.030901677906513214
-0.06015941500663757
-0.028635703027248383
0.01880537159740925
0.013595850206911564
0.003235123585909605
-0.03152371197938919
0.006214769557118416
-0.04440866783261299
-0.016672689467668533
0.027213916182518005
0.003387854900211096
0.05660494416952133
0.15906256437301636
0.11783070117235184
0.028191395103931427
0.02468135580420494
-0.07077839225530624
0.0030046384781599045
0.02559218928217888
0.018227769061923027
-0.0005276167066767812
-0.07708758115768433
-0.03936576098203659
0.004623588640242815
0.04363112524151802
0.031968019902706146
0.01110772043466568
0.0035850168205797672
-0.044764112681150436
-0.03143484890460968
0.03301214426755905
0.03578907623887062
-0.06135904788970947
-0.05416124686598778
-0.02410375326871872
0.02914665825664997
0.034367289394140244
0.002328455913811922
-0.04900726303458214
0.025125663727521896
0.0073921880684792995
-0.026325298473238945
-0.028635703027248383
-0.03874373063445091
0.031168263405561447
0.06744608283042908
-0.030390724539756775
0.0283691193908453
0.010818920098245144
0.020338237285614014
-0.07135599851608276
-0.0317680798470974
0.0183277390897274
0.03709978610277176
0.02388159930706024
-0.017416905611753464
0.0933937132358551
0.20953604578971863
-0.015284223482012749
-0.07762075215578079
-0.004704119637608528
0.13027134537696838
0.029968630522489548
-0.024836862459778786
-0.02885785885155201
-0.030879464000463486
-0.13791346549987793
-0.030923893675208092
-0.07255563139915466
-0.02628086693584919
0.010285749100148678
0.03074617125093937
0.02943545952439308
0.02147122472524643
0.017139213159680367
0.017416905611753464
0.022770827636122704
-0.01571742445230484
-0.03054623119533062
-0.03143484890460968
0.002000778215005994
0.030479585751891136
-0.014317851513624191
-0.01746133714914322
-0.021882209926843643
-0.00437366496771574
0.029813122004270554
-0.005026243627071381
0.017328044399619102
-0.007586573250591755
-0.00649801641702652
-0.006536893546581268
0.030213000252842903
0.03023521602153778
0.029302166774868965
-0.035944584757089615
-0.036055661737918854
-0.02448141574859619
0.0728222131729126
0.04227598384022713
0.04780763015151024
-0.018461031839251518
-0.03083503246307373
-0.07255563139915466
-0.009685932658612728
0.03381190076470375
0.02410375326871872
0.021915532648563385
0.0037599634379148483
-0.022182118147611618
0.000894865719601512
-0.031501494348049164
0.01918303407728672
-0.026347514241933823
0.014662191271781921
0.019216356799006462
-0.009913641028106213
0.0275693628937006
0.030279645696282387
-0.027747085317969322
-0.033656392246484756
-0.029368814080953598
0.10690070688724518
0.24205945432186127
0.01854989305138588
-0.07913140207529068
-0.060337137430906296
0.03876594454050064
-0.022526457905769348
-0.02001611329615116
0.016339456662535667
0.02954653650522232
-0.030923893675208092
0.025658834725618362
0.021771132946014404
0.02588098868727684
0.005456667859107256
0.08366335183382034
0.03074617125093937
-0.11365419626235962
-0.09170534461736679
0.1562189757823944
0.4652802050113678
0.007964235730469227
-0.09081672132015228
-0.1223626509308815
-0.04014330357313156
0.0067146169021725655
0.03478937968611717
-0.023837167769670486
-0.0025561642833054066
0.02716948464512825
-0.03538919612765312
-0.04125407338142395
-0.026614097878336906
-0.04891839995980263
-0.040609825402498245
-0.01557302474975586
0.03194580599665642
0.01894977129995823
-0.028191395103931427
-0.011235459707677364
0.024525847285985947
0.015006531029939651
0.01903863251209259
-0.030524015426635742
-0.02368166111409664
0.02281525731086731
0.029502106830477715
-0.030768387019634247
0.010996643453836441
-0.025036802515387535
-0.013962404802441597
0.1595068722963333
0.029790906235575676
-0.03203466534614563
-0.021626731380820274
0.1651051640510559
0.07339981943368912
-0.03074617125093937
-0.04749661311507225
-0.028435764834284782
0.10974428057670593
0.2182444930076599
0.028724566102027893
-0.02983533777296543
0.017050351947546005
0.13835777342319489
0.030279645696282387
0.030524015426635742
0.020804760977625847
-0.03130155801773071
0.007992004975676537
0.002767210826277733
0.029813122004270554
-0.008080867119133472
-0.02916887402534485
0.00956374779343605
0.03463387116789818
0.029413243755698204
-0.027013976126909256
-0.03969899192452431
-0.03094610944390297
-0.029302166774868965
0.03203466534614563
0.03687763214111328
0.014606652781367302
-0.03503375127911568
0.030324077233672142
-0.011285443790256977
0.02027158997952938
0.026858467608690262
0.028302472084760666
-0.010657858103513718
-0.020316021516919136
0.019605126231908798
0.00639804732054472
0.02645859122276306
0.02934659831225872
-0.019971681758761406
-0.10885566473007202
0.09828111529350281
0.18012279272079468
0.030079707503318787
-0.030857248231768608
-0.024037107825279236
0.01775013841688633
-0.030901677906513214
-0.03003527596592903
-0.023726090788841248
-0.006775709800422192
-0.029213305562734604
-0.049540434032678604
-0.014662191271781921
0.0158840399235487
0.016672689467668533
-0.01058010384440422
-0.05158425495028496
-0.031168263405561447
-0.030168568715453148
-0.031479280441999435
-0.029368814080953598
0.014984315261244774
-0.023326212540268898
-0.030923893675208092
0.011518706567585468
-0.028880072757601738
-0.13640281558036804
-0.025836559012532234
-0.1530199646949768
0.011207690462470055
0.028924504294991493
-0.0023812176659703255
-0.01751687563955784
-0.021993286907672882
-0.02087140642106533
-0.07908697426319122
-0.0716225802898407
0.09437119215726852
0.010363503359258175
0.020593713968992233
-0.009902533143758774
-0.030190784484148026
-0.030901677906513214
-0.0313682034611702
-0.02479243278503418
0.029813122004270554
0.04927384853363037
0.029124444350600243
0.013318156823515892
-0.030079707503318787
-0.011235459707677364
0.013962404802441597
0.001022604526951909
0.022881904616951942
0.02768043987452984
0.030390724539756775
-0.018283307552337646
-0.028302472084760666
-0.02768043987452984
-0.014462252147495747
0.17212523519992828
0.1931854784488678
0.055671896785497665
0.09134989231824875
0.22446481883525848
0.24703571200370789
-0.049540434032678604
-0.03003527596592903
0.02934659831225872
-6.595209015358705e-06
0.034078486263751984
-0.029324382543563843
-0.015195362269878387
0.02599206566810608
0.12174061685800552
-0.0006813892396166921
-0.019993897527456284
-0.034545011818408966
0.013973512686789036
0.026702960953116417
0.016339456662535667
-0.026347514241933823
-0.009280500933527946
0.016761550679802895
0.021660055965185165
-0.009930302388966084
-0.049318280071020126
-0.01880537159740925
-0.007331095635890961
-0.029901983216404915
-0.01562856324017048
-0.02865791879594326
0.022770827636122704
-0.029590968042612076
0.007603234611451626
-0.030101923272013664
-0.009075007401406765
0.014784376136958599
-0.025303388014435768
0.012951602227985859
-0.020449314266443253
-0.031190479174256325
0.02058260701596737
-0.01998278871178627
0.028991151601076126
-0.030390724539756775
0.004876289516687393
0.034856028854846954
-0.0006831248174421489
0.016617150977253914
-0.06313628703355789
0.0352114737033844
0.037544094026088715
0.09366030246019363
-0.02528117224574089
-0.04629698023200035
-0.01289606373757124
0.062336526811122894
0.15648557245731354
0.01987171173095703
-0.046474702656269073
-0.029924198985099792
0.026902899146080017
-0.03045736998319626
-0.010380164720118046
-0.014762160368263721
-8.85146509972401e-05
0.027436070144176483
-0.02945767529308796
-0.025836559012532234
0.0100635951384902
-0.030279645696282387
-0.029524320736527443
0.027302777394652367
0.022837473079562187
0.026547452434897423
-0.026347514241933823
-0.03072395548224449
0.042298201471567154
0.04420872777700424
-2.1174091671127826e-05
0.07148928940296173
-0.0356113538146019
0.014984315261244774
0.03083503246307373
-0.042609214782714844
-0.009458224289119244
5.727418465539813e-05
-0.021137991920113564
-0.006386939436197281
0.021915532648563385
-0.008597375825047493
0.03034629300236702
0.02916887402534485
-0.031990233808755875
0.01299603283405304
0.001329455291852355
-0.006164785008877516
0.00510399742051959
0.011307659558951855
0.03103497065603733
-0.03636667877435684
0.05576075613498688
0.2875566780567169
0.18323296308517456
-0.10618980973958969
-0.013140433467924595
0.0013954073656350374
-0.029213305562734604
-0.055494170635938644
-0.023970460519194603
0.03498931974172592
0.0909944474697113
-0.024836862459778786
-0.04780763015151024
-0.1304490715265274
-0.14377833902835846
0.09988062083721161
0.20651474595069885
0.051228806376457214
-0.1399572789669037
-0.1908750683069229
-0.029279951006174088
-0.016017332673072815
-0.02410375326871872
-0.03043515421450138
-0.02616978995501995
-0.016128409653902054
0.02388159930706024
0.025903204455971718
-0.020371560007333755
-0.030790600925683975
0.02299298159778118
0.03510039672255516
-0.024370338767766953
0.02470357157289982
0.02599206566810608
-0.038232773542404175
-0.07299993932247162
-0.00510955136269331
0.030013062059879303
-0.030301861464977264
-0.02107134647667408
-0.013806897215545177
0.027213916182518005
0.03190137445926666
-0.03072395548224449
-0.025925420224666595
-0.11001086235046387
0.0030573999974876642
-0.028524626046419144
0.02914665825664997
0.025325603783130646
0.020693683996796608
-0.1256505399942398
-0.1021910309791565
-0.031168263405561447
0.22268758714199066
0.020093867555260658
-0.032789990305900574
-0.11205468326807022
0.07055623829364777
-0.0344117172062397
-0.03330094739794731
-0.0004141097015235573
0.014484467916190624
0.026614097878336906
0.013273726217448711
-0.02736942283809185
0.029502106830477715
0.012407324276864529
0.12182947993278503
-0.007614342495799065
-0.0737108364701271
0.05056234449148178
0.3133265972137451
0.07299993932247162
-7.306797488126904e-05
-0.04371998831629753
0.02885785885155201
0.02470357157289982
0.024525847285985947
0.02934659831225872
-0.0006119660101830959
-0.02825804054737091
-0.012407324276864529
0.032656699419021606
0.03310100734233856
0.04016551747918129
0.15559695661067963
0.30870577692985535
0.10725615173578262
-0.03312322124838829
0.02459249272942543
0.12271809577941895
0.030412938445806503
0.015495270490646362
-0.0035683552268892527
-0.02983533777296543
-0.07837607711553574
-0.03350088372826576
-0.03234568238258362
-0.06926774233579636
-0.05016246810555458
-0.005942630581557751
0.0048013124614953995
0.02061592973768711
-0.026814037933945656
-0.011296551674604416
-0.03025743179023266
-0.00028897429001517594
0.029413243755698204
0.0265696682035923
-0.013618065044283867
0.007575465366244316
0.01467329915612936
0.028324687853455544
0.04856295511126518
-0.09908086806535721
-0.025547757744789124
0.17603515088558197
0.08055318892002106
-0.09765908122062683
-0.04220933839678764
0.0032129082828760147
0.17043685913085938
0.3243454396724701
-0.027524931356310844
-0.22748611867427826
0.1247619166970253
0.27369424700737
-0.006209215614944696
-0.027413854375481606
-0.08459640294313431
0.017283612862229347
-0.022193225100636482
0.03043515421450138
-0.0885951817035675
-0.016639364883303642
0.030901677906513214
0.0036322246305644512
0.00649801641702652
-0.1134764775633812
-0.01512871589511633
0.026125358417630196
0.020649252459406853
0.010357949882745743
-0.023526152595877647
-0.010419041849672794
0.022093256935477257
0.015384193509817123
0.03054623119533062
0.029790906235575676
0.01532865408807993
0.028813427314162254
-0.006709063425660133
-0.028680134564638138
-0.031212694942951202
-0.026725176721811295
0.004173725843429565
-0.029968630522489548
-0.0032878853380680084
-0.0285690575838089
-0.027391638606786728
-0.030768387019634247
-0.012262923642992973
-0.02885785885155201
0.01783899962902069
0.015606347471475601
-0.029613183811306953
-0.02350393682718277
-0.03590015321969986
-0.03103497065603733
0.018449924886226654
0.04531950131058693
0.001893866341561079
0.024370338767766953
-0.0036183400079607964
-0.02172670140862465
0.03618895262479782
-0.01591736450791359
-0.03918803855776787
-0.04158730432391167
0.09410461038351059
0.0328122079372406
-0.03318987041711807
-0.046963442116975784
-0.02548111043870449
0.030279645696282387
0.03254562243819237
0.05020689591765404
0.03094610944390297
-0.009152761660516262
-0.0034545010421425104
0.03025743179023266
0.06451363861560822
0.030390724539756775
0.004329233895987272
0.1392463892698288
0.03796618804335594
-0.02788037806749344
-0.027547147125005722
-0.05456112325191498
-0.0007789289229549468
0.02874678187072277
0.02945767529308796
0.030301861464977264
-0.015672992914915085
-0.03205688297748566
0.010713396593928337
0.01949404925107956
-0.012318462133407593
0.030479585751891136
-0.07153371721506119
0.023926030844449997
-0.029124444350600243
0.01717253588140011
0.030279645696282387
-0.01205187663435936
-0.08028660714626312
-0.03114604949951172
-0.007986451499164104
0.057360269129276276
0.05589405074715614
0.010363503359258175
-0.022837473079562187
-0.0700230672955513
-0.028080318123102188
-0.039921149611473083
-0.02517009526491165
0.025925420224666595
-0.029502106830477715
0.015239792875945568
0.018072262406349182
0.009213854558765888
-0.0003280248783994466
-0.045674946159124374
-0.01595068722963333
0.008958376944065094
0.020971376448869705
0.04789649322628975
-0.030213000252842903
0.1432451605796814
0.19940580427646637
0.01967177353799343
-0.07864265888929367
0.015017637982964516
0.15524150431156158
0.031212694942951202
-0.022970765829086304
-0.031279340386390686
0.039810068905353546
-0.04687458276748657
-0.03043515421450138
-0.025214524939656258
0.0037349711637943983
0.027591578662395477
0.027636008337140083
-0.07255563139915466
0.03045736998319626
0.03043515421450138
0.02596985176205635
-0.03023521602153778
0.029679829254746437
0.032101310789585114
0.07664327323436737
0.03094610944390297
0.05718254670500755
-0.003993225749582052
0.012140738777816296
0.028724566102027893
-0.028591273352503777
-0.11329875141382217
-0.045674946159124374
0.10450143367052078
0.009652609005570412
-0.011157705448567867
-0.03054623119533062
-0.005864876322448254
-0.041209641844034195
-0.07166701555252075
-0.011002196930348873
-0.031012756749987602
-0.02885785885155201
-0.008630698546767235
0.006198108196258545
-0.01472883764654398
0.03598901629447937
0.007270003203302622
0.02410375326871872
-0.03054623119533062
-0.02985755354166031
-0.04869624599814415
-0.017483552917838097
0.018072262406349182
-0.013273726217448711
0.00959151703864336
0.08526286482810974
0.03885480761528015
0.004965151194483042
0.05411681532859802
0.03443393483757973
-0.030301861464977264
-0.0316125713288784
0.0033017699606716633
-0.02925773523747921
-0.031012756749987602
-0.004956820514053106
-0.0014245652128010988
-0.02916887402534485
-0.005423344671726227
-0.02788037806749344
-0.0030962771270424128
0.030479585751891136
-0.023126274347305298
0.13960182666778564
0.034367289394140244
-0.018316632136702538
0.09508208930492401
0.03447836637496948
0.07619896531105042
0.07020079344511032
0.004937381949275732
0.033256515860557556
-0.06318071484565735
-0.030324077233672142
0.007042294833809137
0.17274726927280426
0.09286054223775864
-0.027436070144176483
-0.06455807387828827
-0.02470357157289982
0.03165700286626816
-0.03292328491806984
0.021193530410528183
0.030923893675208092
-0.1126767173409462
-0.016039548441767693
0.010385719127953053
-0.02116020768880844
0.027791516855359077
0.02390381507575512
-0.013662496581673622
0.0285690575838089
0.028880072757601738
0.0328122079372406
0.006081477273255587
0.025947635993361473
-0.0001706076436676085
0.028324687853455544
-0.04287580028176308
-0.053183767944574356
-0.031101617962121964
0.02688068337738514
0.06131461635231972
0.02350393682718277
-0.020005004480481148
-0.005587183404713869
0.031279340386390686
-0.030501801520586014
0.029013365507125854
-0.013529203832149506
-0.026547452434897423
-0.027702655643224716
-0.010735612362623215
0.029613183811306953
0.03141263499855995
0.01883869431912899
0.022970765829086304
-0.003787732683122158
0.006692401599138975
0.030390724539756775
0.016328349709510803
-0.04900726303458214
0.006575770676136017
-0.030324077233672142
0.03063509427011013
-0.0014981537824496627
-0.014551114290952682
0.022859688848257065
-0.003948794677853584
0.004151510540395975
-0.029035581275820732
0.010768935084342957
0.025125663727521896
-0.02639194391667843
-0.02448141574859619
-0.051317669451236725
-0.0352114737033844
-0.013506988063454628
-0.030679523944854736
-0.009930302388966084
0.02430369332432747
0.014206774532794952
0.016506072133779526
0.04780763015151024
-0.02965761348605156
-0.13658052682876587
-0.030412938445806503
0.20651474595069885
0.1399572789669037
-0.030101923272013664
-0.043786633759737015
-0.027191700413823128
0.07148928940296173
-0.006964541040360928
-0.06460250169038773
0.020504852756857872
0.2125573456287384
0.08908391743898392
-0.033567532896995544
0.0010753661626949906
0.03045736998319626
0.1384466290473938
0.09481550008058548
-0.032478976994752884
-0.03498931974172592
0.10974428057670593
0.20580384135246277
0.015262007713317871
-0.022082148119807243
-0.029013365507125854
-0.05958181247115135
0.33287617564201355
0.25983181595802307
-0.03154592588543892
-0.07668770104646683
0.04192053899168968
-0.03014635294675827
-0.00835855957120657
-0.0316125713288784
-0.01646583527326584
-8.329852425958961e-05
0.01668819598853588
-0.09525946527719498
-0.07698138803243637
-0.002464038087055087
-0.023570269346237183
-0.009355840273201466
0.003421580418944359
0.006237227004021406
0.015743160620331764
0.005097626708447933
-0.008883323520421982
0.015676451846957207
-0.011357089504599571
0.008777701295912266
0.00764366053044796
0.0002310470154043287
-0.01639912649989128
-0.033843349665403366
0.017499813809990883
-0.024971144273877144
-0.09339163452386856
-0.021724672988057137
0.014875953085720539
-0.05421162024140358
-0.017433105036616325
-0.015387383289635181
-0.021724672988057137
0.0064873830415308475
0.005820299964398146
-0.007754840888082981
0.024126172065734863
0.01878950744867325
0.009661586955189705
0.020357152447104454
0.01469806395471096
0.0030018738470971584
0.012974766083061695
-0.0036217053420841694
-0.017232980579137802
0.016321299597620964
0.005470081232488155
0.01456464733928442
-0.015787633135914803
-0.02421511709690094
-0.021802499890327454
-0.0038857590407133102
-0.013897564262151718
0.01754428632557392
0.0152650848031044
0.015765396878123283
0.00042109619244001806
0.0030324484687298536
0.015676451846957207
-0.008883323520421982
0.009945097379386425
0.015620862133800983
-0.04026958346366882
0.01669931411743164
0.006843160837888718
0.014598001725971699
0.010745597071945667
0.011507183313369751
-0.03715652972459793
-0.006076015066355467
-0.003641161834821105
-0.09943985193967819
-0.011179201304912567
-0.011996377259492874
-0.06991031020879745
-0.012074204161763191
0.06497389078140259
0.1356402337551117
0.005556246265769005
0.04175940155982971
0.10317552089691162
0.013330543413758278
-0.008394128642976284
-0.0014022642280906439
-0.013330543413758278
-0.006081574130803347
-0.010072954930365086
-0.01614341139793396
0.015198376961052418
0.016621487215161324
0.019690068438649178
0.01211867667734623
0.012318801134824753
0.031063836067914963
0.014875953085720539
0.015509681776165962
-0.0012549500679597259
-0.014509057626128197
0.010056277737021446
-0.014453466981649399
-0.025171268731355667
0.002400109311565757
0.006420674733817577
0.015487445518374443
0.01932317391037941
0.007882698439061642
0.028417740017175674
0.00727120554074645
0.0018803405109792948
-0.0082106813788414
0.050876203924417496
0.026594379916787148
-0.01727745309472084
0.029551781713962555
-0.0026252500247210264
0.016221236437559128
0.07186708599328995
0.0164213627576828
-0.02363697811961174
0.013197126798331738
-0.01727745309472084
-0.012685696594417095
0.01611005701124668
-0.016599250957369804
0.02166908234357834
0.02100200019776821
0.007993878796696663
0.01413104310631752
0.020045846700668335
-0.009694941341876984
0.015909932553768158
0.04102560877799988
0.013608494773507118
0.05572367459535599
0.07658114284276962
0.02132442221045494
0.031241724267601967
0.06199425458908081
-0.010239725932478905
0.015765396878123283
-0.0040664272382855415
-0.015743160620331764
0.0011180590372532606
0.01643248088657856
-0.0016621487447991967
-0.02828432247042656
-0.002238897606730461
0.0164213627576828
0.007182261440902948
-0.008605372160673141
0.012741287238895893
-0.019156401976943016
-0.026994628831744194
-0.01166283618658781
-0.01874503493309021
-0.01985684037208557
