-3.244048833847046
-2.136111259460449
-0.05197930335998535
0.7826676368713379
-2.691176414489746
-2.3214950561523438
-2.5049808025360107
0.9672799110412598
-2.143528461456299
-1.7145463228225708
0.8053351640701294
-2.4490487575531006
-1.7870659828186035
-1.7063333988189697
-2.0186543464660645
-2.9630556106567383
0.07389986515045166
1.8266112804412842
-1.0321409702301025
-1.2267637252807617
-1.2243688106536865
1.0870622396469116
-1.3343923091888428
-1.9705545902252197
-2.196974754333496
-0.5748214721679688
-1.8816479444503784
0.01727437973022461
1.79856538772583
-2.5867626667022705
-2.094381809234619
-0.12943625450134277
0.08026957511901855
-0.3825979232788086
0.20567631721496582
-1.3929643630981445
-0.21412169933319092
-2.1266112327575684
-0.24284017086029053
-1.8482990264892578
-1.583589792251587
-2.3482935428619385
1.0399255752563477
-2.685570478439331
-0.8871870040893555
-2.852947950363159
-3.0426180362701416
-1.6644302606582642
-1.3186709880828857
-2.0502917766571045
-0.8856834173202515
-1.1358261108398438
1.508253812789917
-0.7667703628540039
-1.3567938804626465
2.0682766437530518
-0.7973096370697021
-3.373046636581421
-0.4990546703338623
0.21324610710144043
-0.3663615584373474
-2.427824020385742
-1.9929566383361816
0.7791143655776978
