0.28988388180732727
-0.06407369673252106
-0.03552298992872238
0.6892884969711304
0.05806837975978851
0.045447032898664474
0.4922325909137726
-0.16479001939296722
0.006533328909426928
-0.04374213144183159
-0.043513115495443344
0.04633765295147896
-0.009332418441772461
-0.14911511540412903
0.06132550165057182
0.06071479246020317
-0.050638072192668915
0.09369315207004547
0.04570149630308151
-0.01236688531935215
0.029034189879894257
0.04554881900548935
-0.07720397412776947
-0.0399760864675045
-0.062343351542949677
0.04315686970949173
0.036006465554237366
-0.1471812129020691
-0.03127346187829971
-0.00566815584897995
-0.05333537608385086
-0.018906576558947563
-0.03888189420104027
-0.04211357235908508
0.08443070948123932
-0.004122295416891575
0.001044887350872159
-0.005407331511378288
-0.02654045633971691
-0.04570149630308151
0.08051198720932007
-0.04834790527820587
-0.039009127765893936
0.05532018467783928
-0.047050148248672485
-0.15878470242023468
0.07491380721330643
-0.04366579279303551
-0.02633688598871231
0.06051122024655342
0.03272389993071556
-0.02329605631530285
0.13679912686347961
-0.0017048998270183802
0.14575621485710144
-0.10239578038454056
0.12275279313325882
0.057813916355371475
0.006775068584829569
0.01891929842531681
-0.023092487826943398
0.05147779732942581
-0.037075210362672806
-0.025039127096533775
0.07079151272773743
-0.04488721489906311
-0.037736814469099045
0.11237071454524994
-0.08992710709571838
-0.03727877885103226
0.08677177131175995
-0.0634629875421524
-0.1946130394935608
0.17211854457855225
-0.07923967391252518
-0.1677417904138565
0.07588076591491699
0.031069891527295113
-0.06351388245820999
0.033410947769880295
0.038194846361875534
-0.02419940009713173
0.012093338184058666
-0.023957660421729088
-0.0486278161406517
0.015076912939548492
-0.05613446235656738
-0.04537069424986839
0.014847896993160248
-0.014275355264544487
-0.02576434426009655
-0.00284998188726604
-0.016629135236144066
-0.04364034906029701
-0.05048539116978645
0.00023418516502715647
0.012882172130048275
-0.002353779738768935
-7.335681584663689e-05
-0.08198787271976471
-0.07191114872694016
-0.01216331496834755
-0.07196204364299774
-0.2709518373012543
0.05501483008265495
-0.07399774342775345
-0.10738324373960495
0.056948743760585785
-0.028041785582900047
-0.0317314937710762
-0.048246122896671295
0.003769228234887123
-0.04496355354785919
-0.04221535474061966
0.0005109133198857307
-0.04509078338742256
-0.026896703988313675
0.051757704466581345
-0.047711748629808426
-0.017748771235346794
0.16845428943634033
0.0025605305563658476
-0.041655536741018295
0.22168786823749542
-0.2036719173192978
-0.0795450285077095
-0.0469992533326149
-0.14025981724262238
-0.044327396899461746
0.018079573288559914
-0.1347634345293045
-0.04893317073583603
-0.06539690494537354
-0.04595595598220825
-0.03923814371228218
-0.0034702345728874207
0.005210123024880886
-0.03610825166106224
0.003234856529161334
-0.058475520461797714
-0.03404710441827774
0.023677751421928406
-0.06697457283735275
0.006148454267531633
-0.04760996624827385
0.10504218935966492
-0.03389442712068558
-0.04666845127940178
0.08239500969648361
0.01991170272231102
-0.025853406637907028
-0.012067891657352448
-0.04330954700708389
0.12030994892120361
-0.1999058723449707
-0.003912363667041063
0.4146723747253418
-0.26525187492370605
0.025319036096334457
0.1970558911561966
-0.0910976380109787
-0.0663638636469841
0.0506889633834362
-0.11786710470914841
0.09735741466283798
-0.18412917852401733
-0.10982608795166016
0.043385885655879974
-0.10127614438533783
-0.025586221367120743
0.052164845168590546
0.07409952580928802
-0.08631373941898346
0.0366935171186924
0.030306503176689148
-0.24631986021995544
-0.030815428122878075
-0.04649033024907112
0.004106391221284866
-0.004230441991239786
0.218430757522583
-0.061936214566230774
0.07740754634141922
0.3717190623283386
-0.03453058376908302
0.0696718767285347
0.053488053381443024
0.0073666940443217754
0.021285802125930786
0.0581192746758461
-0.015127805061638355
0.021374864503741264
-0.037533242255449295
0.0137028144672513
0.01673091948032379
0.04109571874141693
0.05257198587059975
0.0292632058262825
0.03865287825465202
-0.049772895872592926
0.042647942900657654
0.1826024055480957
0.03771136701107025
0.04559971019625664
0.13537414371967316
-0.04715193063020706
0.01172436773777008
0.0577121339738369
0.1529829502105713
0.017583370208740234
0.16916677355766296
0.3055587708950043
0.03651539236307144
0.08264947682619095
0.16356860101222992
0.049238525331020355
0.15878470242023468
-0.2155807763338089
-0.0005319860065355897
0.12845274806022644
-0.3242872357368469
0.031018998473882675
0.060816578567028046
-0.19654695689678192
0.04814433678984642
-0.03244398906826973
-0.11165821552276611
0.06463351845741272
0.1146099865436554
-0.3664262294769287
0.02160388045012951
0.08341286331415176
-0.18687738478183746
-0.017659708857536316
0.029212314635515213
-0.03888189420104027
-0.02168021909892559
0.032494883984327316
-0.059289801865816116
0.03539575636386871
0.028016339987516403
-0.038932789117097855
0.056032679975032806
-0.00575085636228323
0.08590659499168396
-0.05862819775938988
0.3611334264278412
0.045192569494247437
-0.01170528307557106
0.22372357547283173
-0.18667380511760712
-0.045523371547460556
0.044989001005887985
-0.03977251425385475
-0.03796583041548729
0.01862666755914688
-0.04091759771108627
0.02086593769490719
0.04267339035868645
0.0249373409897089
-0.021654773503541946
0.006972277071326971
0.02346145734190941
-0.008708984591066837
-0.17445960640907288
-0.04356400668621063
-0.047915320843458176
-0.1079939529299736
-0.04142652079463005
-0.0018766621360555291
0.20336656272411346
-0.15135438740253448
-0.020509690046310425
0.5561535954475403
-0.3487156331539154
-0.04005242511630058
0.44378289580345154
-0.31960511207580566
-0.027812769636511803
0.05425143986940384
-0.11186178773641586
0.03824573755264282
0.04748273268342018
-0.1071796715259552
0.04442918300628662
-0.10351540893316269
-0.03491227701306343
0.05588000267744064
-0.0267949178814888
-0.07074061781167984
0.09476189315319061
0.0465921126306057
-0.13995446264743805
0.10025829076766968
0.02794000133872032
-0.04580327868461609
0.04336043819785118
-0.07715307921171188
0.3141087293624878
0.04501444473862648
-0.08539766818284988
0.13008131086826324
0.08580481261014938
-0.1389366090297699
0.040586795657873154
-0.0754227340221405
0.048373352736234665
-0.04460730403661728
-0.014886066317558289
0.2324770987033844
-0.0469992533326149
0.04654122143983841
0.20601297914981842
-0.17751315236091614
-0.04310597479343414
-0.14087052643299103
0.03570111095905304
-0.012036084197461605
-0.2729875445365906
0.041655536741018295
-0.03437790647149086
0.002401491394266486
0.03885645046830177
-0.02007710374891758
0.017379799857735634
-0.05160502716898918
-0.04376757889986038
0.11440641433000565
-0.13740983605384827
-0.049442097544670105
0.10941894352436066
-0.06621118634939194
-0.03776225820183754
0.1096225157380104
-0.0659567266702652
-0.047584518790245056
0.03051007352769375
-0.09898597747087479
-0.04267339035868645
-0.06753439456224442
-0.016209272667765617
-0.031069891527295113
-0.04776264354586601
0.04885683208703995
0.005031999200582504
-0.048907723277807236
0.09776455909013748
-0.015763962641358376
-0.026947597041726112
-0.015522222965955734
-0.04170643165707588
0.1719149798154831
-0.07628791034221649
0.005206942092627287
0.5182895660400391
-0.1158314049243927
-0.020191611722111702
0.1884041577577591
-0.12224386632442474
-0.02337239496409893
-0.04562515765428543
0.11430463194847107
-0.0014941729605197906
-0.09181012958288193
0.09832437336444855
0.04486176744103432
-0.048169784247875214
0.044251058250665665
0.043843917548656464
0.04687202349305153
-0.05679606646299362
0.03193506598472595
-0.0643281638622284
-0.14372050762176514
0.05160502716898918
-0.06666921824216843
0.01846126653254032
0.09628867357969284
-0.0424698181450367
0.05557464808225632
0.007392140571027994
-0.058882661163806915
0.018308589234948158
0.0001687803160166368
-0.033945318311452866
-0.04806799814105034
0.06025676056742668
0.03336005657911301
-0.015445883385837078
-0.04096848890185356
0.008969808928668499
-0.09873151779174805
-0.00799648929387331
0.025357205420732498
-0.092319056391716
-0.01366464514285326
0.023550519719719887
-0.09598331898450851
0.08300571888685226
0.015089635737240314
-0.07124954462051392
0.0973065197467804
0.040993936359882355
-0.12580634653568268
-0.0016444650245830417
0.04422561079263687
-0.04516712203621864
0.0754227340221405
0.04170643165707588
-0.06906116753816605
0.045854173600673676
0.03641360625624657
-0.05252109467983246
0.019097423180937767
-0.004211357329040766
0.013295674696564674
-0.05643982067704201
0.014949681237339973
0.026896703988313675
-0.041070275008678436
0.004831609781831503
0.02712571993470192
-0.04928942024707794
0.009065232239663601
0.14127767086029053
0.19512197375297546
0.03516674041748047
0.10534754395484924
0.27970537543296814
-0.09969846904277802
0.09125031530857086
0.1430080235004425
0.04768630489706993
0.19736124575138092
-0.026158761233091354
-0.037813153117895126
0.27604109048843384
0.018855683505535126
-0.047711748629808426
0.09063959866762161
-0.10982608795166016
-0.02143847942352295
-0.047177378088235855
-0.04330954700708389
-0.04208812490105629
0.0642772689461708
-0.15491686761379242
-0.04679568484425545
-0.04292785003781319
0.003883736440911889
-0.010044913738965988
0.06575315445661545
-0.0750155970454216
-0.07990127801895142
0.04015420749783516
-0.07654237002134323
-0.035268526524305344
0.12041173130273819
-0.005754036828875542
-0.010299376212060452
-0.050841640681028366
0.05160502716898918
-0.05015459284186363
-0.044989001005887985
0.04364034906029701
-0.07567719370126724
0.11908853054046631
-0.08412535488605499
0.04778808727860451
0.054760366678237915
-0.06356477737426758
0.09130120277404785
0.09328601509332657
-0.03565021976828575
-0.008556307293474674
0.010191230103373528
-0.04939120262861252
0.024988234043121338
-0.047915320843458176
-0.02090410888195038
-0.08499053120613098
-0.1900327205657959
0.025738898664712906
-0.0028722472488880157
-0.12641705572605133
0.001612657099030912
0.022901639342308044
0.03399621322751045
-0.016667304560542107
-0.0416300930082798
0.07287810742855072
-0.0011554195079952478
-0.07598255574703217
0.12763847410678864
0.03801672160625458
-0.14850440621376038
0.009822258725762367
0.031553369015455246
-0.038194846361875534
-0.05058717727661133
0.011819791048765182
-0.017176229506731033
-0.0317314937710762
0.04674478992819786
-0.04605774208903313
0.014733388088643551
0.04572694003582001
-0.050892531871795654
0.03748235106468201
0.01715078391134739
-0.1265188306570053
-0.041197504848241806
0.012093338184058666
0.022736238315701485
0.0399760864675045
-0.048246122896671295
0.007468479219824076
0.09216637909412384
0.007563902530819178
0.009726835414767265
-0.04193544760346413
-0.047584518790245056
-0.0704861581325531
0.0008285940275527537
0.019695410504937172
-0.09196280688047409
-0.04559971019625664
0.04402204230427742
-0.08275125920772552
-0.19155949354171753
0.0416300930082798
-0.043462224304676056
-0.008327290415763855
0.04330954700708389
-0.029543114826083183
-0.09572885185480118
0.05343715846538544
-0.046973809599876404
-0.047838982194662094
0.04417471960186958
-0.028499819338321686
0.1232617124915123
-0.20214514434337616
-0.07857806980609894
0.0506889633834362
-0.14901334047317505
-0.08427803218364716
0.03878011181950569
-0.04626131430268288
0.010903725400567055
-0.007862896658480167
-0.005474128294736147
0.01475883461534977
-0.11949566751718521
0.04430194944143295
0.04336043819785118
-0.035675667226314545
0.0016571880551055074
-0.07328524440526962
-0.11033501476049423
-0.006221611984074116
0.00017732866399455816
-0.11725639551877975
-0.027354735881090164
-0.04241892695426941
-0.12214207649230957
-0.08916372060775757
0.04959477484226227
0.021031338721513748
0.04468364268541336
-0.03453058376908302
0.04274972900748253
0.020955000072717667
0.035548433661460876
0.06117282435297966
0.03145158663392067
0.02576434426009655
-0.1385294795036316
-0.07430309802293777
-0.16723287105560303
-0.21782004833221436
-0.023639582097530365
-0.0114380968734622
-0.10214131325483322
0.008238228969275951
0.03867832571268082
-0.04829701408743858
0.0321640819311142
0.05040905252099037
-0.14076875150203705
0.09715384244918823
0.03954349830746651
-0.0639210194349289
0.06244513764977455
-0.04832246154546738
-0.012691325508058071
-0.03157881647348404
-0.047635409981012344
0.02118401601910591
-0.023359673097729683
0.011196357198059559
-0.04572694003582001
-0.020102551206946373
0.13181166350841522
-0.2151736319065094
-0.03931448236107826
0.3735511898994446
-0.2188378870487213
-0.00019522057846188545
0.07837449759244919
-0.06336120516061783
-0.0432840995490551
-0.005073349457234144
-0.1174599677324295
-0.09796812385320663
-0.026311440393328667
-0.039518050849437714
-0.15013296902179718
-0.03883100301027298
-0.05588000267744064
-0.05333537608385086
0.10972429811954498
0.018524881452322006
-0.012952149845659733
0.0539969764649868
0.16621501743793488
-0.05287734046578407
0.09053781628608704
0.022532669827342033
-0.12997953593730927
0.18494346737861633
0.006953192409127951
0.030102932825684547
0.37070122361183167
-0.053895194083452225
-0.01045205444097519
0.14779192209243774
-0.08010485023260117
-0.03058641217648983
-0.035879235714673996
0.03885645046830177
-0.019771749153733253
-0.010712877847254276
0.02905963733792305
0.00785017292946577
0.02567528374493122
-0.031324353069067
-0.011075487360358238
0.06651654094457626
-0.07735665142536163
0.054963935166597366
0.00468847481533885
-0.05669428035616875
0.04442918300628662
0.04201178625226021
0.009981297887861729
-0.03954349830746651
0.44500431418418884
-0.07516827434301376
-0.024797387421131134
0.4246473014354706
-0.09720473736524582
-0.022927086800336838
0.0931333377957344
-0.1875898838043213
-0.08514320850372314
0.02898329682648182
0.12417778372764587
-0.041401077061891556
-0.07608433812856674
0.17425602674484253
0.016807259991765022
-0.028499819338321686
0.16926856338977814
-0.06488797813653946
-0.20397727191448212
-0.09837526828050613
0.04972200468182564
-0.09196280688047409
-0.05430233106017113
0.12600991129875183
-0.10667075216770172
-0.022977977991104126
0.06091836094856262
0.19318805634975433
0.08102091401815414
0.04333499073982239
0.18555417656898499
0.17537567019462585
-0.08896014839410782
0.12621347606182098
0.04007786884903908
-0.1455526500940323
0.12743490934371948
-0.10463504493236542
0.03033195063471794
0.11868138611316681
-0.04035777971148491
0.001741478918120265
0.05056173354387283
0.041070275008678436
-0.04959477484226227
0.04753362759947777
0.006250239443033934
-0.047050148248672485
0.09018156677484512
0.006320216692984104
-0.04593051224946976
0.04926397278904915
0.04514167830348015
-0.05786481127142906
0.0035752004478126764
-0.1010216772556305
0.03313104063272476
0.053233589977025986
-0.04353856295347214
-0.025179080665111542
0.04417471960186958
0.02204919047653675
0.006596944760531187
0.01397000066936016
-0.23390208184719086
0.02349962666630745
0.1067725345492363
-0.10188685357570648
0.000966958119533956
0.0030185633804649115
-0.13130272924900055
0.021285802125930786
-0.0011880225501954556
0.04216446354985237
-0.04814433678984642
-0.11939388513565063
0.05684696137905121
-0.03127346187829971
-0.061681751161813736
0.010083083063364029
0.008569030091166496
-0.03855109214782715
0.033945318311452866
-0.03038284182548523
-0.05430233106017113
0.06809420883655548
-0.03318193182349205
-0.08509231358766556
0.058221057057380676
-0.009154294617474079
-0.015853023156523705
0.15644364058971405
-0.13537414371967316
-0.11176000535488129
0.5166609883308411
-0.19837909936904907
-0.05272466316819191
0.3045409321784973
-0.16835249960422516
0.04562515765428543
-0.04096848890185356
0.01652735099196434
0.3124801516532898
-0.0014329429250210524
-0.019428225234150887
0.34321925044059753
-0.028805173933506012
-0.037813153117895126
-0.04168098419904709
0.10315916687250137
-0.04949298873543739
-0.09837526828050613
0.24102704226970673
-0.0791378915309906
-0.045523371547460556
0.1566472202539444
-0.047838982194662094
-0.07068973034620285
0.004335407633334398
-0.03343639522790909
-0.0630558505654335
0.1385294795036316
-0.060002297163009644
-0.04727916419506073
0.07058794051408768
-0.03264756128191948
-0.05119789019227028
0.046312205493450165
-0.027889108285307884
-0.05420054867863655
0.048500582575798035
-0.01895746774971485
-0.13425450026988983
0.017774216830730438
-0.016921767964959145
0.017570646479725838
0.04124839976429939
0.04356400668621063
0.045854173600673676
-0.054149653762578964
-0.020013488829135895
0.04972200468182564
-0.038143955171108246
0.03582834452390671
-0.04888227954506874
-0.053895194083452225
-0.012888533994555473
-0.06504065543413162
-0.17588458955287933
0.0436912402510643
-0.039797961711883545
-0.008995255455374718
0.02164204977452755
-0.04096848890185356
0.028219910338521004
-0.006272504571825266
0.0412229523062706
-0.05364073067903519
-0.04430194944143295
0.035879235714673996
-0.0003437233972363174
0.012099700048565865
0.05806837975978851
-0.11695104092359543
0.04743184149265289
0.16784358024597168
-0.14005625247955322
0.044836319983005524
0.030153825879096985
-0.06901027262210846
-0.00010238146205665544
0.049569327384233475
0.004538977984338999
0.03170604631304741
0.04941665008664131
-0.06621118634939194
0.04554881900548935
0.018982915207743645
-0.037736814469099045
0.038525648415088654
0.011094572022557259
0.03837297111749649
0.015178698115050793
-0.016463734209537506
0.02799089252948761
0.007252186071127653
0.046719346195459366
0.06015497446060181
0.026820365339517593
-0.11634033173322678
-0.07175847142934799
0.1248902752995491
-0.13160808384418488
0.1512526124715805
0.09705206006765366
-0.012226930819451809
0.08941818028688431
-0.05267377197742462
-0.042189911007881165
0.013295674696564674
0.0274056289345026
-0.05379340797662735
0.0857539176940918
-0.019848087802529335
-0.036744408309459686
0.06056211516261101
0.04323320835828781
-0.02931409887969494
-0.04608318954706192
-0.12997953593730927
0.04962021857500076
0.15715613961219788
-0.1661132276058197
0.024517478421330452
0.07028258591890335
-0.12916524708271027
0.04274972900748253
-0.036998871713876724
-0.0020500149112194777
0.09058871120214462
-0.02234182134270668
-0.03323282301425934
0.022532669827342033
-0.11715461313724518
0.03539575636386871
0.33161574602127075
-0.18331490457057953
0.07796736061573029
0.2927338480949402
-0.142600879073143
0.1063653975725174
0.03203684836626053
0.06331031024456024
0.02147664874792099
0.033283717930316925
-0.013817322440445423
0.0075066485442221165
0.055625539273023605
-0.002174065448343754
0.0445309653878212
0.05045994743704796
-0.0026798099279403687
-0.07084240764379501
-0.03198595717549324
-0.04297874495387077
0.019809918478131294
0.008193697780370712
-0.04521801695227623
0.013232058845460415
0.042851511389017105
-0.053691621869802475
-0.0005626010242849588
-0.018117742612957954
0.041451968252658844
0.0016985383117571473
0.035472095012664795
-0.011940660886466503
0.010954617522656918
0.03371630236506462
0.046388544142246246
-0.02217642217874527
0.21700575947761536
-0.060409437865018845
-0.039009127765893936
0.3578763008117676
-0.03603191301226616
-0.004643943626433611
0.05297912657260895
-0.040128763765096664
-0.026235101744532585
-0.06112193316221237
0.040205102413892746
-0.03847475349903107
-0.09084317088127136
0.07603344321250916
0.02197285182774067
-0.033741749823093414
0.044327396899461746
-0.027710983529686928
0.0269984882324934
0.03351273387670517
-0.03140069171786308
0.059289801865816116
0.04417471960186958
0.0019625432323664427
-0.05486214905977249
0.10494040697813034
0.019898980855941772
0.12427956610918045
-0.03529397025704384
-0.06361566483974457
0.1096225157380104
-0.04043411836028099
-0.015763962641358376
0.08605927228927612
-0.009828620590269566
0.032749343663454056
0.028092678636312485
-0.14025981724262238
0.023957660421729088
-0.0787307471036911
-0.19155949354171753
-0.03844930976629257
-0.008868023753166199
-0.03676985576748848
0.016107486560940742
-0.11603497713804245
0.05353894457221031
-0.006056211423128843
0.06137639656662941
-0.032876577228307724
-0.03822029381990433
0.03735511749982834
-0.016629135236144066
-0.04496355354785919
-0.06666921824216843
0.05705052986741066
-0.0037469626404345036
-0.12102244049310684
0.05394608527421951
-0.07155489921569824
-0.1858595311641693
0.07689861953258514
-0.04290240630507469
0.05552375316619873
-0.10041096806526184
0.039925191551446915
0.3499370515346527
-0.16641858220100403
0.06310673803091049
0.17008285224437714
-0.0465666688978672
0.021425755694508553
0.04608318954706192
0.04801710322499275
0.0028022699989378452
-0.026845810934901237
-0.19105057418346405
0.017405245453119278
0.06132550165057182
-0.004755271133035421
0.015509499236941338
0.049569327384233475
-0.01479700393974781
-0.02131124772131443
-0.006040307693183422
0.1669275015592575
-0.04475998133420944
-0.0902833566069603
0.13914018869400024
0.001185636967420578
0.05598178505897522
-0.08071555942296982
-0.022825300693511963
0.11532247811555862
-0.20723439753055573
0.04448007419705391
0.11817245930433273
-0.11562783271074295
0.026018807664513588
0.05168136581778526
0.05066351592540741
-0.007595710456371307
-0.021005893126130104
0.03529397025704384
0.018308589234948158
0.04712648689746857
-0.023308780044317245
0.04529435560107231
0.06239424645900726
-0.04605774208903313
0.018003232777118683
0.016832705587148666
-0.009803174063563347
0.0005244316416792572
0.0031966872047632933
-0.044047486037015915
-0.04127384349703789
0.1310991644859314
-0.023894043639302254
-0.03104444593191147
0.19603803753852844
-0.021743834018707275
-0.007608433719724417
0.16336503624916077
-0.03771136701107025
0.029034189879894257
0.04595595598220825
-0.04142652079463005
0.06560047715902328
-0.025458989664912224
0.038932789117097855
0.022316375747323036
-0.03239309787750244
0.003479776903986931
-0.021794727072119713
-0.04880594089627266
0.02547171339392662
-0.024453861638903618
-0.10463504493236542
0.1319134533405304
-0.04814433678984642
-0.043131422251462936
0.05252109467983246
-0.0021772461477667093
-0.044378288090229034
-0.0408158116042614
0.012360524386167526
-0.09964758157730103
-0.058017488569021225
-0.0023999009281396866
-0.04613408073782921
-0.09593242406845093
-0.0091733792796731
0.1257045567035675
0.001846444676630199
0.04435284435749054
0.03246943652629852
-0.01764698512852192
0.04679568484425545
0.020064381882548332
-0.05404787138104439
0.01751975528895855
0.39268678426742554
-0.07242007553577423
-0.0006612053257413208
0.6404316425323486
-0.10036007314920425
-0.022227313369512558
0.2815375030040741
-0.11522069573402405
0.004869779106229544
0.1063653975725174
-0.05786481127142906
0.018079573288559914
-0.05420054867863655
-0.045854173600673676
0.012214208021759987
-0.010922810062766075
0.0445309653878212
-0.011921576224267483
0.08921460807323456
0.031324353069067
0.06733082234859467
0.16061682999134064
0.07649147510528564
0.05725409835577011
0.06824688613414764
0.06422637403011322
-0.05119789019227028
0.22372357547283173
-0.10122524946928024
0.028830619528889656
0.5064824819564819
-0.14891155064105988
0.035268526524305344
0.08702623099088669
0.07282721251249313
-0.04221535474061966
0.043182313442230225
0.07430309802293777
0.02732929028570652
-0.0030233345460146666
0.24082346260547638
0.054760366678237915
-0.07384506613016129
0.09654313325881958
-0.05857730656862259
0.04414927214384079
-0.05420054867863655
0.04623586684465408
-0.032673005014657974
-0.021082231774926186
-0.0449381060898304
-0.029008744284510612
-0.04649033024907112
-0.0486532598733902
0.1747649610042572
-0.05638892576098442
0.03842386230826378
0.39635103940963745
-0.0465666688978672
0.06901027262210846
0.12977595627307892
-0.04211357235908508
-0.05526928976178169
0.0003190723364241421
0.006406097672879696
0.024988234043121338
0.00814280565828085
-0.012048806995153427
0.07303078472614288
0.016667304560542107
-0.10326094925403595
0.053233589977025986
-0.040205102413892746
0.1496240496635437
-0.13506878912448883
-0.02732929028570652
0.32164081931114197
-0.18789523839950562
-0.05038360878825188
0.19400233030319214
-0.10748503357172012
-0.018321311101317406
-0.07114776223897934
0.06341209262609482
-0.041451968252658844
0.11328677833080292
-0.021540265530347824
-0.09649224579334259
0.07618612051010132
-0.08875657618045807
0.03475959971547127
-0.014542541466653347
0.05257198587059975
-0.02885606698691845
-0.04600685089826584
0.06463351845741272
-0.07990127801895142
0.08152984082698822
-0.047635409981012344
5.0494934839662164e-05
-0.004389481153339148
0.028830619528889656
0.05669428035616875
0.05343715846538544
-0.05379340797662735
0.035141292959451675
-0.03333460912108421
-0.038729216903448105
-0.02184562012553215
0.011679836548864841
0.0012770844623446465
-0.04880594089627266
-0.05038360878825188
0.0713004395365715
0.020471520721912384
-0.18932022154331207
0.04819522798061371
0.10219220817089081
-0.022774409502744675
0.04007786884903908
0.02931409887969494
0.009974936954677105
0.023563243448734283
-0.0680433139204979
0.04834790527820587
-0.0029422244988381863
0.014707942493259907
0.015942085534334183
-0.0009598013712093234
-0.02811812423169613
0.05353894457221031
-0.017825109884142876
-0.016005702316761017
0.04475998133420944
-0.001731936470605433
0.017914172261953354
0.004192272201180458
0.04188455641269684
-0.007188570220023394
-0.046032294631004333
-0.031146230176091194
-0.009574158117175102
-0.048449691385030746
-0.048831384629011154
0.06834866851568222
-0.03565021976828575
-0.025446265935897827
0.24794842302799225
-0.11440641433000565
0.04801710322499275
0.108808234333992
-0.08290393650531769
-0.009466011077165604
0.008817131631076336
-0.04608318954706192
0.022723516449332237
-0.034148890525102615
-0.20458798110485077
0.11226892471313477
0.047584518790245056
-0.02613331563770771
0.049162186682224274
-0.04979834333062172
0.036210037767887115
-0.02951766923069954
-0.03809306025505066
0.09715384244918823
-0.04300418868660927
0.10315916687250137
-0.022977977991104126
0.020929554477334023
0.02333422563970089
0.00785017292946577
0.02839803323149681
-0.012233292683959007
-0.07730575650930405
-0.01486061979085207
0.032876577228307724
-0.04468364268541336
-0.01582757756114006
-0.02468287944793701
0.2073361873626709
-0.04832246154546738
-0.07445577532052994
0.2587376534938812
-0.0535898357629776
-0.04005242511630058
0.1075868159532547
-0.023843152448534966
-0.043716687709093094
-0.0869753360748291
0.14199016988277435
-0.03549754247069359
-0.18779344856739044
0.014186293818056583
-0.02526814304292202
-0.06030765175819397
0.039187248796224594
0.02567528374493122
-0.048780493438243866
-0.002174065448343754
-0.08056288212537766
-0.01818135753273964
-0.061071038246154785
-0.07033348083496094
0.0018050945363938808
-0.028576157987117767
0.05913712456822395
-0.043258652091026306
0.030968107283115387
0.04076492041349411
-0.08580481261014938
0.02003893442451954
0.019071977585554123
-0.05465858057141304
-0.0038646517787128687
-0.028347140178084373
-0.03590468317270279
0.031756941229104996
0.01376643031835556
0.0058303759433329105
0.005973510909825563
0.008155528455972672
0.012373247183859348
0.0445055216550827
-0.06682189553976059
0.011304504238069057
-0.048373352736234665
-0.043920256197452545
0.04682113230228424
0.03524307906627655
-0.05079074949026108
0.033945318311452866
0.001087032724171877
-0.14931869506835938
-0.06310673803091049
0.1273331195116043
-0.09659402817487717
0.016603689640760422
0.15756328403949738
-0.11104750633239746
-0.06295406073331833
0.23675206303596497
0.033690858632326126
-0.07705129683017731
-0.04361490160226822
-0.07165668904781342
-0.08046109229326248
-0.02654045633971691
-0.10768859833478928
0.0028452107217162848
-0.07348881661891937
-0.07608433812856674
0.05577821657061577
0.01139992754906416
-0.04679568484425545
0.04649033024907112
0.018448542803525925
-0.03865287825465202
0.025039127096533775
-0.01862666755914688
-0.04776264354586601
-0.2192450314760208
0.04117206111550331
-0.1034645214676857
-0.19848087430000305
-0.007525733206421137
0.0010647672461345792
-0.0679924264550209
0.01506419014185667
0.22087359428405762
-0.0659567266702652
-0.029950255528092384
0.20499512553215027
-0.0890110433101654
0.04468364268541336
0.13863125443458557
-0.060867469757795334
-0.016769088804721832
0.0919119119644165
-0.019186485558748245
-0.018537605181336403
0.15155796706676483
-0.09221726655960083
0.022888917475938797
0.07282721251249313
-0.03972162306308746
-0.009828620590269566
-0.04623586684465408
0.14809727668762207
-0.1009707823395729
-0.05040905252099037
0.07165668904781342
-0.29008743166923523
-0.04928942024707794
0.15837755799293518
-0.11155643314123154
0.02918686717748642
0.0539969764649868
-0.03315648436546326
-0.03941626846790314
0.18932022154331207
-0.11308320611715317
-0.07557541131973267
0.08320929110050201
-0.05857730656862259
0.08300571888685226
-0.0027418353129178286
0.029670346528291702
0.04872960224747658
0.028779728338122368
0.03704976290464401
-0.04262249544262886
0.06498976796865463
0.04397114738821983
0.010312099941074848
0.021985573694109917
-0.01809229515492916
-0.13059024512767792
-0.0725727528333664
0.03269845247268677
0.04173187538981438
-0.10142882168292999
0.09954579174518585
0.010293015278875828
-0.008575391955673695
-0.002991526620462537
0.2296271026134491
0.044047486037015915
0.04669389873743057
0.04786442592740059
0.06371745467185974
-0.04679568484425545
-0.07425220310688019
0.13140451908111572
0.003686527954414487
-0.04539613798260689
0.04310597479343414
0.0379149354994297
-0.04959477484226227
0.09837526828050613
-0.028143571689724922
0.05292823538184166
0.11430463194847107
-0.08845122158527374
0.04839880019426346
0.20621654391288757
-0.048246122896671295
-0.04979834333062172
0.19573268294334412
-0.027965446934103966
-0.05450590327382088
0.04733005538582802
-0.0064347246661782265
-0.034148890525102615
0.18433275818824768
0.0016245851293206215
0.009701388888061047
0.08748426288366318
0.04547247663140297
-0.1244831383228302
0.04827156662940979
-0.010051275603473186
-0.15369544923305511
0.27359825372695923
-0.045116230845451355
-0.10392255336046219
0.09242083877325058
0.031069891527295113
-0.00919246394187212
-0.009141570888459682
-0.0032141816336661577
0.07323435693979263
-0.008009212091565132
0.016005702316761017
-0.05684696137905121
0.09343869239091873
-0.04776264354586601
-0.1174599677324295
0.05679606646299362
0.0647353008389473
-0.1084010973572731
0.04529435560107231
0.004278153646737337
-0.047966212034225464
0.03496317192912102
0.019962595775723457
0.029085082933306694
-0.026285992935299873
-0.00565861351788044
0.004911129362881184
0.01050930842757225
0.04669389873743057
0.019033808261156082
-0.045319799333810806
0.017786940559744835
0.1805667132139206
-0.08030841499567032
-0.01982264220714569
0.2601626217365265
-0.20804867148399353
-0.029950255528092384
0.001071128761395812
-0.10030918568372726
-0.03689708560705185
0.0766950473189354
-0.04687202349305153
-0.017837833613157272
0.20183978974819183
-0.07867985963821411
0.04440373554825783
0.06901027262210846
0.021158570423722267
0.04147741571068764
0.036871641874313354
0.04104482755064964
-0.0016937671462073922
0.0022917543537914753
-0.006501520983874798
-0.01372826099395752
0.0795450285077095
-0.08091912418603897
0.066771000623703
-0.021527541801333427
-0.023067040368914604
0.015038743615150452
0.046770237386226654
-0.01776149496436119
0.02860160358250141
-0.012723132967948914
0.056083571165800095
0.020255228504538536
-0.0009741148678585887
-0.016552796587347984
0.06722903996706009
0.03565021976828575
-0.16092218458652496
0.07679682970046997
0.04559971019625664
-0.06733082234859467
0.04343677684664726
-0.22779497504234314
0.03127346187829971
0.005773121956735849
-0.06997723132371902
0.08519410341978073
-0.06783974915742874
0.0395689457654953
0.16468824446201324
-0.0469992533326149
0.0812244862318039
-0.09639045596122742
0.024059444665908813
0.08768783509731293
-0.17283104360103607
0.07191114872694016
-0.04941665008664131
-0.017939617857336998
0.06626208126544952
0.284387469291687
-0.08590659499168396
0.025179080665111542
0.3696833550930023
-0.0185503289103508
0.017048997804522514
0.32998719811439514
-0.10122524946928024
-0.05593089386820793
0.1265188306570053
-0.04694836214184761
0.08478695899248123
0.03704976290464401
0.060816578567028046
0.04636309668421745
-0.14148123562335968
0.12682418525218964
0.02898329682648182
0.004360854160040617
-0.016959937289357185
-0.04641399160027504
0.009338779374957085
-0.044251058250665665
-0.027202058583498
0.03715154901146889
-0.04348766803741455
-0.05124878138303757
-0.02035701274871826
-0.03137524798512459
0.01921193115413189
-0.04402204230427742
-0.07929056882858276
0.008206420578062534
-0.13822412490844727
-0.13181166350841522
-0.014618880115449429
-0.04002697765827179
0.0548112578690052
-0.059747833758592606
-0.06331031024456024
-0.06626208126544952
-0.04773719608783722
-0.07934145629405975
-0.046032294631004333
-0.009656858630478382
0.07633879780769348
-0.045854173600673676
-0.008155528455972672
0.3322264552116394
-0.035344865173101425
0.07038437575101852
0.10066542774438858
0.01970813423395157
0.013690091669559479
-0.10300648957490921
-0.04503989219665527
0.026209654286503792
-0.07985038310289383
7.753159297863021e-05
0.04582872614264488
0.003368449630215764
-0.010598369874060154
-0.038729216903448105
0.16662214696407318
-0.15593472123146057
0.005979872774332762
0.31268373131752014
-0.09557617455720901
-0.007309440057724714
0.10173417627811432
-0.12315993010997772
-0.07939235121011734
0.018766621127724648
-0.07705129683017731
-0.050714410841464996
0.011431735008955002
-0.13059024512767792
-0.003950532991439104
0.04600685089826584
-0.04768630489706993
-0.025662560015916824
0.04422561079263687
-0.02806723117828369
0.01776149496436119
0.028016339987516403
-0.2279985547065735
0.01170528307557106
0.14830084145069122
-0.04290240630507469
-0.012640433385968208
-0.02556077390909195
0.014529818668961525
-0.052826449275016785
-0.04875504598021507
0.21741290390491486
-0.12275279313325882
-0.07058794051408768
0.15634186565876007
-0.0655495822429657
0.017201676964759827
0.004834790714085102
0.05491304397583008
0.018028680235147476
-0.032545775175094604
0.030001148581504822
-0.027227506041526794
-0.03631182387471199
-0.05857730656862259
0.11369392275810242
-0.14697763323783875
0.031349800527095795
0.06763617694377899
-0.11359213292598724
0.03572655841708183
-0.03888189420104027
-0.0032698451541364193
-0.04241892695426941
0.08763694018125534
-0.13791877031326294
-0.04855147749185562
0.2744125425815582
-0.04473453760147095
-0.02188378944993019
0.18606309592723846
-0.09501636028289795
0.0022853927221149206
-0.030942659825086594
-0.052368417382240295
-0.01706172153353691
-0.058679088950157166
-0.1377151906490326
0.015687623992562294
-0.09471100568771362
-0.05173226073384285
0.04605774208903313
0.07196204364299774
-0.06203799694776535
0.042266249656677246
0.04562515765428543
0.05984961986541748
-0.04855147749185562
0.030306503176689148
0.08208965510129929
-0.04460730403661728
-0.024250291287899017
0.10555111616849899
-0.0725727528333664
-0.04427650570869446
0.2691197097301483
-0.1269259750843048
-0.027278397232294083
0.19227199256420135
-0.07674594223499298
0.015267759561538696
0.04188455641269684
-0.047304607927799225
0.03636271506547928
0.19390055537223816
0.014478925615549088
-0.0478135347366333
0.19176305830478668
-0.013575582765042782
-0.06295406073331833
0.10229399055242538
-0.046643007546663284
-0.17018462717533112
-0.1442294418811798
-0.01928826980292797
-0.0894690752029419
-0.06702546775341034
0.022685347124934196
-0.04503989219665527
0.00941511895507574
-0.020535137504339218
-0.12356706708669662
0.023792259395122528
-0.011915214359760284
-0.029110528528690338
0.04559971019625664
-0.005213303957134485
-0.029568562284111977
0.01570034585893154
-0.05292823538184166
0.024390246719121933
-0.11522069573402405
-0.021196739748120308
-0.02210008166730404
-0.047838982194662094
0.011145465075969696
0.09908775985240936
-0.051172442734241486
0.06600761413574219
0.22128073871135712
-0.13486520946025848
0.046770237386226654
0.11176000535488129
-0.018970191478729248
0.044251058250665665
0.04173187538981438
-0.14168481528759003
-0.031222568824887276
0.025662560015916824
0.18239884078502655
-0.045777834951877594
-0.0539969764649868
0.1739506721496582
-0.12112423032522202
-0.021031338721513748
0.019568178802728653
0.02559894509613514
-0.04567604884505272
0.04567604884505272
0.0469992533326149
0.04440373554825783
0.018944745883345604
0.020496968179941177
-0.09328601509332657
0.031807832419872284
0.045192569494247437
-0.09516903758049011
-0.03259666636586189
0.08890925347805023
-0.1013779267668724
-0.035446647554636
0.03391987457871437
0.046515773981809616
0.03371630236506462
-0.06325941532850266
0.012475032359361649
0.026489563286304474
-0.04101938009262085
-0.026642240583896637
0.013435629196465015
-0.015878470614552498
-0.009885874576866627
-0.05140145868062973
0.029950255528092384
-0.06035854294896126
-0.04600685089826584
-0.04570149630308151
-0.03837297111749649
-0.02271079272031784
0.03511584922671318
0.040255993604660034
-0.04407293349504471
0.027507415041327477
0.1620418280363083
0.04488721489906311
-0.015903916209936142
0.05699963867664337
0.019059253856539726
-0.021336695179343224
-0.03984885290265083
-0.04972200468182564
0.04727916419506073
-0.06783974915742874
-0.07114776223897934
0.006161177530884743
-0.042266249656677246
0.029288653284311295
-0.007538456469774246
-0.04549792408943176
0.05593089386820793
-0.020586030557751656
0.031298909336328506
0.24509844183921814
-0.059544265270233154
-0.0013383146142587066
0.16092218458652496
-0.04254615679383278
-0.04727916419506073
0.26688045263290405
-0.16916677355766296
0.01052839308977127
0.5345751643180847
-0.3322264552116394
0.026362331584095955
0.2300342470407486
-0.0700790211558342
0.04005242511630058
-0.05353894457221031
-0.10376987606287003
-0.009605965577065945
0.08183519542217255
-0.4356400966644287
0.04712648689746857
0.14310979843139648
-0.40245816111564636
0.004335407633334398
-0.011056402698159218
-0.0017955522052943707
-0.03185872733592987
-0.17018462717533112
0.008028296753764153
-0.08626284450292587
-0.04725371673703194
0.017125338315963745
0.034479692578315735
-0.03432701528072357
0.049696557223796844
0.001986399292945862
-0.017825109884142876
-0.03961983695626259
-0.03623548522591591
0.01139992754906416
0.016298333182930946
0.045116230845451355
0.05308091267943382
-0.025013679638504982
0.038067616522312164
0.037736814469099045
-0.13506878912448883
-0.04918763414025307
0.07465934753417969
-0.020586030557751656
-0.05710142105817795
-0.006857768632471561
-0.01117091067135334
0.06117282435297966
0.03890734165906906
0.02127307839691639
-0.01234780065715313
-0.0063011315651237965
0.0023601411376148462
0.1492169052362442
-0.05025637522339821
0.018728451803326607
0.1289616823196411
-0.09074138849973679
0.04366579279303551
0.09196280688047409
-0.025980638340115547
0.014084508642554283
0.013193889521062374
0.0030805887654423714
-0.04183366149663925
-0.03234220668673515
0.02510274201631546
-0.005849460605531931
0.01003855187445879
0.012150592170655727
0.03285112977027893
0.0003846759791485965
0.005935341585427523
0.003937809728085995
-0.015229590237140656
0.05221574008464813
0.040866702795028687
-0.027049381285905838
-0.02766009233891964
0.04613408073782921
0.014720665290951729
-0.01702355220913887
0.04386936500668526
-0.029950255528092384
0.029644900932908058
0.08402357250452042
-0.02110767737030983
-0.002444431884214282
0.044785428792238235
-0.05745767056941986
-0.11695104092359543
0.008429075591266155
-0.03715154901146889
-0.07506648451089859
0.055421967059373856
0.020725984126329422
-0.07801825553178787
0.037533242255449295
0.05091797932982445
-0.12081887573003769
0.047635409981012344
-0.06783974915742874
-0.06325941532850266
0.13323664665222168
-0.021782003343105316
0.05231752246618271
0.0729798898100853
-0.09623777866363525
0.126111701130867
-0.15369544923305511
-0.07511737942695618
0.37660473585128784
-0.21334150433540344
-0.05898444727063179
0.40673312544822693
-0.27604109048843384
0.044989001005887985
-0.1484026312828064
-0.0325712226331234
0.0428769588470459
-0.28214821219444275
-0.007169485557824373
0.00993676669895649
-0.05206306278705597
0.014249909669160843
0.16967570781707764
-0.3253050744533539
0.04570149630308151
0.3261193633079529
-0.33283716440200806
-0.014186293818056583
-0.005808110348880291
-0.22229859232902527
0.004841152112931013
-0.03562477231025696
-0.045777834951877594
0.026744026690721512
0.0164891816675663
-0.19675053656101227
-0.026973042637109756
-0.0688575953245163
-0.016972659155726433
-0.006094380747526884
-0.0016889959806576371
-0.027278397232294083
0.036871641874313354
0.11919031292200089
0.05308091267943382
0.06498976796865463
-0.04755907133221626
0.04593051224946976
-0.0015458606649190187
0.08763694018125534
-0.04687202349305153
0.04282606765627861
0.013575582765042782
0.04587961733341217
-0.011514435522258282
0.04241892695426941
0.05073985457420349
0.024428416043519974
-0.01825769618153572
0.005547286011278629
-0.06972277164459229
0.04448007419705391
0.13364379107952118
-0.01970813423395157
0.00806010514497757
0.06931562721729279
-0.012805833481252193
0.05470947176218033
-0.25527694821357727
0.12132780253887177
0.009593242779374123
-0.2617911994457245
0.13211701810359955
0.04801710322499275
-0.11756175011396408
0.047584518790245056
0.05033271387219429
-0.03760958090424538
-0.034937724471092224
0.028372587636113167
-0.03676985576748848
0.04280062019824982
-0.0012015409301966429
0.05058717727661133
0.035446647554636
0.07012990862131119
0.015649454668164253
0.0692647397518158
-0.043843917548656464
-0.035064954310655594
0.037736814469099045
-0.04320776090025902
0.08041020482778549
0.03778770565986633
0.0032889300491660833
-0.02127307839691639
0.009408757090568542
0.0408158116042614
-0.12712955474853516
0.02094227820634842
0.09236995130777359
-0.17211854457855225
-0.002147028688341379
-0.009154294617474079
0.1282491832971573
-0.04402204230427742
-0.092319056391716
0.009306971915066242
-0.12468670308589935
-0.07689861953258514
0.10707788914442062
-0.03557388111948967
-0.034937724471092224
0.0416300930082798
-0.015942085534334183
-0.0032984723802655935
-0.04315686970949173
-0.015853023156523705
-0.002710027387365699
-0.04124839976429939
-0.025586221367120743
-0.05872998386621475
-0.03895823284983635
-0.01937733218073845
-0.04389480873942375
-0.022927086800336838
0.037736814469099045
0.015229590237140656
-0.022290930151939392
-0.01863938942551613
-0.07847628742456436
0.08402357250452042
0.010598369874060154
-0.07155489921569824
0.19481661915779114
0.01776149496436119
-0.07068973034620285
0.22128073871135712
-0.004119114484637976
0.22128073871135712
-0.03824573755264282
0.001325591467320919
0.4063259959220886
-0.0482206754386425
-0.017367076128721237
0.12336350232362747
-0.03549754247069359
-0.041070275008678436
-0.030306503176689148
0.0160693172365427
0.0012285775737836957
-0.012004275806248188
0.06524422764778137
-0.019771749153733253
0.021425755694508553
-0.03025561012327671
-0.0445055216550827
0.17089712619781494
-0.2073361873626709
0.16702929139137268
0.006390193477272987
-0.021743834018707275
-0.007144039496779442
0.04117206111550331
0.006686006672680378
-0.034886833280324936
0.0017844194080680609
0.027889108285307884
-0.049518436193466187
-0.03796583041548729
0.038271185010671616
-0.10667075216770172
-0.04089215025305748
0.45273998379707336
-0.09903687238693237
-0.0317314937710762
-0.010986425913870335
0.03333460912108421
-0.025204526260495186
-0.22942353785037994
0.05501483008265495
0.027761876583099365
-0.018613943830132484
0.06280138343572617
-0.015433160588145256
0.041197504848241806
-0.09969846904277802
-0.05045994743704796
0.4323829710483551
-0.007570264395326376
0.044047486037015915
0.23899133503437042
-0.07812003791332245
0.0762370154261589
-0.0989350825548172
0.025446265935897827
0.06025676056742668
-0.19807374477386475
0.12112423032522202
0.092319056391716
-0.18107563257217407
0.07023169845342636
0.16336503624916077
-0.09623777866363525
0.0329783633351326
0.08229322731494904
0.025853406637907028
-0.009574158117175102
-0.0006071320385672152
0.046719346195459366
-0.03343639522790909
0.10229399055242538
-0.1562400758266449
-0.04129929095506668
0.0915047749876976
-0.04061224311590195
0.017672432586550713
-0.0791378915309906
0.03318193182349205
0.03140069171786308
-0.03682074695825577
0.14310979843139648
0.01661641150712967
-0.04979834333062172
0.08743337541818619
0.03033195063471794
-0.023397842422127724
0.050281822681427
0.010165783576667309
-0.03664262220263481
0.004198634065687656
0.028677942231297493
-0.03183327987790108
-0.04005242511630058
-0.022977977991104126
0.0321640819311142
-0.0001160985921160318
0.0028690665494650602
-0.031324353069067
0.21863432228565216
-0.05995140224695206
-0.047966212034225464
0.33243003487586975
-0.08692444860935211
0.0072649093344807625
0.11796889454126358
-0.08091912418603897
-0.0020404725801199675
0.03203684836626053
0.031680602580308914
-0.04376757889986038
-0.043385885655879974
0.06219067424535751
-0.018855683505535126
-0.07684772461652756
0.0742013156414032
0.04030688479542732
-0.02003893442451954
0.038805555552244186
-0.11471176892518997
-0.06229246035218239
-0.016094762831926346
-0.03351273387670517
-0.10524576157331467
-0.039263591170310974
0.002543036360293627
-0.004144560545682907
-0.021489372476935387
0.013448351994156837
-0.03078998252749443
-0.03974706679582596
-0.010706516914069653
-0.04587961733341217
-0.0019307354232296348
-0.02098044753074646
0.0642772689461708
-0.003982340916991234
0.048169784247875214
0.04516712203621864
0.010973702184855938
0.048449691385030746
-0.00011132741929031909
-0.030942659825086594
0.028347140178084373
-0.0005236364668235183
-0.05201216787099838
0.0022663080599159002
-0.19563089311122894
-0.0465666688978672
-0.019364608451724052
-0.1711006909608841
0.0679924264550209
-0.019275546073913574
0.0643281638622284
0.0005140940775163472
0.01022303756326437
-0.052368417382240295
-0.0012023360468447208
-0.018537605181336403
-0.04842424392700195
0.019975319504737854
-0.03282568231225014
-0.05984961986541748
-0.03995063900947571
-0.005843098741024733
-0.027507415041327477
-0.06875581294298172
0.04954387992620468
0.04936575889587402
-0.04931486397981644
-0.023754090070724487
-0.11430463194847107
0.06453172862529755
0.14687584340572357
-0.05669428035616875
0.13364379107952118
-0.06376834213733673
-0.05745767056941986
0.04580327868461609
0.1232617124915123
0.15797042846679688
-0.04109571874141693
0.21049152314662933
0.2888660132884979
0.024593817070126534
0.062343351542949677
0.08499053120613098
-0.052164845168590546
0.02431390807032585
0.006317035760730505
0.02094227820634842
0.011183634400367737
0.04633765295147896
-0.041528306901454926
0.040128763765096664
-0.03623548522591591
-0.035472095012664795
-0.03623548522591591
0.028219910338521004
0.006584221497178078
-0.07455755770206451
0.005610901862382889
0.032418545335531235
0.10972429811954498
0.016298333182930946
0.02357596531510353
0.02324516512453556
0.011533520184457302
-0.0036769856233149767
0.03623548522591591
0.019110146909952164
0.007939235307276249
0.018932022154331207
0.0072776321321725845
-0.0013383146142587066
0.03844930976629257
-0.08473606407642365
0.043843917548656464
0.12132780253887177
-0.06580404192209244
0.01137448102235794
0.05750856176018715
0.04885683208703995
-0.01685815118253231
0.16631679236888885
-0.09862972795963287
-0.0025509882252663374
0.3244907855987549
-0.10779038816690445
0.04982379078865051
0.1586829125881195
-0.04547247663140297
0.03432701528072357
0.02972123958170414
0.09720473736524582
-0.047635409981012344
-0.12377063930034637
0.24326631426811218
-0.038143955171108246
-0.15257582068443298
0.18911665678024292
0.03539575636386871
-0.014059062115848064
-0.04343677684664726
0.020229781046509743
-0.04554881900548935
0.1520668864250183
-0.0737941712141037
-0.04934031143784523
0.008537222631275654
0.03844930976629257
0.053260594606399536
0.04074481129646301
0.008376210927963257
-0.06253323704004288
-0.06184806674718857
-0.03905472531914711
0.09729422628879547
0.0828142836689949
0.030832676216959953
0.1364859789609909
0.1933094710111618
0.14461667835712433
-0.040196675807237625
-0.10944458097219467
0.045449648052453995
-0.03695353493094444
0.007770976517349482
-0.11647900193929672
0.2210817188024521
0.36980941891670227
-0.05586424097418785
-0.16791246831417084
0.18051961064338684
0.2346024066209793
0.006531959865242243
-0.031220940873026848
-0.0825858935713768
0.012424427084624767
-0.046226177364587784
-0.03540048003196716
-0.00561554403975606
0.0032888189889490604
0.0731305405497551
-0.021217448636889458
0.00043358452967368066
0.017837274819612503
0.04138430580496788
-0.04369104653596878
-0.07687614113092422
0.032591283321380615
0.2079264372587204
0.3836955428123474
-0.11346425116062164
-0.03695353493094444
0.05275813490152359
0.01885361038148403
-0.07345028966665268
0.03757018595933914
0.1005830466747284
0.031220940873026848
0.025579702109098434
0.0349893793463707
0.016569709405303
0.048647113144397736
0.13301445543766022
0.19751185178756714
-0.054722290486097336
-0.04449041187763214
-0.03663378953933716
0.16151754558086395
-0.0011619351571425796
0.015610470436513424
-0.04145282134413719
0.03592577949166298
0.04229786619544029
-0.03585726022720337
0.12488376349210739
0.06573069840669632
0.09775100648403168
-0.037912774831056595
0.04138430580496788
0.055590175092220306
0.24739226698875427
0.06659857928752899
0.0230674110352993
-0.002094052731990814
-0.12250850349664688
-0.039465826004743576
-0.02189120091497898
-0.04216083139181137
-0.00013132437015883625
0.004225218668580055
0.040996041148900986
-0.003311657812446356
0.07194291055202484
0.02055511809885502
-0.07500334084033966
-0.08774751424789429
0.034190014004707336
-0.04837304353713989
-0.03588009998202324
-0.13922666013240814
-0.04227502644062042
0.04887550324201584
-0.0689738392829895
-0.04053926095366478
0.03987693041563034
0.040082480758428574
0.024003809317946434
0.01161935180425644
-0.031061066314578056
-0.0007693895022384822
-0.08267725259065628
0.010631564073264599
-0.01680951938033104
0.04127011075615883
-0.00506169768050313
-0.04574655741453171
-0.03928311541676521
0.03916892036795616
-0.007736717816442251
0.033299289643764496
0.006880254950374365
0.020989058539271355
0.0157246645539999
0.0019927045796066523
-0.002575099468231201
-0.038689300417900085
-0.19404031336307526
-0.0475965179502964
0.03286534920334816
0.27900147438049316
-0.030238863080739975
-0.00364853348582983
-0.1490931212902069
0.0009578114259056747
-0.03316225856542587
-0.009615227580070496
0.045563843101263046
-0.004913244396448135
-0.04147566109895706
-0.03747883066534996
0.04063061624765396
0.014411421492695808
-0.0396028608083725
-0.06394925713539124
-0.1306391954421997
-0.06865409761667252
-0.0007601111428812146
-0.09363998472690582
-0.038529425859451294
-0.0018542429897934198
0.024757497012615204
0.004759080708026886
-0.06577637791633606
-0.0003325932193547487
0.040173836052417755
0.032499924302101135
-0.07038985937833786
-0.07354164123535156
-0.0815809816122055
0.03967137634754181
0.02603648230433464
-0.02137732319533825
-0.09341159462928772
-0.041841086000204086
-0.04051642119884491
0.018157020211219788
-0.05061126872897148
0.07536876946687698
0.034715309739112854
0.05983823165297508
-0.030124668031930923
-0.015222206711769104
-0.04074481129646301
-0.0398312509059906
-0.03926027566194534
0.043987952172756195
-0.015416338108479977
-0.04604346305131912
-0.04197811707854271
0.10405457764863968
0.048647113144397736
-0.15137702226638794
-0.20080065727233887
0.0631270483136177
0.19714641571044922
0.047002702951431274
-0.06116289645433426
-0.04462744668126106
0.009255512617528439
0.0008678827434778214
-0.0036199847236275673
-0.06440603733062744
0.06111721694469452
0.06518256664276123
0.037958450615406036
0.0042766062542796135
-0.05508771538734436
0.10003490746021271
0.5474056005477905
0.34221988916397095
-0.08592039346694946
-0.14004887640476227
0.021297385916113853
-0.0429830364882946
0.009655195288360119
-0.03126661852002144
0.07185155898332596
-0.04131578654050827
-0.04149850085377693
-0.08633149415254593
0.0157246645539999
-0.002385250059887767
0.023272961378097534
-0.029439495876431465
0.04040222615003586
-0.0314493291079998
-0.04076765105128288
-0.0042680418118834496
-0.003625694429501891
-0.05805679038167
-0.04455892741680145
0.04042506590485573
0.012698494829237461
0.05307788401842117
-0.04031087085604668
-0.0534433051943779
-0.004787629470229149
0.10624711960554123
0.06454306840896606
-0.03462395444512367
-0.04828168824315071
-0.0060751792043447495
0.03763870522379875
0.031038228422403336
0.06029501184821129
-0.03064996562898159
-0.02255353145301342
-0.035583194345235825
0.03916892036795616
-0.04270896688103676
0.04042506590485573
0.0036399688106030226
0.0253741517663002
0.04218367114663124
-0.004887550137937069
-0.17129264771938324
-0.07130341976881027
0.04375956207513809
-0.03745599091053009
-0.039328791201114655
0.010517369024455547
0.031677719205617905
-0.04586075246334076
0.0008978589903563261
-0.04186392202973366
0.11063221096992493
0.02594512701034546
0.03994544595479965
-0.010654402896761894
0.01449135784059763
-0.026242034509778023
-0.040927521884441376
-0.02144584059715271
0.03688501566648483
0.031746238470077515
-0.08646853268146515
0.0060123722068965435
0.020212532952427864
-0.008387629874050617
0.04076765105128288
-0.0522099994122982
-0.08962031453847885
0.13301445543766022
0.32760289311408997
0.15749788284301758
0.03510357439517975
-0.11812341213226318
-0.049286603927612305
0.07418113946914673
0.014742587693035603
0.034852344542741776
-0.11995053291320801
-0.11108899116516113
-0.03154068812727928
0.14059700071811676
0.049377962946891785
0.018522445112466812
0.02100047841668129
-0.04047074168920517
-0.05339762941002846
-0.08372784405946732
0.43448951840400696
0.04405646771192551
-0.02457478456199169
-0.186549112200737
0.049423638731241226
0.040128156542778015
-0.0320659838616848
-0.0947362557053566
-0.2545180320739746
-0.33052629232406616
-0.11593086272478104
0.01683235727250576
0.030101828277111053
-0.004507851786911488
-0.05869628116488457
-0.007947978563606739
0.04407930746674538
0.04809897765517235
0.07733292132616043
0.010637273080646992
-0.02752101980149746
-0.00047997626825235784
0.029462335631251335
-0.047048382461071014
-0.19605015218257904
-0.045563843101263046
-0.020144015550613403
0.31463032960891724
-0.03277399390935898
-0.06956765800714493
-0.04597494751214981
0.09866456687450409
-0.09300048649311066
-0.12351342290639877
-0.04131578654050827
0.03263695910573006
-0.004170976113528013
-0.052438389509916306
0.04124727100133896
0.06696400791406631
0.04892117902636528
0.04364536702632904
0.03679366037249565
-0.02991911582648754
0.041018880903720856
0.13730819523334503
0.031746238470077515
-0.06714671850204468
-0.06586773693561554
-0.048647113144397736
0.0012904045870527625
-0.0014845363330096006
-0.11355561017990112
-0.07084663957357407
0.150554820895195
0.22217798233032227
0.08509818464517593
-0.034692469984292984
-0.023935293778777122
-0.03894053027033806
0.027817925438284874
0.04873846843838692
-0.04138430580496788
-0.04047074168920517
-0.04449041187763214
0.058604925870895386
0.07687614113092422
-0.014776845462620258
0.22747664153575897
0.06129993125796318
-0.12661953270435333
-0.19805997610092163
0.1297256350517273
0.15329550206661224
-0.0031232358887791634
-0.036222685128450394
-0.04154417663812637
-0.03466963395476341
-0.03987693041563034
0.01344076357781887
0.03396162390708923
-0.03926027566194534
-0.00861601997166872
0.011425219476222992
0.031083906069397926
0.03599429503083229
-0.02443775162100792
-0.10460270941257477
-0.05960984155535698
0.06047772616147995
0.14744871854782104
0.043348461389541626
-0.06810595840215683
-0.05819382146000862
-0.017837274819612503
0.006611896213144064
0.020429503172636032
-0.03962570056319237
-0.04289168119430542
-0.04033371061086655
0.02208533138036728
0.0007308486383408308
-0.04828168824315071
-0.037821415811777115
0.10460270941257477
0.012241714634001255
-0.1054249182343483
-0.0888894647359848
0.0465230830013752
0.10423728823661804
0.023250121623277664
-0.04814465343952179
-0.06385789811611176
-0.048464398831129074
-0.01258429978042841
0.018122762441635132
0.023912454023957253
0.04960635304450989
-0.09236099570989609
0.036999210715293884
0.01527930423617363
0.02667597495019436
0.033276453614234924
-0.016581129282712936
0.03309373930096626
0.03665662556886673
-0.04158985614776611
-0.037204764783382416
-0.001478826510719955
0.020303888246417046
0.029508013278245926
0.032591283321380615
0.047048382461071014
0.0874277651309967
-0.039420150220394135
-0.04764219745993614
0.01765456236898899
-0.028525935485959053
-0.03526344522833824
-0.021765585988759995
0.0055898502469062805
0.03058144822716713
0.053671695291996
0.0951930359005928
-0.0806674212217331
-0.06723807752132416
0.018111342564225197
0.07472927123308182
0.02213101089000702
-0.058604925870895386
-0.061528321355581284
-0.04076765105128288
-0.005053133238106966
-0.057737041264772415
0.06376654654741287
-0.02319302409887314
0.04519842192530632
-0.028914200142025948
-0.022416498512029648
0.31938084959983826
0.34021005034446716
-0.04837304353713989
-0.09482760727405548
0.05125075951218605
-0.03060428611934185
-0.008233467116951942
-0.048510078340768814
0.14589565992355347
0.04869278892874718
0.08628581464290619
0.04060777649283409
0.14891040325164795
0.19440573453903198
-0.01696939207613468
-0.020989058539271355
0.040173836052417755
-0.00881586130708456
0.04533545300364494
-0.10505948960781097
-0.1617002636194229
-0.12333070486783981
0.17065316438674927
0.0008793022716417909
-0.013166694901883602
-0.05371737480163574
0.05421983450651169
-0.030467253178358078
-0.10030897706747055
-0.1607867032289505
-0.042412061244249344
0.040813326835632324
-0.01685519702732563
-0.04047074168920517
0.03731895983219147
-0.05878763645887375
-0.047824908047914505
-0.03841523081064224
-0.06020365655422211
0.20683015882968903
0.013475021347403526
0.0014859637012705207
-0.05805679038167
0.0032174468506127596
0.0013610628666356206
0.020726410672068596
-0.010934180580079556
0.010254720225930214
0.15475720167160034
0.14297226071357727
0.16261382400989532
0.09126472473144531
0.05065694451332092
0.21450407803058624
0.28777164220809937
-0.015804601833224297
-0.04293735697865486
0.011556544341146946
-0.0009342586854472756
-0.005558446515351534
-0.019527362659573555
-0.03524060919880867
-0.08884378522634506
-0.016935132443904877
-0.07399842143058777
-0.0465230830013752
-0.0183397326618433
-0.027977799996733665
0.037935610860586166
0.07609961181879044
0.034852344542741776
0.05650373548269272
-0.013200953602790833
-0.03930595517158508
-0.05504203960299492
0.0852809026837349
0.28448283672332764
0.042457737028598785
0.021662810817360878
-0.03727328032255173
-0.02978208288550377
0.04047074168920517
0.008564632385969162
-0.04049358144402504
-0.1569497436285019
-0.021320225670933723
0.014365743845701218
0.13730819523334503
0.013600636273622513
-0.0026750201359391212
-0.05654941499233246
0.027315467596054077
-0.02189120091497898
0.05746297538280487
-0.017369074746966362
-0.026470424607396126
-0.06984172016382217
0.012732753530144691
0.025853769853711128
0.25086379051208496
0.14224141836166382
-0.00024534104159101844
-0.02060079574584961
-0.014354323968291283
-0.04142998158931732
-0.00020251786918379366
-0.013897543773055077
0.060066621750593185
-0.008530373685061932
-0.02069215290248394
-0.017506109550595284
0.02985059842467308
0.08263157308101654
0.04193244129419327
-0.07641936093568802
-0.08043903112411499
0.05252974480390549
-0.003699921304360032
-0.03064996562898159
0.020840605720877647
0.06801459938287735
-0.024140844121575356
-0.008975734934210777
-0.0069659012369811535
0.0070115793496370316
0.1340193748474121
0.35135549306869507
-0.002052656840533018
-0.12643681466579437
0.07431817054748535
0.2040894776582718
-0.030741320922970772
0.010294687934219837
-0.06445171684026718
-0.04460460692644119
0.025876609608530998
0.0062407623045146465
0.014788265340030193
-0.10067439824342728
-0.02980492077767849
-0.05193592980504036
-0.10907915979623795
-0.0372961200773716
0.011105473153293133
-0.08678827434778214
-0.02255353145301342
-0.0005863204714842141
0.12360477447509766
0.025830931961536407
0.015918796882033348
-0.0003320579417049885
-0.07454656064510345
-0.04154417663812637
-0.04640888795256615
-0.0062407623045146465
-0.015324982814490795
-0.04437621682882309
-0.00883870106190443
0.025602541863918304
0.027863604947924614
0.019059162586927414
0.10716067999601364
-0.06518256664276123
-0.11620493233203888
-0.13027377426624298
0.01094560045748949
0.11136306077241898
0.024095166474580765
-0.04983474314212799
0.02363838627934456
0.007091515697538853
0.03355051949620247
0.03494369983673096
-0.04115591570734978
-0.028708647936582565
0.04124727100133896
0.009483902715146542
0.0410645566880703
-0.04978906363248825
0.006172245368361473
-0.03149500861763954
-0.10999272018671036
-0.009112768806517124
-0.045449648052453995
0.04133862629532814
-0.024323556572198868
-0.0675121396780014
0.0038969076704233885
0.022325141355395317
-0.007325615733861923
-0.03919175639748573
-0.06746646761894226
0.02978208288550377
0.023101668804883957
0.013829026371240616
-0.016912294551730156
0.050017453730106354
0.00935828872025013
-0.09857320785522461
-0.03766154497861862
-0.017997147515416145
-0.27461639046669006
-0.012435846030712128
0.0030689933337271214
-0.0021968281362205744
0.036291204392910004
-0.0261049997061491
0.1817072480916977
0.006252181716263294
-0.09638066589832306
-0.017106425017118454
-0.01447993889451027
-0.030375896021723747
-0.005347185768187046
-0.04140714183449745
-0.010054878890514374
0.012150358408689499
-0.0029662176966667175
0.0023638384882360697
0.01654686965048313
-0.018157020211219788
-0.04435337707400322
0.018157020211219788
-0.012367329560220242
-0.04602062702178955
-0.007828074507415295
-0.016112929210066795
-0.09656337648630142
-0.046957023441791534
-0.02434639446437359
-0.037067729979753494
-0.025556864216923714
0.09829913824796677
-0.07655639201402664
-0.025602541863918304
-0.019059162586927414
-0.18097639083862305
-0.04197811707854271
-0.12552325427532196
0.10085710883140564
0.05408279970288277
0.018590962514281273
-0.03462395444512367
-0.05495068058371544
-0.02834322303533554
-0.12223443388938904
-0.030193183571100235
0.026196355000138283
-0.02756669744849205
-0.09272642433643341
0.03158636391162872
0.038004130125045776
-0.04266329109668732
-0.09501032531261444
-0.08240318298339844
-0.025511184707283974
0.05216431990265846
-0.0358344204723835
-0.03546899929642677
-0.006063759792596102
0.04147566109895706
-0.03722760081291199
-0.06691832840442657
0.07431817054748535
0.2040894776582718
0.11227662116289139
-0.04348549246788025
-0.09044251590967178
-0.017791597172617912
0.13027377426624298
0.11538273096084595
0.000514948507770896
-0.06262459605932236
-0.07390706986188889
-0.031038228422403336
0.013646314851939678
0.003959714900702238
-0.040996041148900986
0.04209231212735176
-0.008890088647603989
-0.01798572763800621
-0.009940683841705322
-0.0251457616686821
-0.03423568978905678
0.0003629263082984835
0.020874863490462303
0.005495639052242041
-0.04430769756436348
0.04028803110122681
0.046317532658576965
-0.08646853268146515
-0.16243110597133636
0.022142430767416954
-0.032545603811740875
-0.02669881470501423
-0.04261761158704758
-0.003805551677942276
-0.17412468791007996
-0.001478826510719955
0.27425095438957214
0.6716498732566833
0.05668644607067108
-0.1316441148519516
-0.19842541217803955
-0.02535131201148033
0.11300747096538544
0.031220940873026848
-0.1058816984295845
-0.1058816984295845
0.10944458097219467
0.4783404469490051
0.006063759792596102
-0.048647113144397736
-0.05965552106499672
0.11044950038194656
0.007913720794022083
-0.04145282134413719
-0.10807424038648605
-0.05787407606840134
0.028777165338397026
0.0433712974190712
0.07157748937606812
0.0456780381500721
-0.05750865116715431
-0.04133862629532814
-0.03510357439517975
-0.03391594439744949
-0.031769078224897385
-0.04282316192984581
0.013132436200976372
-0.01678667962551117
-0.05152482911944389
0.027246950194239616
0.031175261363387108
-0.1340193748474121
-0.04225218668580055
-0.09729422628879547
-0.10725203901529312
0.030056150630116463
0.0070287082344293594
-0.029713565483689308
-0.03825535997748375
-0.03661094978451729
0.03199746832251549
0.2799150347709656
0.2293037623167038
-0.004976051393896341
-0.19787727296352386
-0.20719559490680695
0.05741729587316513
-0.026401907205581665
-0.0261049997061491
0.03642823547124863
0.07587122172117233
-0.041704051196575165
-0.018099922686815262
-0.017426172271370888
0.041726890951395035
0.016192864626646042
0.04076765105128288
0.09345726668834686
-0.02822902798652649
-0.05453957989811897
0.10971865057945251
0.17129264771938324
-0.03613132983446121
-0.04538113251328468
-0.03574306517839432
0.07007011026144028
-0.04058493673801422
0.03969421610236168
-0.012698494829237461
0.0076910401694476604
-0.03446407988667488
-0.011590803042054176
-0.03540048003196716
-0.06481713801622391
-0.10405457764863968
-0.15521398186683655
-0.05335194990038872
-0.044650282710790634
-0.06317272782325745
0.007165742572396994
0.03366471454501152
0.04202379658818245
-0.010494529269635677
0.039488665759563446
0.019104840233922005
-0.08016496151685715
-0.046271853148937225
-0.018019987270236015
-0.04410214722156525
0.03309373930096626
-0.04209231212735176
-0.06029501184821129
0.005438541527837515
0.03980841115117073
0.04417066276073456
0.04136146605014801
-0.02186836116015911
-0.0003879064752254635
0.04718541353940964
-0.03763870522379875
-0.04149850085377693
0.055544495582580566
0.08190072327852249
-0.06563934683799744
-0.04841872304677963
-0.08263157308101654
0.15877686440944672
0.02219952829182148
0.019013484939932823
-0.09249803423881531
0.17184078693389893
0.10122253745794296
-0.15557940304279327
-0.1020447388291359
0.22765934467315674
0.3365558087825775
0.04257193207740784
-0.12981699407100677
-0.10853102058172226
0.04375956207513809
-0.016067249700427055
-0.041635531932115555
-0.0007865187362767756
0.032522764056921005
0.09103633463382721
0.0043508331291377544
-0.03884917125105858
-0.0017357654869556427
0.004510706290602684
0.021971136331558228
0.024963049218058586
-0.028891360387206078
0.021571453660726547
-0.018179859966039658
-0.018750835210084915
-0.026333389803767204
-0.045541007071733475
-0.007599683944135904
0.006446313578635454
-0.03882633522152901
-0.018328312784433365
-0.04659160226583481
0.033230774104595184
0.010534497909247875
-0.04533545300364494
0.014902460388839245
0.05609263479709625
-0.008090722374618053
-0.015541953034698963
0.017243459820747375
0.006126567255705595
0.04127011075615883
-0.03453259915113449
0.029233945533633232
-0.04348549246788025
-0.10953593999147415
-0.07911436259746552
-0.011522285640239716
-0.010694371536374092
-0.06760349869728088
-0.030855515971779823
-0.0005734735168516636
0.06618747860193253
0.03304806351661682
0.09236099570989609
0.047916263341903687
0.01305249985307455
-0.017814435064792633
-0.043279942125082016
-0.04350833222270012
0.052438389509916306
0.015644729137420654
0.026516102254390717
-0.04654592275619507
-0.02208533138036728
-0.032499924302101135
-0.024985887110233307
-0.0755058005452156
-0.041818246245384216
0.014605552889406681
0.042389221489429474
-0.04040222615003586
-0.04051642119884491
-0.03900904580950737
-0.03382458910346031
-0.04435337707400322
0.06888248771429062
0.04951499402523041
0.02111467346549034
-0.10423728823661804
-0.04579223319888115
-0.06833434849977493
-0.047779228538274765
-0.02372974157333374
0.15183380246162415
0.2050030380487442
0.02742966264486313
-0.04595210775732994
-0.04145282134413719
0.049423638731241226
0.022473596036434174
0.04197811707854271
-0.0027306904084980488
-0.031152423471212387
-0.036999210715293884
0.024734659120440483
-0.04309723153710365
-0.028845682740211487
0.03366471454501152
0.140414297580719
0.12250850349664688
-0.0375245101749897
-0.01871657744050026
-0.06563934683799744
0.07623665034770966
0.040927521884441376
-0.022210946306586266
-0.1574065238237381
0.027749409899115562
0.17933198809623718
0.09820778667926788
-0.1054249182343483
-0.1767740100622177
-0.17202350497245789
-0.04305155202746391
-0.021274546161293983
-0.015838859602808952
-0.059381451457738876
-0.03889485076069832
0.0031574945896863937
0.20025253295898438
0.23259258270263672
-0.09848185628652573
-0.12936021387577057
0.04300587624311447
0.11191119998693466
0.014833943918347359
-0.06262459605932236
-0.040036801248788834
-0.09322887659072876
0.021411580964922905
-0.039374470710754395
0.04814465343952179
0.0595184862613678
0.040128156542778015
-0.032362889498472214
-0.06066043674945831
0.02370690181851387
0.08171801269054413
0.09802507609128952
-0.04037938639521599
0.024003809317946434
0.05919874086976051
0.043302781879901886
0.1121852695941925
0.33052629232406616
0.037981290370225906
-0.09446218609809875
-0.0017857258208096027
0.15795466303825378
0.02594512701034546
-0.013075338676571846
-0.04291451722383499
-0.037204764783382416
0.027406824752688408
-0.04410214722156525
0.0488298237323761
0.07765267044305801
0.07002443820238113
-0.029987633228302002
0.012675656005740166
-0.030375896021723747
0.027452502399683
0.036199845373630524
-0.01051165908575058
0.0364510752260685
-0.06700968742370605
-3.2652660593157634e-05
0.024255039170384407
-0.03894053027033806
-0.03581158444285393
0.037867095321416855
-0.04293735697865486
-0.030421573668718338
0.009141317568719387
0.006257891654968262
-0.03891769051551819
0.0461348220705986
0.04291451722383499
-0.024072326719760895
0.10177066922187805
0.01836257241666317
-0.04270896688103676
-0.07180587947368622
0.017734499648213387
0.07331325113773346
0.08167233318090439
-0.05207296460866928
-0.04366820678114891
0.02057795785367489
0.04809897765517235
-0.1121852695941925
-0.12789851427078247
0.1656285673379898
0.24976752698421478
-0.08642285317182541
-0.18207266926765442
-0.09802507609128952
-0.04517558217048645
-0.10944458097219467
-0.02286185882985592
0.11309882998466492
0.211763396859169
0.06586773693561554
-0.13484157621860504
-0.28831979632377625
-0.2832038402557373
-0.05600127577781677
-0.027954960241913795
-0.03773006051778793
-0.04216083139181137
-0.07705885171890259
-0.11456052213907242
-0.03149500861763954
0.04035654664039612
0.031220940873026848
0.02231372334063053
-0.04357685148715973
-0.03508073464035988
-0.01452561654150486
-0.0465230830013752
0.025488346815109253
0.044010791927576065
-6.191515421960503e-05
0.004245202988386154
0.04346265643835068
-0.04723109304904938
0.015758924186229706
-0.021343063563108444
0.02843458019196987
0.04147566109895706
0.039397310465574265
0.03142649307847023
0.06847137957811356
0.25725871324539185
0.41658371686935425
-0.03816400095820427
-0.11200255155563354
0.10579033941030502
0.3327188491821289
-0.025602541863918304
-0.009495322592556477
-0.10222745686769485
-0.022781921550631523
0.051616184413433075
0.030718481168150902
-0.006994449999183416
-0.10761746019124985
0.010437431745231152
0.032568443566560745
0.030809838324785233
0.08939192444086075
0.002974782371893525
0.005232990253716707
-0.01258429978042841
0.018396830186247826
-0.0027378275990486145
0.03393878415226936
-0.02911975048482418
0.035697389394044876
0.04111023619771004
-0.03300238400697708
-0.049971774220466614
-0.037044890224933624
-0.01126534678041935
-0.10615576803684235
0.026584619656205177
0.003757018828764558
-0.03537764027714729
0.04355401173233986
0.06015797704458237
0.006006662268191576
-0.09628930687904358
0.05138779431581497
0.15768060088157654
0.4070826768875122
-0.07906869053840637
-0.1005830466747284
0.011459478177130222
0.15174244344234467
0.1297256350517273
-0.04033371061086655
-0.04366820678114891
-0.0021368758752942085
0.05819382146000862
0.030284540727734566
0.02601364441215992
-0.040859006345272064
-0.035651709884405136
-0.0017957179807126522
0.02898271568119526
0.06938493996858597
-0.0456780381500721
0.02208533138036728
0.011573673225939274
0.020874863490462303
0.0209548007696867
-0.02366122417151928
0.06029501184821129
0.0021611421834677458
-0.018602382391691208
0.02462046407163143
-0.0015958765288814902
-0.03987693041563034
-0.007165742572396994
0.02601364441215992
-0.03503505513072014
-0.041841086000204086
-0.1350242793560028
-0.027132755145430565
-0.10642983019351959
0.11520001292228699
0.030878355726599693
-0.02991911582648754
-0.08226615190505981
0.04147566109895706
-0.16544586420059204
-0.08345378190279007
-0.05252974480390549
0.1953192949295044
0.07276511937379837
-0.047779228538274765
-0.1486363410949707
0.07632800191640854
0.02749818004667759
0.006931642536073923
0.041795406490564346
0.06262459605932236
-0.03973989561200142
-0.03231721371412277
0.011590803042054176
-0.08893514424562454
0.03971705585718155
0.03679366037249565
0.03387026488780975
0.017334816977381706
0.04437621682882309
-0.07130341976881027
0.02459762431681156
-0.01574750430881977
0.037981290370225906
0.03131229802966118
0.06353815644979477
-0.03599429503083229
-0.17723079025745392
0.014422841370105743
0.28484824299812317
0.6175671219825745
-0.050931014120578766
-0.08962031453847885
-0.21633119881153107
0.01963013783097267
-0.01836257241666317
-0.040927521884441376
0.22711122035980225
0.7856622934341431
0.3093316853046417
-0.07134909927845001
-0.10816559940576553
-0.05504203960299492
0.03663378953933716
0.037159085273742676
-0.0452897772192955
-0.09144743531942368
0.07080096006393433
0.0490582138299942
-0.03973989561200142
-0.033984459936618805
-0.02439207397401333
-0.04206947609782219
-0.17412468791007996
-0.016798099502921104
-0.13009105622768402
-0.19148235023021698
-0.042320702224969864
0.03976273536682129
0.07934275269508362
0.011082634329795837
0.0035714516416192055
-0.043828077614307404
0.04060777649283409
0.14836227893829346
-0.045609522610902786
-0.02319302409887314
0.0410645566880703
0.03964854031801224
0.02895987778902054
-0.10478542000055313
-0.057006195187568665
0.06796891987323761
0.08085013180971146
0.07125774025917053
-0.10798288881778717
-0.0966547355055809
-0.016112929210066795
0.010043459013104439
-0.050839658826589584
0.020486600697040558
0.05020016431808472
-0.0006655433098785579
0.011573673225939274
0.05289516970515251
0.06961333006620407
-0.05956416577100754
-0.018556702882051468
0.03599429503083229
0.18928979337215424
0.08555497229099274
-0.025008726865053177
-0.15274736285209656
0.06330976635217667
-0.07783538103103638
-0.03297954425215721
-0.10423728823661804
0.12552325427532196
0.27717435359954834
-0.015130850486457348
-0.046226177364587784
-0.11830612272024155
0.0882042944431305
0.0337560698390007
0.027977799996733665
-0.04122443124651909
0.17750486731529236
0.3720019459724426
0.18344300985336304
-0.10049168765544891
0.21432135999202728
0.18481335043907166
0.026927204802632332
-0.07061824947595596
-0.07098367065191269
0.07239969074726105
0.020520860329270363
-0.05216431990265846
-0.031083906069397926
-0.04291451722383499
-0.043234266340732574
0.007160032633692026
0.014742587693035603
0.02822902798652649
0.03873497620224953
0.03279683366417885
-0.06591340899467468
0.03192894905805588
0.03434988483786583
0.01301824115216732
-0.03592577949166298
-0.1452561616897583
-0.14068835973739624
-0.0364510752260685
-0.06504552811384201
-0.001328231766819954
0.030855515971779823
0.011493736878037453
-0.04988041892647743
-0.04286884143948555
-0.03697637468576431
0.08043903112411499
-0.09902998805046082
-0.07856623083353043
0.04113307595252991
-0.006566218100488186
-0.04072197154164314
-0.07148613035678864
-0.012869787402451038
0.07148613035678864
0.023843936622142792
0.06568501889705658
0.04446757212281227
-0.12122951447963715
-0.04494719207286835
0.10716067999601364
0.23569868505001068
0.025054404512047768
0.04147566109895706
-0.040859006345272064
-0.07564283162355423
-0.13566377758979797
-0.07884030044078827
-0.038712140172719955
0.1691001057624817
0.12570597231388092
0.016158606857061386
-0.11976782232522964
-0.07258240878582001
0.0442163422703743
0.29179131984710693
0.02283901907503605
-0.043302781879901886
-0.10825695097446442
0.07509469985961914
-0.030855515971779823
0.024277878925204277
-0.009512451477348804
0.04042506590485573
-0.013395084999501705
-0.022370820865035057
0.04113307595252991
0.1117284819483757
-0.05440254509449005
0.04366820678114891
0.03989976644515991
0.021617133170366287
0.029416657984256744
-0.03387026488780975
0.05412847548723221
0.03341348469257355
0.020886283367872238
0.0412929467856884
0.026447584852576256
0.07390706986188889
0.010734339244663715
0.0039739892818033695
0.017551787197589874
0.03448691964149475
-0.015850279480218887
0.0007479779305867851
0.07829216122627258
-0.0008471849141642451
-0.01149944681674242
-0.049377962946891785
0.007234259508550167
-0.0857376828789711
-0.10971865057945251
0.025579702109098434
-0.04896685853600502
0.03261411935091019
-0.0038084066472947598
-0.022279463708400726
-0.05650373548269272
0.18764539062976837
0.1918477714061737
-0.06285298615694046
-0.06577637791633606
0.19075149297714233
0.3818684220314026
0.042320702224969864
-0.009706583805382252
-0.1058816984295845
0.03804980590939522
0.020794928073883057
0.013897543773055077
0.05581856518983841
-0.10843966901302338
0.07107502967119217
0.04280032217502594
-0.052438389509916306
-0.012641397304832935
-0.020372405648231506
-0.006960191298276186
-0.03355051949620247
-0.019675815477967262
-0.04428486153483391
-0.010871373116970062
0.014548455365002155
0.026950042694807053
0.046363212168216705
0.16891738772392273
0.041818246245384216
-0.09391404688358307
-0.2685868740081787
-0.19805997610092163
-0.037867095321416855
0.03761586546897888
-0.02459762431681156
-0.030741320922970772
0.032499924302101135
-0.02026963047683239
-0.08432166278362274
-0.05421983450651169
-0.08729073405265808
0.07824648171663284
0.0276808924973011
-0.03969421610236168
-0.04451325163245201
0.07002443820238113
-0.004547819960862398
-0.012801270931959152
0.0013546394184231758
-0.06586773693561554
-0.014045997522771358
-0.053214915096759796
0.02841174043715
0.06970468908548355
0.026424746960401535
0.04430769756436348
-0.04204663634300232
0.029987633228302002
-0.04035654664039612
0.030878355726599693
-0.0488298237323761
0.02069215290248394
0.00818207859992981
-0.0008607455529272556
0.06321840733289719
-0.005432832054793835
-0.03996828570961952
-0.12945155799388885
-0.0253741517663002
0.017745917662978172
0.008313403464853764
0.07436385005712509
-0.023147346451878548
-0.0396028608083725
-0.09683744609355927
-0.07541444152593613
0.23058274388313293
0.17366790771484375
0.004990325774997473
-0.08464140444993973
-0.18965521454811096
0.03304806351661682
0.03674798458814621
0.05042855441570282
0.04037938639521599
-0.06700968742370605
-0.04887550324201584
0.025511184707283974
0.042389221489429474
0.03496653959155083
0.027909282594919205
-0.04869278892874718
-0.057006195187568665
-0.32193881273269653
-0.03128945827484131
-0.003637113841250539
0.03987693041563034
-0.048464398831129074
0.017974309623241425
0.003003331134095788
-0.11876290291547775
-0.09053387492895126
0.011979065835475922
0.32285237312316895
0.09756829589605331
-0.04280032217502594
-0.16444094479084015
-0.060020945966243744
-0.027224112302064896
-0.00420237984508276
-0.025785254314541817
-0.025830931961536407
0.00129896926227957
-0.04764219745993614
-0.026401907205581665
0.004844726994633675
-0.011505156755447388
0.1194937527179718
0.19020335376262665
0.08966599404811859
0.12762443721294403
0.01526788529008627
-0.16151754558086395
0.04437621682882309
0.02832038514316082
-0.0214915182441473
-0.010020620189607143
-0.08761048316955566
4.478589107748121e-05
0.036268364638090134
0.04732244834303856
0.04076765105128288
-0.004145282320678234
-0.013166694901883602
-0.13200953602790833
-0.10917051881551743
0.11035814136266708
0.037044890224933624
-0.1384044587612152
-0.1306391954421997
0.04117875173687935
0.029348140582442284
0.03055860847234726
0.013920382596552372
0.034875184297561646
0.07386139035224915
-0.01951594278216362
-0.11794070154428482
-0.09208692610263824
-0.059427130967378616
0.005746868439018726
0.008576052263379097
-0.041749726980924606
0.025488346815109253
-0.03907756134867668
-0.03165488317608833
-0.14516481757164001
0.007999367080628872
0.09021412581205368
0.062304846942424774
0.023478511720895767
-0.029485175386071205
0.12899477779865265
0.2472095489501953
-0.03382458910346031
-0.11666171252727509
-0.03581158444285393
0.2442861646413803
0.05426551029086113
-0.01574750430881977
-0.009683744050562382
-0.005053133238106966
-0.1427895575761795
-0.10862237960100174
-0.09893863648176193
-0.09030548483133316
0.013200953602790833
-0.024848854169249535
0.022336561232805252
-0.006063759792596102
0.021525776013731956
0.0034886603243649006
-0.007291357032954693
-0.02015543542802334
-0.047961942851543427
-0.06102586165070534
0.006731801200658083
0.06924790889024734
-0.02184552326798439
-0.007890881039202213
-0.03656527027487755
0.0010927043622359633
0.06984172016382217
0.04277748614549637
-0.03220301866531372
0.011579383164644241
-0.013691992498934269
0.03907756134867668
0.04117875173687935
0.03195178881287575
0.03683933988213539
-0.025442667305469513
-0.09446218609809875
-0.026264872401952744
0.05211864411830902
0.04122443124651909
0.05358033999800682
-0.019013484939932823
-0.025396989658474922
-0.0721256285905838
-0.03672514483332634
0.037958450615406036
0.043302781879901886
-0.029233945533633232
0.020829185843467712
-0.010020620189607143
0.026516102254390717
-0.011887709610164165
0.05458525940775871
-0.041841086000204086
0.003357335925102234
-0.03889485076069832
-0.015644729137420654
0.027817925438284874
0.04133862629532814
-0.0738157108426094
-0.04510706290602684
-0.041749726980924606
0.06778620928525925
0.1860009729862213
-0.03505789488554001
-0.14388582110404968
-0.12177765369415283
0.04286884143948555
0.011196829378604889
-0.03581158444285393
0.03688501566648483
0.09194989502429962
-0.06034069135785103
0.027292629703879356
0.03919175639748573
-0.002183981239795685
0.040219515562057495
0.08898082375526428
0.0059666940942406654
-0.1209554523229599
-0.055498819798231125
0.09190421551465988
0.45787668228149414
0.044741641730070114
-0.1307305544614792
-0.15841144323349
-0.05664077028632164
-0.001928469748236239
0.04115591570734978
-0.07011578977108002
0.0015630454290658236
0.03382458910346031
-0.039374470710754395
-0.04079049080610275
-0.023889614269137383
-0.05723458528518677
-0.11784934252500534
-0.09003141522407532
0.07518605142831802
0.1263454556465149
0.0033202224876731634
-0.03907756134867668
0.01257288083434105
-0.0053500402718782425
-0.00709722563624382
-0.008107852190732956
-0.04268612712621689
0.028525935485959053
-0.04490151256322861
-0.040128156542778015
0.04156701639294624
-0.03741031512618065
-0.037935610860586166
0.12186901271343231
0.011128312908113003
-0.02250785380601883
-0.04136146605014801
0.1540263444185257
0.05787407606840134
-0.09021412581205368
-0.07646504044532776
-0.022918956354260445
0.08185504376888275
0.2336888462305069
0.03311657905578613
-0.08491547405719757
-0.03421285003423691
0.18819352984428406
-0.014320065267384052
0.034875184297561646
-0.023478511720895767
-0.018511025235056877
-0.002376685617491603
-0.007810944691300392
0.033207934349775314
0.035651709884405136
-0.036359719932079315
-0.03651959449052811
0.08139826357364655
0.040927521884441376
0.025785254314541817
-0.08436734229326248
-0.07267376035451889
-0.039465826004743576
0.10277558863162994
0.11191119998693466
-0.0044707381166517735
-0.053260594606399536
0.04727677255868912
-0.035628870129585266
-0.00611514737829566
0.020852025598287582
0.04611198231577873
0.011573673225939274
0.0034115787129849195
0.017551787197589874
0.044718801975250244
0.009506742469966412
0.060112301260232925
-0.04305155202746391
-0.05449390038847923
0.11099763959646225
0.25524887442588806
0.09501032531261444
0.015758924186229706
0.004290881101042032
0.040196675807237625
-0.03887201100587845
-0.03985409066081047
0.0036114200484007597
0.01300682220607996
-0.018499605357646942
-0.06806027889251709
0.006766059435904026
0.02029246836900711
-0.04051642119884491
-0.03878065571188927
-0.11008407920598984
-0.07500334084033966
-0.03434988483786583
-0.04156701639294624
-0.03930595517158508
0.04259477183222771
0.023387156426906586
-0.025602541863918304
0.008695957250893116
-0.06271594762802124
-0.19550201296806335
-0.03535480424761772
-0.1860923320055008
0.034167174249887466
-0.0032088824082165956
-0.0505199134349823
0.02215384878218174
-0.042412061244249344
0.10003490746021271
-0.08231183141469955
-0.03051293082535267
0.20573389530181885
0.08802158385515213
-0.035560354590415955
-0.010460271500051022
-0.036268364638090134
-0.05577288568019867
-0.04204663634300232
-0.014891041442751884
0.07317622005939484
0.018727995455265045
0.013589217327535152
0.0015416338574141264
-0.04202379658818245
-0.02069215290248394
0.04154417663812637
-0.01223029475659132
0.041818246245384216
0.01447993889451027
0.03441840410232544
-0.03444124385714531
-0.008884378708899021
-0.01596447452902794
0.04074481129646301
0.22948646545410156
0.2981862425804138
0.1316441148519516
0.06353815644979477
0.11181984096765518
0.2715102732181549
-0.07230833917856216
-0.10515084862709045
0.005210151430219412
0.018328312784433365
0.014068836346268654
-0.06984172016382217
-0.037022050470113754
0.04643172770738602
0.15311278402805328
0.025008726865053177
-0.01949310302734375
-0.01455987524241209
0.02973640337586403
0.01376050990074873
-0.029233945533633232
0.005921015981584787
0.015599050559103489
0.03976273536682129
0.040859006345272064
-0.02319302409887314
-0.0459064282476902
0.02982776053249836
0.010203331708908081
-0.056914836168289185
-0.034030139446258545
0.014719747938215733
0.044741641730070114
-0.020018400624394417
0.03147216886281967
-0.04823600873351097
-0.02066931314766407
0.047733552753925323
-0.07121206074953079
-0.02749818004667759
-0.022028233855962753
-0.03923743590712547
0.0232615415006876
-0.025648219510912895
0.009489612653851509
-0.0597468763589859
-0.04307439178228378
0.0775156319141388
0.04200095683336258
0.04302871227264404
-0.09893863648176193
0.05600127577781677
0.08518954366445541
0.08642285317182541
-0.03272831439971924
-0.0519816093146801
0.04305155202746391
0.07221698015928268
0.20171421766281128
-0.08359081298112869
-0.1131901815533638
-0.02078350819647312
0.038689300417900085
0.022370820865035057
-0.03816400095820427
0.040813326835632324
-0.010585885494947433
0.02987343817949295
0.01749468967318535
-0.04060777649283409
0.01862522028386593
-0.039534345269203186
-0.03891769051551819
0.04076765105128288
-0.011442349292337894
0.025876609608530998
-0.03540048003196716
-0.039397310465574265
0.054767969995737076
0.06522823870182037
-0.043165747076272964
0.07395274937152863
-0.056275345385074615
0.03199746832251549
0.0369078554213047
-0.06299001723527908
0.03926027566194534
-0.017049327492713928
0.010231880471110344
0.00017147108155768365
0.040996041148900986
-0.011613641865551472
0.021457258611917496
0.08587471395730972
-0.029530853033065796
0.003699921304360032
0.03747883066534996
0.001375337247736752
-0.0013339414726942778
0.04339413717389107
0.04442189261317253
-0.04583791270852089
0.20536847412586212
0.38406094908714294
0.23935292661190033
-0.18664047122001648
-0.07048121839761734
0.0021854087244719267
-0.034852344542741776
-0.05193592980504036
0.02020111307501793
0.04254909232258797
0.12835529446601868
-0.04266329109668732
-0.05211864411830902
-0.16142618656158447
-0.16818654537200928
0.10012626647949219
0.23917022347450256
0.057691365480422974
-0.1733938455581665
-0.3133513629436493
-0.049377962946891785
-0.04501570761203766
0.007445520721375942
-0.05504203960299492
-0.002211102517321706
-0.03425852954387665
0.01680951938033104
0.07029850035905838
-0.03069564327597618
-0.07806377112865448
0.0435996875166893
0.08085013180971146
0.0072685182094573975
0.0326826386153698
0.03926027566194534
-0.013349407352507114
-0.10752610862255096
0.02173132821917534
0.042343541979789734
0.050017453730106354
0.005387153942137957
0.00988929532468319
0.04494719207286835
0.05970119684934616
-0.04487867280840874
-0.020429503172636032
-0.15238194167613983
0.09194989502429962
-0.04346265643835068
0.04540397226810455
0.014982396736741066
-0.03496653959155083
-0.16745568811893463
-0.11456052213907242
-0.06490849703550339
0.18673183023929596
-0.02911975048482418
-0.10725203901529312
-0.15758924186229706
0.07660207152366638
-0.037067729979753494
-0.06714671850204468
-0.025442667305469513
0.007388422731310129
-0.041635531932115555
0.004839017521589994
-0.03295670449733734
0.04209231212735176
0.0018228392582386732
0.14260683953762054
-0.04373672232031822
-0.0915844663977623
0.03928311541676521
0.3807721436023712
0.09994354844093323
0.034121494740247726
-0.12077273428440094
0.023033151403069496
0.029667887836694717
0.040013961493968964
0.061573997139930725
-0.013349407352507114
-0.020566537976264954
-0.033185094594955444
0.034875184297561646
0.08057606220245361
0.08582903444766998
0.21450407803058624
0.22071628272533417
0.1127334013581276
-0.10195338726043701
0.04423918202519417
0.06321840733289719
-0.024826014414429665
0.0026107854209840298
-0.037958450615406036
-0.05673212558031082
-0.09071658551692963
-0.13319715857505798
-0.06399493664503098
-0.1831689327955246
-0.1020447388291359
0.03674798458814621
0.014685490168631077
0.024049488827586174
0.0098036490380764
-0.031175261363387108
-0.10926187038421631
0.0026436166372150183
0.053991444408893585
-0.020475180819630623
0.037844255566596985
0.014811104163527489
0.037022050470113754
0.011990485712885857
0.06486281752586365
-0.11501730233430862
-0.024666141718626022
0.14900176227092743
0.04919524863362312
-0.12205172330141068
-0.07427249103784561
0.001029897015541792
0.21834103763103485
0.30768728256225586
-0.049469318240880966
-0.27954959869384766
0.04531261697411537
0.19696371257305145
0.013360826298594475
-0.01487962156534195
-0.0782008022069931
0.010448851622641087
0.02825186774134636
-0.0013574942713603377
-0.1457129418849945
-0.007628232706338167
0.04273180663585663
0.023295801132917404
-0.019196195527911186
-0.07710453122854233
-0.04357685148715973
0.00745694013312459
-0.02535131201148033
-0.016307059675455093
-0.05033719912171364
-0.04220650717616081
0.043257102370262146
0.007868042215704918
0.019995562732219696
0.02909691073000431
0.0063492474146187305
-0.036245524883270264
0.017152104526758194
-0.00519587704911828
-0.043919436633586884
0.0003238501667510718
0.047733552753925323
0.006851706188172102
-0.02156003564596176
0.01878509297966957
0.015382080338895321
-0.039511505514383316
-0.04841872304677963
-0.03807264566421509
0.030375896021723747
0.009118478745222092
0.04024235159158707
-0.02366122417151928
-0.07125774025917053
-0.0467514730989933
0.05668644607067108
0.048647113144397736
-0.03281967341899872
0.08875243365764618
0.008553212508559227
-0.0030861226841807365
0.06956765800714493
-0.04965202882885933
-0.055590175092220306
-0.03846091032028198
0.09985219687223434
0.041818246245384216
-0.03361903876066208
-0.06901951879262924
0.053306274116039276
0.03665662556886673
0.023387156426906586
0.09537574648857117
0.037022050470113754
-0.02170848846435547
-0.016752421855926514
0.037090569734573364
0.07929708063602448
0.04069913178682327
0.012801270931959152
0.140414297580719
-0.009872166439890862
-0.01019191276282072
-0.041795406490564346
-0.03846091032028198
0.0006930215167813003
0.020829185843467712
-0.03649675473570824
0.04681999236345291
-0.05262110382318497
-0.03985409066081047
0.010266139172017574
-0.039328791201114655
0.030901193618774414
-0.012207455933094025
-0.037044890224933624
0.018887870013713837
-0.01265281718224287
-0.001955591142177582
0.03204314410686493
-0.08637717366218567
-0.13657733798027039
-0.06573069840669632
0.012390168383717537
0.07418113946914673
0.05563585087656975
0.01652403175830841
-0.02333005890250206
-0.040881846100091934
-0.03069564327597618
-0.040082480758428574
-0.01829405501484871
0.0442163422703743
-0.059335775673389435
0.041726890951395035
0.020041240379214287
-0.03656527027487755
0.040859006345272064
-0.0032203018199652433
0.04197811707854271
0.07582554966211319
0.04901253804564476
0.10359779745340347
-0.053260594606399536
0.18344300985336304
0.1613348424434662
-0.020703570917248726
-0.1020447388291359
0.017688820138573647
0.22035086154937744
0.03807264566421509
-0.017426172271370888
-0.04965202882885933
0.05947280675172806
-0.05202728882431984
-0.04535829275846481
-0.047094058245420456
0.03508073464035988
0.056914836168289185
0.034829504787921906
-0.04197811707854271
0.030147505924105644
0.016466934233903885
0.07011578977108002
-0.044855836778879166
0.04574655741453171
0.10889644920825958
0.12515783309936523
0.03734179586172104
0.13246631622314453
0.002455194713547826
0.03996828570961952
0.02911975048482418
-0.039420150220394135
-0.11191119998693466
-0.03519492968916893
0.1102667897939682
0.04364536702632904
-0.024757497012615204
-0.040036801248788834
-0.06970468908548355
-0.0752774104475975
-0.04533545300364494
0.038552265614271164
-0.04138430580496788
0.00885012000799179
-0.023912454023957253
-0.00420808931812644
-0.025876609608530998
-0.01956162042915821
0.05874196067452431
0.08582903444766998
0.03649675473570824
0.01982427015900612
-0.11821476370096207
-0.04131578654050827
-0.005041713826358318
-0.02013259567320347
0.0813525915145874
0.1364859789609909
0.0551333948969841
0.033207934349775314
0.13045647740364075
0.0507483035326004
0.0012454403331503272
-0.05586424097418785
0.043850917369127274
-0.03809548541903496
-0.06810595840215683
-0.0456780381500721
0.025556864216923714
-0.06623315811157227
-0.0069659012369811535
-0.04158985614776611
-0.03234005346894264
-0.008067883551120758
0.0007950833532959223
0.1506461799144745
0.0767391100525856
-0.020189693197607994
0.13822175562381744
0.09784235805273056
0.12424426525831223
0.07929708063602448
-0.015153689309954643
0.03811832517385483
-0.14406853914260864
-0.025602541863918304
-0.03227153420448303
0.19751185178756714
0.04583791270852089
-0.05335194990038872
-0.11209391057491302
0.017072167247533798
0.04277748614549637
-0.042389221489429474
0.029713565483689308
0.04049358144402504
-0.07623665034770966
-0.014822524040937424
0.03517208993434906
0.031106745824217796
-0.009655195288360119
0.014297226443886757
-0.054722290486097336
0.0017571770586073399
0.04142998158931732
0.038552265614271164
-0.010186202824115753
-0.020109757781028748
-0.04140714183449745
0.027840765193104744
-0.03891769051551819
-0.06970468908548355
-0.04755083844065666
0.0372961200773716
0.09948676824569702
0.04512990266084671
0.04364536702632904
0.04195528104901314
0.07897733151912689
-0.033344969153404236
0.034783829003572464
-0.024026649072766304
-0.0456780381500721
-0.039374470710754395
-0.041772566735744476
0.022382238879799843
0.05431118980050087
0.032591283321380615
0.03679366037249565
-0.0021582874469459057
-0.03887201100587845
-0.006948771886527538
0.11647900193929672
-0.027452502399683
-0.02257637120783329
-0.05650373548269272
0.07600826025009155
-0.001122680609114468
0.00650912057608366
0.006446313578635454
0.010443141683936119
-0.03510357439517975
-0.04204663634300232
0.002577954437583685
-0.006263601128011942
-0.05668644607067108
-0.0360628142952919
-0.04049358144402504
-0.04302871227264404
-0.029028395190835
-0.037821415811777115
-0.0442163422703743
0.0034829506184905767
-0.010597305372357368
-0.017152104526758194
0.08998573571443558
-0.0396028608083725
-0.1044199988245964
-0.037935610860586166
0.28923335671424866
0.1666334867477417
-0.0609801821410656
-0.09153879433870316
0.04542681202292442
0.1234220638871193
-0.009141317568719387
-0.043325621634721756
0.03361903876066208
0.25287362933158875
0.13200953602790833
-0.07271943986415863
-0.032431408762931824
-0.03286534920334816
0.0947362557053566
0.047094058245420456
-0.0976596474647522
-0.08637717366218567
0.1044199988245964
0.24739226698875427
0.028069155290722847
-0.046317532658576965
-0.06495416909456253
-0.05431118980050087
0.2822902798652649
0.16699890792369843
-0.05586424097418785
-0.14489074051380157
0.05189025402069092
-0.036314040422439575
-0.02669881470501423
-0.04499286785721779
-0.0013769976794719696
-0.007329809945076704
-0.003337048226967454
-0.07032080739736557
-0.05447027087211609
-0.00989595241844654
-0.04284465312957764
-0.02153574675321579
0.0008900862885639071
-0.013553768396377563
-0.01230614073574543
-0.03530217707157135
-0.00233221217058599
0.005256338510662317
-0.0031793226953595877
0.0077622258104383945
0.004986964166164398
-0.010292924009263515
-0.032750215381383896
-0.02578902058303356
0.018643520772457123
-0.03462165594100952
-0.05676703900098801
-0.013390726409852505
0.013043375685811043
-0.024385441094636917
-0.011306621134281158
-0.026965759694576263
0.0028319719713181257
0.0073439874686300755
0.0024562659673392773
0.012178543023765087
0.011058514006435871
0.012851977720856667
0.010548120364546776
0.012681846506893635
0.0008674907730892301
-0.0037889587692916393
0.008627058938145638
0.014049983583390713
-0.0023818337358534336
0.013986184261739254
0.018033884465694427
0.005773819983005524
0.0027805783320218325
-0.018473388627171516
-0.010243303142488003
-0.012327407486736774
-0.024796590209007263
-0.009527334943413734
-0.009144539944827557
0.0013663644203916192
-0.00090736523270607
-0.006886760238558054
0.02047242783010006
0.011724860407412052
0.002128409454599023
0.01378769800066948
0.0031031181570142508
0.007273099385201931
-0.013716810382902622
0.007127779070287943
0.014730507507920265
-0.01039216760545969
-0.012476271949708462
0.009031119756400585
0.0020433440804481506
-0.01270311325788498
0.011930434964597225
0.012915777042508125
-0.029319239780306816
0.011767392978072166
0.045339904725551605
0.08858153223991394
0.0009100235183723271
0.013241861015558243
0.07168185710906982
0.004763667471706867
-0.01888453960418701
0.0056462218053638935
-0.01688550040125847
-0.003507179208099842
0.00980379804968834
-0.012851977720856667
0.012986664660274982
0.024711525067687035
0.01916809007525444
-0.012660580687224865
-0.00980379804968834
0.02109624072909355
0.03189956024289131
0.009364292956888676
-0.00432770699262619
0.01386567484587431
0.010406345129013062
-0.0017544757574796677
-0.02709335833787918
-0.005252793896943331
0.014184670522809029
-0.0028319719713181257
0.0033281873911619186
0.009109096601605415
0.01629004068672657
0.04386543855071068
0.012724380008876324
-0.00582698592916131
0.0619276762008667
0.015070769004523754
-0.02038736268877983
0.04199399799108505
0.002993241883814335
0.004653791431337595
0.06260819733142853
0.005196083802729845
-0.014588731341063976
0.02299603819847107
-0.01467379741370678
-0.013411992229521275
0.003863391000777483
-0.013674277812242508
0.02832680754363537
0.030311670154333115
0.011448397301137447
0.009569867514073849
0.02370491623878479
0.007301454432308674
0.020954465493559837
0.012632225640118122
0.0005436216597445309
0.05041548237204552
0.043638598173856735
0.003824402578175068
0.02078433521091938
0.02098282054066658
-0.022811729460954666
0.01573711633682251
0.0028993154410272837
-0.014858106151223183
0.011859547346830368
0.018600987270474434
-0.005348492879420519
-0.01790628582239151
0.006950559560209513
0.017013099044561386
0.010222036391496658
-0.0022666407749056816
0.009874685667455196
-0.0053343153558671474
-0.03703184425830841
-0.015297610312700272
-0.015396853908896446
-0.040009137243032455
-0.024980898946523666
0.020373184233903885
0.0181473046541214
0.010611919686198235
0.003774781245738268
-0.005575334187597036
-0.00245981034822762
0.029120752587914467
0.02587408758699894
0.01901213638484478
0.011646883562207222
-0.018204014748334885
-0.0029737476725131273
0.00991721823811531
-0.010200769640505314
0.012830711901187897
0.01303628645837307
-0.02244311198592186
0.023322122171521187
-0.013248950242996216
-0.012625136412680149
-0.007648805156350136
-0.02339301072061062
-0.0544419139623642
-0.01281653344631195
0.013348192907869816
-0.027660461142659187
-0.008825544267892838
0.0023180346470326185
0.02879466861486435
0.006603208836168051
0.024555571377277374
0.03178614005446434
0.025151029229164124
0.002367656212300062
0.027263490483164787
-0.005089751910418272
-0.014071250334382057
