0.11157607287168503
-0.11157607287168503
0.0
0.11157607287168503
0.11157607287168503
0.0
0.11157607287168503
-0.11157607287168503
0.0
0.0
0.0
0.11157607287168503
0.0
-0.11157607287168503
0.11157607287168503
0.11157607287168503
-0.11157607287168503
0.11157607287168503
0.0
0.0
0.0
0.0
-0.11157607287168503
0.0
-0.11157607287168503
0.0
0.0
-0.11157607287168503
0.0
0.0
-0.11157607287168503
0.0
0.0
0.0
0.11157607287168503
0.0
0.0
0.0
0.0
0.0
0.11157607287168503
-0.11157607287168503
0.0
0.11157607287168503
-0.11157607287168503
-0.11157607287168503
0.11157607287168503
0.0
0.0
0.11157607287168503
0.0
0.0
0.11157607287168503
0.0
0.11157607287168503
-0.11157607287168503
0.11157607287168503
0.11157607287168503
0.0
0.0
0.0
0.11157607287168503
0.0
0.0
0.11157607287168503
0.0
0.0
0.11157607287168503
-0.11157607287168503
0.0
0.11157607287168503
-0.11157607287168503
-0.11157607287168503
0.11157607287168503
-0.11157607287168503
-0.11157607287168503
0.11157607287168503
0.0
-0.11157607287168503
0.0
0.0
0.0
0.0
0.0
-0.11157607287168503
0.0
-0.11157607287168503
0.0
0.0
0.0
0.0
0.0
0.0
0.0
-0.11157607287168503
0.0
0.0
0.0
0.0
-0.11157607287168503
-0.11157607287168503
0.0
-0.11157607287168503
-0.11157607287168503
0.11157607287168503
-0.11157607287168503
-0.11157607287168503
0.11157607287168503
0.0
0.0
-0.11157607287168503
0.0
0.0
0.0
0.0
0.0
0.0
0.11157607287168503
-0.11157607287168503
0.0
0.11157607287168503
0.0
0.0
0.11157607287168503
-0.11157607287168503
-0.11157607287168503
-0.11157607287168503
-0.11157607287168503
0.0
0.0
-0.11157607287168503
-0.11157607287168503
-0.11157607287168503
0.0
0.0
0.0
0.0
0.0
0.0
-0.11157607287168503
0.0
0.0
-0.11157607287168503
0.0
-0.11157607287168503
0.11157607287168503
0.0
-0.11157607287168503
0.11157607287168503
0.0
0.0
0.0
0.0
0.11157607287168503
-0.11157607287168503
0.0
0.11157607287168503
-0.11157607287168503
0.0
0.11157607287168503
-0.11157607287168503
-0.11157607287168503
0.11157607287168503
-0.11157607287168503
0.11157607287168503
-0.11157607287168503
-0.11157607287168503
0.0
-0.11157607287168503
0.0
0.11157607287168503
0.11157607287168503
-0.11157607287168503
0.0
0.0
-0.11157607287168503
0.0
-0.11157607287168503
0.0
0.0
0.11157607287168503
-0.11157607287168503
0.11157607287168503
0.11157607287168503
0.0
0.11157607287168503
0.11157607287168503
0.0
0.0
0.11157607287168503
0.0
0.0
0.0
0.0
0.0
0.0
0.11157607287168503
0.0
0.0
-0.11157607287168503
0.0
0.11157607287168503
0.0
0.0
0.11157607287168503
-0.11157607287168503
0.0
0.11157607287168503
0.11157607287168503
0.0
0.11157607287168503
0.11157607287168503
0.0
0.11157607287168503
0.11157607287168503
0.11157607287168503
0.11157607287168503
-0.11157607287168503
0.0
0.11157607287168503
-0.11157607287168503
0.0
0.11157607287168503
-0.11157607287168503
0.11157607287168503
0.0
-0.11157607287168503
0.11157607287168503
0.11157607287168503
-0.11157607287168503
0.0
0.11157607287168503
-0.11157607287168503
0.0
0.0
0.0
0.0
0.0
-0.11157607287168503
0.0
0.0
0.0
0.11157607287168503
0.0
0.11157607287168503
-0.11157607287168503
0.11157607287168503
0.0
0.0
0.11157607287168503
-0.11157607287168503
0.0
0.0
0.0
0.0
0.0
0.0
0.0
0.0
0.0
0.0
0.0
0.0
0.0
-0.11157607287168503
0.0
-0.11157607287168503
-0.11157607287168503
0.0
0.0
0.11157607287168503
-0.11157607287168503
0.0
0.11157607287168503
-0.11157607287168503
0.0
0.11157607287168503
-0.11157607287168503
0.0
0.11157607287168503
-0.11157607287168503
0.0
0.11157607287168503
-0.11157607287168503
0.0
-0.11157607287168503
0.0
0.11157607287168503
0.0
-0.11157607287168503
0.11157607287168503
0.11157607287168503
-0.11157607287168503
0.11157607287168503
0.0
0.0
0.0
-0.11157607287168503
0.11157607287168503
0.0
-0.11157607287168503
0.11157607287168503
0.11157607287168503
-0.11157607287168503
0.0
-0.11157607287168503
0.11157607287168503
0.0
0.0
0.11157607287168503
-0.11157607287168503
0.11157607287168503
0.11157607287168503
-0.11157607287168503
0.0
-0.11157607287168503
0.0
0.0
-0.11157607287168503
0.0
0.0
0.0
0.0
0.0
0.0
-0.11157607287168503
0.0
0.11157607287168503
-0.11157607287168503
-0.11157607287168503
0.11157607287168503
-0.11157607287168503
0.0
0.11157607287168503
-0.11157607287168503
-0.11157607287168503
0.0
-0.11157607287168503
0.0
-0.11157607287168503
0.0
0.0
-0.11157607287168503
0.11157607287168503
0.0
-0.11157607287168503
0.11157607287168503
0.0
0.0
0.0
0.0
0.11157607287168503
-0.11157607287168503
0.0
0.11157607287168503
-0.11157607287168503
0.0
0.11157607287168503
-0.11157607287168503
0.0
0.0
0.11157607287168503
0.0
-0.11157607287168503
0.11157607287168503
0.0
-0.11157607287168503
0.0
0.0
0.11157607287168503
-0.11157607287168503
0.0
-0.11157607287168503
-0.11157607287168503
0.11157607287168503
-0.11157607287168503
0.0
0.11157607287168503
0.0
0.11157607287168503
0.0
-0.11157607287168503
0.0
0.0
0.0
-0.11157607287168503
0.11157607287168503
0.0
0.0
0.0
0.0
-0.11157607287168503
0.0
0.0
-0.11157607287168503
0.0
0.0
-0.11157607287168503
0.11157607287168503
0.0
-0.11157607287168503
0.11157607287168503
0.0
-0.11157607287168503
0.0
0.0
0.0
0.11157607287168503
0.0
-0.11157607287168503
0.0
0.0
-0.11157607287168503
0.0
0.0
0.0
-0.11157607287168503
0.0
0.0
0.0
0.0
0.0
-0.11157607287168503
0.0
0.11157607287168503
0.11157607287168503
0.0
0.11157607287168503
0.11157607287168503
-0.11157607287168503
0.11157607287168503
0.11157607287168503
0.11157607287168503
0.11157607287168503
0.0
0.0
0.11157607287168503
0.0
-0.11157607287168503
0.11157607287168503
-0.11157607287168503
0.0
-0.11157607287168503
0.0
0.0
0.11157607287168503
-0.11157607287168503
-0.11157607287168503
0.0
0.0
0.0
0.11157607287168503
-0.11157607287168503
-0.11157607287168503
0.0
-0.11157607287168503
0.0
0.11157607287168503
0.0
0.0
-0.11157607287168503
0.11157607287168503
-0.11157607287168503
0.0
0.0
-0.11157607287168503
0.11157607287168503
-0.11157607287168503
0.11157607287168503
0.11157607287168503
-0.11157607287168503
0.11157607287168503
0.11157607287168503
0.0
0.0
0.0
-0.11157607287168503
0.0
-0.11157607287168503
0.0
-0.11157607287168503
-0.11157607287168503
0.0
0.0
-0.11157607287168503
0.0
0.0
0.0
0.0
0.0
0.11157607287168503
0.0
-0.11157607287168503
0.11157607287168503
0.0
-0.11157607287168503
0.0
0.0
0.0
-0.11157607287168503
0.0
0.0
0.0
0.11157607287168503
-0.11157607287168503
0.0
0.0
-0.11157607287168503
0.0
0.0
-0.11157607287168503
0.0
0.0
0.0
0.0
-0.11157607287168503
0.0
0.11157607287168503
0.0
0.0
0.0
-0.11157607287168503
-0.11157607287168503
0.0
0.0
-0.11157607287168503
0.0
0.0
-0.11157607287168503
-0.11157607287168503
0.0
0.0
0.0
0.0
0.0
-0.11157607287168503
0.11157607287168503
-0.11157607287168503
-0.11157607287168503
0.0
0.0
0.11157607287168503
-0.11157607287168503
-0.11157607287168503
0.11157607287168503
-0.11157607287168503
-0.11157607287168503
0.0
-0.11157607287168503
0.0
0.0
0.0
0.0
-0.11157607287168503
0.0
0.0
0.0
0.0
-0.11157607287168503
-0.11157607287168503
0.0
0.0
-0.11157607287168503
0.0
0.0
-0.11157607287168503
-0.11157607287168503
0.11157607287168503
0.0
0.0
0.0
0.0
0.0
0.0
0.11157607287168503
0.0
0.0
-0.11157607287168503
-0.11157607287168503
-0.11157607287168503
-0.11157607287168503
0.0
0.0
-0.11157607287168503
0.0
0.0
-0.11157607287168503
0.0
0.11157607287168503
-0.11157607287168503
0.11157607287168503
0.0
-0.11157607287168503
0.11157607287168503
-0.11157607287168503
0.0
0.0
-0.11157607287168503
0.0
0.0
0.0
0.0
0.0
0.11157607287168503
-0.11157607287168503
0.0
0.11157607287168503
-0.11157607287168503
0.0
0.11157607287168503
-0.11157607287168503
0.0
0.0
-0.11157607287168503
-0.11157607287168503
0.0
0.0
-0.11157607287168503
0.0
-0.11157607287168503
-0.11157607287168503
0.11157607287168503
0.0
0.0
0.11157607287168503
0.11157607287168503
-0.11157607287168503
0.11157607287168503
0.0
-0.11157607287168503
0.11157607287168503
0.0
0.0
0.11157607287168503
-0.11157607287168503
0.0
0.11157607287168503
-0.11157607287168503
0.0
0.0
0.0
0.0
0.0
0.0
0.0
0.0
0.0
0.0
0.11157607287168503
-0.11157607287168503
0.11157607287168503
0.0
-0.11157607287168503
0.0
0.0
0.0
0.0
0.11157607287168503
-0.11157607287168503
0.0
0.11157607287168503
-0.11157607287168503
0.0
0.11157607287168503
-0.11157607287168503
-0.11157607287168503
0.0
0.11157607287168503
0.0
-0.11157607287168503
0.11157607287168503
0.0
0.0
0.11157607287168503
-0.11157607287168503
-0.11157607287168503
-0.11157607287168503
0.11157607287168503
-0.11157607287168503
-0.11157607287168503
0.11157607287168503
-0.11157607287168503
0.0
0.11157607287168503
0.11157607287168503
0.11157607287168503
0.0
0.11157607287168503
0.11157607287168503
-0.11157607287168503
0.11157607287168503
0.0
-0.11157607287168503
0.11157607287168503
-0.11157607287168503
0.0
0.11157607287168503
0.0
0.0
0.11157607287168503
0.0
-0.11157607287168503
0.11157607287168503
0.0
-0.11157607287168503
0.11157607287168503
0.0
0.0
0.11157607287168503
0.0
-0.11157607287168503
0.0
-0.11157607287168503
0.0
0.11157607287168503
0.0
0.0
0.0
0.0
0.0
0.0
-0.11157607287168503
0.0
0.11157607287168503
-0.11157607287168503
0.0
0.0
-0.11157607287168503
0.0
0.0
0.0
-0.11157607287168503
-0.11157607287168503
0.11157607287168503
0.0
-0.11157607287168503
0.0
0.0
0.0
0.0
0.0
-0.11157607287168503
0.11157607287168503
0.0
-0.11157607287168503
0.11157607287168503
0.0
0.0
0.11157607287168503
-0.11157607287168503
-0.11157607287168503
0.11157607287168503
-0.11157607287168503
-0.11157607287168503
0.11157607287168503
-0.11157607287168503
0.0
0.0
0.0
0.11157607287168503
0.0
0.0
0.11157607287168503
0.0
0.0
0.0
0.11157607287168503
-0.11157607287168503
-0.11157607287168503
0.11157607287168503
-0.11157607287168503
0.0
0.11157607287168503
-0.11157607287168503
-0.11157607287168503
0.0
0.0
-0.11157607287168503
0.11157607287168503
-0.11157607287168503
-0.11157607287168503
0.11157607287168503
0.0
-0.11157607287168503
0.11157607287168503
0.0
-0.11157607287168503
0.11157607287168503
0.0
-0.11157607287168503
0.0
0.0
0.0
0.0
0.0
0.0
-0.11157607287168503
0.0
0.11157607287168503
0.0
0.0
-0.11157607287168503
-0.11157607287168503
0.0
-0.11157607287168503
-0.11157607287168503
0.0
0.0
0.0
0.0
0.0
0.0
0.0
0.0
-0.11157607287168503
0.0
0.0
0.0
0.0
0.11157607287168503
-0.11157607287168503
0.11157607287168503
0.11157607287168503
-0.11157607287168503
0.0
0.0
-0.11157607287168503
0.0
0.11157607287168503
0.0
0.0
0.11157607287168503
-0.11157607287168503
0.0
0.0
0.0
0.0
0.0
0.0
0.0
0.0
0.0
0.0
0.11157607287168503
0.11157607287168503
0.0
-0.11157607287168503
-0.11157607287168503
0.11157607287168503
-0.11157607287168503
0.11157607287168503
0.11157607287168503
0.0
0.11157607287168503
-0.11157607287168503
0.0
0.0
0.0
-0.11157607287168503
0.11157607287168503
0.0
0.0
0.11157607287168503
0.0
0.0
-0.11157607287168503
-0.11157607287168503
0.11157607287168503
0.11157607287168503
-0.11157607287168503
0.0
0.11157607287168503
-0.11157607287168503
0.0
0.0
0.0
0.11157607287168503
0.0
0.0
0.0
-0.11157607287168503
0.0
0.11157607287168503
-0.11157607287168503
0.11157607287168503
0.11157607287168503
-0.11157607287168503
0.11157607287168503
0.0
0.11157607287168503
0.0
0.0
0.0
0.0
0.11157607287168503
0.0
0.0
0.11157607287168503
0.0
-0.11157607287168503
0.0
0.0
0.0
0.0
0.0
0.0
0.0
-0.11157607287168503
0.0
0.0
0.0
0.0
0.0
0.0
0.0
0.0
0.11157607287168503
0.0
0.11157607287168503
-0.11157607287168503
0.0
0.11157607287168503
0.0
0.0
0.11157607287168503
0.0
0.0
-0.11157607287168503
0.0
0.0
-0.11157607287168503
0.11157607287168503
0.0
0.0
0.0
0.0
0.0
0.0
0.0
0.11157607287168503
0.0
0.0
-0.11157607287168503
0.11157607287168503
0.0
0.11157607287168503
0.0
-0.11157607287168503
0.11157607287168503
0.0
0.0
0.11157607287168503
0.0
0.0
0.0
-0.11157607287168503
0.0
-0.11157607287168503
-0.11157607287168503
0.0
0.0
0.0
0.0
-0.11157607287168503
0.11157607287168503
0.0
0.11157607287168503
0.0
0.0
0.0
0.0
0.0
-0.11157607287168503
0.11157607287168503
0.0
-0.11157607287168503
0.11157607287168503
-0.11157607287168503
-0.11157607287168503
0.11157607287168503
0.0
0.11157607287168503
-0.11157607287168503
0.0
0.11157607287168503
-0.11157607287168503
0.11157607287168503
0.11157607287168503
-0.11157607287168503
0.0
0.11157607287168503
0.11157607287168503
0.0
0.0
-0.11157607287168503
0.0
0.11157607287168503
0.0
0.0
0.11157607287168503
0.0
0.0
0.0
0.11157607287168503
0.0
-0.11157607287168503
0.11157607287168503
0.0
0.11157607287168503
-0.11157607287168503
0.0
0.11157607287168503
-0.11157607287168503
0.0
0.11157607287168503
-0.11157607287168503
0.0
0.11157607287168503
0.11157607287168503
0.0
0.0
0.0
0.0
0.11157607287168503
0.0
0.0
0.11157607287168503
-0.11157607287168503
0.0
0.0
0.0
0.0
0.0
0.0
0.0
0.11157607287168503
0.0
0.0
0.11157607287168503
0.0
0.0
0.11157607287168503
0.0
0.0
0.0
0.0
0.11157607287168503
0.0
0.0
0.0
0.0
0.0
0.0
-0.11157607287168503
0.0
0.0
-0.11157607287168503
0.11157607287168503
-0.11157607287168503
0.0
0.11157607287168503
0.0
0.0
0.0
0.0
-0.11157607287168503
-0.11157607287168503
0.0
-0.11157607287168503
-0.11157607287168503
0.0
0.11157607287168503
0.0
0.0
0.0
0.0
0.11157607287168503
0.0
-0.11157607287168503
0.0
0.11157607287168503
-0.11157607287168503
0.0
0.11157607287168503
-0.11157607287168503
0.0
0.11157607287168503
-0.11157607287168503
0.0
0.11157607287168503
-0.11157607287168503
0.0
-0.11157607287168503
0.0
0.0
0.0
0.0
0.0
0.11157607287168503
0.0
0.11157607287168503
0.11157607287168503
0.11157607287168503
0.11157607287168503
0.11157607287168503
0.11157607287168503
-0.11157607287168503
0.11157607287168503
-0.11157607287168503
0.0
0.11157607287168503
-0.11157607287168503
0.0
0.11157607287168503
0.11157607287168503
0.0
0.0
0.11157607287168503
0.0
0.0
0.11157607287168503
0.11157607287168503
-0.11157607287168503
0.11157607287168503
-0.11157607287168503
0.0
-0.11157607287168503
0.11157607287168503
0.0
0.0
0.0
0.0
-0.11157607287168503
-0.11157607287168503
0.11157607287168503
-0.11157607287168503
0.0
0.11157607287168503
-0.11157607287168503
0.11157607287168503
0.11157607287168503
0.0
-0.11157607287168503
0.0
0.0
0.0
0.0
0.0
0.11157607287168503
0.0
-0.11157607287168503
0.11157607287168503
0.0
0.11157607287168503
-0.11157607287168503
0.0
0.11157607287168503
-0.11157607287168503
-0.11157607287168503
0.11157607287168503
-0.11157607287168503
0.0
-0.11157607287168503
0.11157607287168503
0.0
0.11157607287168503
0.0
-0.11157607287168503
0.11157607287168503
-0.11157607287168503
0.0
0.0
0.11157607287168503
0.0
0.0
0.11157607287168503
-0.11157607287168503
0.11157607287168503
-0.11157607287168503
0.0
0.0
0.0
0.11157607287168503
0.11157607287168503
-0.11157607287168503
0.0
0.0
0.0
0.0
0.0
0.0
-0.11157607287168503
-0.11157607287168503
0.11157607287168503
0.0
-0.11157607287168503
0.11157607287168503
0.11157607287168503
0.0
0.0
0.0
0.0
0.0
-0.11157607287168503
0.11157607287168503
0.0
0.0
0.0
0.0
0.0
0.11157607287168503
0.0
0.0
0.0
0.0
0.0
0.0
0.0
0.0
0.0
0.0
0.0
-0.11157607287168503
-0.11157607287168503
0.11157607287168503
0.0
0.0
0.11157607287168503
-0.11157607287168503
0.11157607287168503
0.11157607287168503
-0.11157607287168503
0.0
0.0
-0.11157607287168503
0.0
0.0
-0.11157607287168503
0.11157607287168503
0.11157607287168503
0.0
0.11157607287168503
-0.11157607287168503
0.0
0.0
0.0
0.11157607287168503
0.0
0.11157607287168503
0.0
0.0
0.0
0.0
0.0
0.0
-0.11157607287168503
0.0
0.0
0.0
0.0
0.0
0.11157607287168503
-0.11157607287168503
-0.11157607287168503
0.11157607287168503
-0.11157607287168503
0.0
0.11157607287168503
0.0
0.0
-0.11157607287168503
0.11157607287168503
0.0
-0.11157607287168503
0.0
0.0
-0.11157607287168503
0.0
0.0
-0.11157607287168503
0.0
-0.11157607287168503
0.0
-0.11157607287168503
-0.11157607287168503
0.0
0.0
0.11157607287168503
0.0
0.0
0.0
-0.11157607287168503
0.0
0.0
-0.11157607287168503
0.0
0.0
0.0
0.0
0.0
0.0
0.0
0.0
0.0
0.0
-0.11157607287168503
0.0
-0.11157607287168503
0.0
0.11157607287168503
0.0
-0.11157607287168503
0.0
0.0
-0.11157607287168503
-0.11157607287168503
0.11157607287168503
-0.11157607287168503
0.0
0.11157607287168503
-0.11157607287168503
-0.11157607287168503
0.11157607287168503
0.0
-0.11157607287168503
0.0
-0.11157607287168503
-0.11157607287168503
0.0
-0.11157607287168503
0.0
-0.11157607287168503
-0.11157607287168503
0.11157607287168503
0.0
-0.11157607287168503
0.11157607287168503
0.0
0.0
0.0
0.0
-0.11157607287168503
-0.11157607287168503
0.0
-0.11157607287168503
-0.11157607287168503
0.0
0.0
-0.11157607287168503
0.0
0.11157607287168503
-0.11157607287168503
0.0
0.11157607287168503
-0.11157607287168503
0.0
0.11157607287168503
-0.11157607287168503
0.0
0.11157607287168503
0.0
0.0
0.11157607287168503
-0.11157607287168503
0.0
0.11157607287168503
0.0
0.0
-0.11157607287168503
0.11157607287168503
-0.11157607287168503
-0.11157607287168503
0.11157607287168503
-0.11157607287168503
-0.11157607287168503
0.11157607287168503
-0.11157607287168503
0.0
0.11157607287168503
0.0
0.0
0.11157607287168503
-0.11157607287168503
-0.11157607287168503
0.11157607287168503
-0.11157607287168503
0.11157607287168503
0.0
0.0
0.11157607287168503
0.0
0.0
0.0
0.11157607287168503
0.0
0.0
0.0
0.0
-0.11157607287168503
-0.11157607287168503
0.0
0.0
-0.11157607287168503
0.11157607287168503
0.0
0.0
0.0
0.11157607287168503
0.0
0.11157607287168503
0.11157607287168503
0.11157607287168503
-0.11157607287168503
-0.11157607287168503
0.11157607287168503
0.0
0.0
0.0
0.0
-0.11157607287168503
0.11157607287168503
0.0
0.11157607287168503
0.11157607287168503
-0.11157607287168503
0.11157607287168503
0.11157607287168503
-0.11157607287168503
-0.11157607287168503
0.11157607287168503
0.0
-0.11157607287168503
0.11157607287168503
0.0
0.0
0.11157607287168503
0.0
0.0
0.11157607287168503
0.0
-0.11157607287168503
0.11157607287168503
0.0
-0.11157607287168503
0.11157607287168503
0.0
-0.11157607287168503
0.11157607287168503
0.0
0.0
0.0
0.0
0.11157607287168503
0.0
0.0
-0.11157607287168503
0.11157607287168503
-0.11157607287168503
-0.11157607287168503
0.11157607287168503
0.11157607287168503
-0.11157607287168503
0.0
0.0
-0.11157607287168503
0.0
0.0
0.0
0.0
0.0
0.0
0.0
0.11157607287168503
0.0
0.0
0.0
0.11157607287168503
-0.11157607287168503
0.0
0.11157607287168503
-0.11157607287168503
0.0
0.0
-0.11157607287168503
0.0
0.11157607287168503
-0.11157607287168503
0.0
0.11157607287168503
-0.11157607287168503
0.0
0.11157607287168503
0.0
0.0
0.0
0.0
0.0
0.0
0.0
0.0
0.11157607287168503
-0.11157607287168503
0.11157607287168503
0.0
0.0
0.0
0.11157607287168503
0.0
0.0
0.0
0.11157607287168503
0.0
0.0
0.0
0.11157607287168503
0.0
-0.11157607287168503
0.11157607287168503
0.0
-0.11157607287168503
0.0
-0.11157607287168503
0.0
0.0
-0.11157607287168503
0.11157607287168503
-0.11157607287168503
0.0
0.11157607287168503
-0.11157607287168503
0.11157607287168503
-0.11157607287168503
0.0
0.11157607287168503
-0.11157607287168503
0.11157607287168503
-0.11157607287168503
0.0
0.11157607287168503
0.11157607287168503
-0.11157607287168503
0.0
0.11157607287168503
0.0
0.0
0.11157607287168503
-0.11157607287168503
-0.11157607287168503
0.11157607287168503
-0.11157607287168503
0.11157607287168503
0.0
0.11157607287168503
0.11157607287168503
-0.11157607287168503
0.11157607287168503
0.0
0.0
0.0
-0.11157607287168503
0.0
0.0
0.0
0.0
0.0
-0.11157607287168503
0.0
0.0
0.0
0.0
-0.11157607287168503
0.0
-0.11157607287168503
-0.11157607287168503
0.0
0.0
0.11157607287168503
-0.11157607287168503
-0.11157607287168503
-0.11157607287168503
-0.11157607287168503
-0.11157607287168503
0.0
0.0
0.11157607287168503
0.0
0.0
0.11157607287168503
0.0
0.11157607287168503
0.11157607287168503
0.0
0.0
-0.11157607287168503
0.0
0.0
-0.11157607287168503
0.0
0.0
0.0
0.0
0.0
0.11157607287168503
-0.11157607287168503
0.0
0.11157607287168503
-0.11157607287168503
0.0
0.11157607287168503
-0.11157607287168503
-0.11157607287168503
0.0
-0.11157607287168503
-0.11157607287168503
0.0
-0.11157607287168503
0.0
0.0
-0.11157607287168503
0.0
0.0
0.0
0.0
0.0
-0.11157607287168503
0.0
0.11157607287168503
0.0
0.0
0.0
0.0
-0.11157607287168503
-0.11157607287168503
0.11157607287168503
-0.11157607287168503
-0.11157607287168503
0.11157607287168503
-0.11157607287168503
0.0
0.0
0.11157607287168503
0.0
0.0
0.0
0.0
0.0
-0.11157607287168503
0.11157607287168503
-0.11157607287168503
0.0
0.11157607287168503
-0.11157607287168503
0.0
0.0
0.0
0.0
0.11157607287168503
-0.11157607287168503
-0.11157607287168503
0.11157607287168503
0.0
0.0
0.11157607287168503
-0.11157607287168503
0.0
0.0
-0.11157607287168503
0.0
-0.11157607287168503
-0.11157607287168503
0.0
-0.11157607287168503
-0.11157607287168503
0.11157607287168503
0.11157607287168503
-0.11157607287168503
0.0
0.0
0.11157607287168503
-0.11157607287168503
0.0
0.11157607287168503
0.0
0.0
0.11157607287168503
-0.11157607287168503
0.0
0.11157607287168503
-0.11157607287168503
0.0
0.11157607287168503
-0.11157607287168503
0.0
0.0
-0.11157607287168503
0.0
0.11157607287168503
0.0
-0.11157607287168503
0.11157607287168503
0.0
-0.11157607287168503
0.11157607287168503
-0.11157607287168503
-0.11157607287168503
-0.11157607287168503
0.0
-0.11157607287168503
-0.11157607287168503
0.0
0.0
0.0
0.0
-0.11157607287168503
0.0
0.0
0.0
0.0
0.0
0.0
0.0
-0.11157607287168503
0.0
-0.11157607287168503
0.0
0.0
-0.11157607287168503
0.0
0.11157607287168503
-0.11157607287168503
0.11157607287168503
0.11157607287168503
-0.11157607287168503
0.11157607287168503
0.11157607287168503
0.0
0.0
0.0
-0.11157607287168503
0.0
0.0
0.11157607287168503
0.0
-0.11157607287168503
0.11157607287168503
-0.11157607287168503
0.0
0.0
0.0
0.0
0.0
0.11157607287168503
0.0
0.0
0.0
-0.11157607287168503
0.0
0.0
-0.11157607287168503
0.0
0.11157607287168503
-0.11157607287168503
0.0
0.0
0.11157607287168503
0.0
-0.11157607287168503
0.0
0.0
0.0
0.0
0.0
0.0
0.0
-0.11157607287168503
0.0
-0.11157607287168503
0.0
0.0
0.0
0.0
0.0
0.0
0.0
0.0
0.11157607287168503
0.0
0.0
0.11157607287168503
0.0
0.0
0.0
-0.11157607287168503
0.11157607287168503
-0.11157607287168503
-0.11157607287168503
0.0
0.0
0.0
0.0
0.0
0.11157607287168503
0.0
0.0
0.11157607287168503
-0.11157607287168503
0.0
0.11157607287168503
0.0
-0.11157607287168503
0.11157607287168503
-0.11157607287168503
0.0
0.11157607287168503
-0.11157607287168503
0.0
0.11157607287168503
-0.11157607287168503
0.0
-0.11157607287168503
-0.11157607287168503
0.0
0.11157607287168503
-0.11157607287168503
0.11157607287168503
0.11157607287168503
-0.11157607287168503
0.0
0.0
0.0
0.0
-0.11157607287168503
0.0
-0.11157607287168503
-0.11157607287168503
0.0
0.0
0.0
0.11157607287168503
0.0
0.0
0.0
0.0
0.0
0.0
0.0
0.11157607287168503
0.0
0.0
0.0
-0.11157607287168503
-0.11157607287168503
0.11157607287168503
0.0
-0.11157607287168503
0.0
0.0
0.11157607287168503
0.0
0.0
0.0
0.0
0.0
0.11157607287168503
-0.11157607287168503
0.0
0.11157607287168503
-0.11157607287168503
0.0
0.11157607287168503
0.0
0.0
0.0
0.0
0.0
0.0
0.0
0.0
0.0
0.0
0.0
0.0
0.0
0.0
0.0
0.11157607287168503
0.0
0.0
0.0
0.11157607287168503
0.0
0.0
0.0
0.0
0.0
0.11157607287168503
0.0
0.0
0.0
-0.11157607287168503
-0.11157607287168503
0.0
0.0
-0.11157607287168503
0.11157607287168503
0.0
-0.11157607287168503
0.0
0.11157607287168503
-0.11157607287168503
0.11157607287168503
-0.11157607287168503
-0.11157607287168503
0.11157607287168503
0.0
0.11157607287168503
0.11157607287168503
-0.11157607287168503
0.11157607287168503
-0.11157607287168503
-0.11157607287168503
0.11157607287168503
-0.11157607287168503
-0.11157607287168503
0.11157607287168503
-0.11157607287168503
0.0
-0.11157607287168503
0.0
0.0
-0.11157607287168503
0.0
0.0
-0.11157607287168503
0.0
0.11157607287168503
-0.11157607287168503
0.0
0.11157607287168503
-0.11157607287168503
0.0
0.0
-0.11157607287168503
0.0
0.0
0.0
0.0
0.0
-0.11157607287168503
0.0
-0.11157607287168503
0.0
0.0
0.0
0.0
0.0
0.11157607287168503
0.11157607287168503
0.11157607287168503
-0.11157607287168503
0.0
0.0
0.11157607287168503
-0.11157607287168503
0.0
0.0
0.0
0.0
0.0
0.11157607287168503
0.0
0.0
0.0
-0.11157607287168503
0.0
0.11157607287168503
0.0
0.0
0.11157607287168503
0.0
0.11157607287168503
-0.11157607287168503
0.11157607287168503
0.0
-0.11157607287168503
0.11157607287168503
0.11157607287168503
-0.11157607287168503
0.11157607287168503
0.11157607287168503
0.0
0.0
0.0
0.0
0.0
0.0
0.11157607287168503
0.0
0.11157607287168503
0.0
0.11157607287168503
0.0
0.0
0.0
0.0
0.11157607287168503
0.0
0.0
0.0
0.0
0.0
-0.11157607287168503
0.0
0.11157607287168503
-0.11157607287168503
0.0
0.0
0.11157607287168503
0.0
-0.11157607287168503
0.0
-0.11157607287168503
-0.11157607287168503
0.11157607287168503
0.0
0.0
0.0
0.0
0.0
0.0
0.0
0.0
0.0
0.0
-0.11157607287168503
0.0
0.0
0.0
0.0
0.0
0.0
0.0
0.0
-0.11157607287168503
0.11157607287168503
0.0
-0.11157607287168503
0.11157607287168503
0.0
-0.11157607287168503
0.11157607287168503
0.0
0.11157607287168503
0.0
0.0
0.11157607287168503
-0.11157607287168503
0.0
0.11157607287168503
0.0
0.0
0.0
0.0
0.0
0.0
0.11157607287168503
0.0
0.0
0.0
0.0
0.11157607287168503
-0.11157607287168503
0.11157607287168503
0.0
0.0
0.0
0.0
0.0
0.0
0.0
0.0
-0.11157607287168503
0.0
0.0
-0.11157607287168503
0.0
0.11157607287168503
-0.11157607287168503
0.0
0.0
0.0
0.0
-0.11157607287168503
0.11157607287168503
0.0
0.0
0.11157607287168503
0.0
0.0
-0.11157607287168503
-0.11157607287168503
0.11157607287168503
0.0
0.0
0.11157607287168503
-0.11157607287168503
0.11157607287168503
-0.11157607287168503
0.0
0.11157607287168503
-0.11157607287168503
0.11157607287168503
0.11157607287168503
-0.11157607287168503
0.11157607287168503
0.11157607287168503
-0.11157607287168503
0.0
0.11157607287168503
0.0
0.0
0.0
0.11157607287168503
0.0
0.11157607287168503
-0.11157607287168503
0.0
0.11157607287168503
0.0
0.0
-0.11157607287168503
0.0
0.0
0.0
0.11157607287168503
0.0
-0.11157607287168503
0.11157607287168503
0.0
0.0
0.11157607287168503
0.0
0.0
0.0
0.0
0.0
0.0
0.0
0.0
0.0
0.0
0.0
0.11157607287168503
-0.11157607287168503
-0.11157607287168503
0.11157607287168503
-0.11157607287168503
0.0
0.11157607287168503
-0.11157607287168503
0.0
0.0
0.0
0.0
0.0
0.11157607287168503
0.0
-0.11157607287168503
0.11157607287168503
0.0
0.0
0.0
-0.11157607287168503
-0.11157607287168503
0.0
0.0
-0.11157607287168503
0.0
0.0
0.0
0.0
0.0
0.0
0.0
0.0
0.0
0.0
0.0
0.11157607287168503
0.0
0.11157607287168503
0.0
0.0
0.11157607287168503
0.0
0.0
0.0
0.0
-0.11157607287168503
0.0
-0.11157607287168503
-0.11157607287168503
0.0
-0.11157607287168503
0.11157607287168503
0.0
0.11157607287168503
0.0
0.0
-0.11157607287168503
0.0
0.0
-0.11157607287168503
0.0
0.0
-0.11157607287168503
0.0
0.0
0.0
-0.11157607287168503
0.11157607287168503
0.11157607287168503
-0.11157607287168503
0.0
-0.11157607287168503
0.11157607287168503
0.11157607287168503
-0.11157607287168503
0.11157607287168503
-0.11157607287168503
-0.11157607287168503
0.0
0.11157607287168503
0.11157607287168503
0.0
0.11157607287168503
0.11157607287168503
0.0
0.11157607287168503
0.11157607287168503
-0.11157607287168503
0.0
0.0
0.0
0.0
0.11157607287168503
0.0
0.0
0.0
0.0
0.0
0.0
0.0
-0.11157607287168503
0.0
0.0
0.11157607287168503
0.0
0.0
0.0
0.0
0.0
0.0
0.0
0.0
0.0
0.0
0.0
0.0
-0.11157607287168503
0.0
0.11157607287168503
-0.11157607287168503
0.0
0.11157607287168503
0.11157607287168503
0.0
0.11157607287168503
-0.11157607287168503
0.0
0.11157607287168503
-0.11157607287168503
0.11157607287168503
0.11157607287168503
0.0
0.0
0.0
0.11157607287168503
-0.11157607287168503
-0.11157607287168503
0.11157607287168503
0.0
-0.11157607287168503
0.11157607287168503
0.0
0.0
0.0
0.0
0.0
0.11157607287168503
-0.11157607287168503
-0.11157607287168503
0.0
0.0
0.09863832592964172
0.0
0.0
-0.09863832592964172
-0.09863832592964172
0.0
0.09863832592964172
0.09863832592964172
0.0
0.09863832592964172
0.09863832592964172
0.09863832592964172
0.0
-0.09863832592964172
0.09863832592964172
0.0
0.0
-0.09863832592964172
0.09863832592964172
0.09863832592964172
-0.09863832592964172
-0.09863832592964172
0.09863832592964172
0.09863832592964172
0.0
0.0
-0.09863832592964172
0.0
-0.09863832592964172
0.0
0.0
0.0
0.09863832592964172
0.0
0.0
0.0
0.09863832592964172
-0.09863832592964172
-0.09863832592964172
0.0
0.09863832592964172
0.09863832592964172
-0.09863832592964172
0.0
0.09863832592964172
0.0
-0.09863832592964172
0.0
0.09863832592964172
0.0
0.0
0.0
0.0
0.09863832592964172
0.09863832592964172
0.09863832592964172
-0.09863832592964172
-0.09863832592964172
0.0
0.09863832592964172
0.0
0.0
-0.09863832592964172
0.0
0.09863832592964172
0.0
0.09863832592964172
0.09863832592964172
0.09863832592964172
0.0
0.09863832592964172
0.09863832592964172
0.09863832592964172
0.09863832592964172
0.0
0.0
-0.09863832592964172
0.0
0.0
-0.09863832592964172
0.0
0.0
0.0
0.0
0.09863832592964172
0.0
-0.09863832592964172
-0.09863832592964172
0.0
-0.09863832592964172
0.0
-0.09863832592964172
-0.09863832592964172
0.09863832592964172
-0.09863832592964172
0.0
0.0
0.0
0.0
0.0
0.0
0.0
-0.09863832592964172
0.0
0.0
0.0
0.0
-0.09863832592964172
0.0
0.0
0.0
0.0
0.0
0.0
0.0
0.0
0.0
0.0
-0.09863832592964172
-0.09863832592964172
0.0
0.09863832592964172
0.0
0.0
-0.09863832592964172
0.0
0.0
0.0
0.09863832592964172
0.0
-0.09863832592964172
0.0
0.0
0.0
0.0
-0.09863832592964172
-0.09863832592964172
-0.09863832592964172
0.0
-0.09863832592964172
0.0
0.0
0.0
0.0
-0.09863832592964172
0.0
0.0
0.0
-0.09863832592964172
-0.09863832592964172
-0.09863832592964172
0.0
0.0
0.0
-0.09863832592964172
-0.09863832592964172
0.0
0.0
-0.09863832592964172
0.09863832592964172
0.0
0.09863832592964172
0.0
0.0
0.0
0.0
0.0
0.09863832592964172
0.0
-0.09863832592964172
-0.09863832592964172
0.09863832592964172
0.09863832592964172
-0.09863832592964172
-0.09863832592964172
0.09863832592964172
0.09863832592964172
0.09863832592964172
-0.09863832592964172
-0.09863832592964172
0.0
0.0
0.0
-0.09863832592964172
0.09863832592964172
0.09863832592964172
0.0
0.0
-0.09863832592964172
0.09863832592964172
0.09863832592964172
0.09863832592964172
-0.09863832592964172
-0.09863832592964172
0.0
-0.09863832592964172
0.0
0.0
0.09863832592964172
0.0
-0.09863832592964172
-0.09863832592964172
0.0
0.0
0.0
0.0
0.0
0.0
0.0
0.0
0.0
-0.09863832592964172
-0.09863832592964172
0.0
0.0
0.09863832592964172
0.0
-0.09863832592964172
0.0
0.09863832592964172
0.09863832592964172
0.0
-0.09863832592964172
0.0
0.0
0.0
0.09863832592964172
0.0
0.0
0.0
0.0
-0.09863832592964172
0.0
0.0
0.0
0.09863832592964172
0.0
-0.09863832592964172
-0.09863832592964172
0.09863832592964172
0.0
0.0
0.0
0.0
-0.09863832592964172
0.0
-0.09863832592964172
0.09863832592964172
0.0
0.0
0.0
0.0
0.0
0.0
0.0
0.0
0.0
-0.09863832592964172
0.0
0.0
0.0
0.0
-0.09863832592964172
-0.09863832592964172
0.09863832592964172
0.09863832592964172
0.09863832592964172
0.0
-0.09863832592964172
-0.09863832592964172
0.09863832592964172
0.0
0.0
-0.09863832592964172
-0.09863832592964172
0.0
0.09863832592964172
0.09863832592964172
0.0
0.0
0.0
-0.09863832592964172
-0.09863832592964172
0.09863832592964172
0.09863832592964172
0.0
-0.09863832592964172
0.09863832592964172
0.0
0.0
-0.09863832592964172
-0.09863832592964172
-0.09863832592964172
-0.09863832592964172
0.0
0.0
0.0
-0.09863832592964172
0.0
0.09863832592964172
0.09863832592964172
0.09863832592964172
0.0
0.0
0.0
0.0
-0.09863832592964172
-0.09863832592964172
-0.09863832592964172
0.0
0.09863832592964172
0.0
-0.09863832592964172
-0.09863832592964172
0.09863832592964172
-0.09863832592964172
-0.09863832592964172
0.0
0.0
0.0
-0.09863832592964172
0.0
0.09863832592964172
0.09863832592964172
0.09863832592964172
0.0
0.0
0.0
0.09863832592964172
0.0
-0.09863832592964172
-0.09863832592964172
-0.09863832592964172
0.0
0.0
-0.09863832592964172
-0.09863832592964172
0.09863832592964172
0.09863832592964172
0.09863832592964172
0.0
0.0
0.0
0.0
0.09863832592964172
-0.09863832592964172
0.0
-0.09863832592964172
0.09863832592964172
0.09863832592964172
0.0
0.09863832592964172
0.09863832592964172
-0.09863832592964172
-0.09863832592964172
0.09863832592964172
0.09863832592964172
0.0
0.0
-0.09863832592964172
0.0
0.0
0.0
0.0
0.0
0.0
0.0
0.0
0.0
0.0
-0.09863832592964172
-0.09863832592964172
0.09863832592964172
0.09863832592964172
0.09863832592964172
-0.09863832592964172
-0.09863832592964172
0.0
0.0
0.0
0.0
-0.09863832592964172
0.0
0.0
0.0
-0.09863832592964172
0.0
0.09863832592964172
0.0
-0.09863832592964172
-0.09863832592964172
0.09863832592964172
0.09863832592964172
0.0
-0.09863832592964172
-0.09863832592964172
-0.09863832592964172
0.0
0.0
0.0
0.09863832592964172
-0.09863832592964172
0.0
0.0
0.0
0.0
0.0
0.0
0.0
-0.09863832592964172
0.0
0.0
0.0
0.0
0.0
0.09863832592964172
0.09863832592964172
0.0
-0.09863832592964172
0.0
0.0
0.0
0.0
0.0
0.0
0.09863832592964172
0.09863832592964172
-0.09863832592964172
-0.09863832592964172
0.0
0.09863832592964172
0.0
-0.09863832592964172
-0.09863832592964172
0.0
0.0
-0.09863832592964172
0.09863832592964172
0.0
0.09863832592964172
0.0
0.0
0.09863832592964172
0.09863832592964172
-0.09863832592964172
-0.09863832592964172
0.09863832592964172
0.0
0.0
-0.09863832592964172
0.09863832592964172
0.09863832592964172
0.09863832592964172
0.0
0.09863832592964172
0.09863832592964172
0.0
0.0
0.0
0.0
0.09863832592964172
-0.09863832592964172
-0.09863832592964172
-0.09863832592964172
0.09863832592964172
0.0
0.0
-0.09863832592964172
0.09863832592964172
0.0
-0.09863832592964172
-0.09863832592964172
-0.09863832592964172
0.0
0.0
0.0
0.0
-0.09863832592964172
-0.09863832592964172
0.0
-0.09863832592964172
0.09863832592964172
0.0
0.0
-0.09863832592964172
0.0
0.0
0.0
0.0
0.0
0.09863832592964172
0.09863832592964172
0.09863832592964172
0.09863832592964172
0.09863832592964172
0.09863832592964172
0.09863832592964172
0.0
-0.09863832592964172
0.0
0.0
0.0
0.0
0.0
-0.09863832592964172
0.0
-0.09863832592964172
-0.09863832592964172
0.0
0.0
0.0
0.09863832592964172
0.0
0.09863832592964172
0.0
0.0
-0.09863832592964172
0.09863832592964172
0.09863832592964172
0.09863832592964172
0.0
0.0
0.0
0.0
0.0
0.0
-0.09863832592964172
0.0
0.0
0.09863832592964172
0.0
0.0
-0.09863832592964172
0.0
0.0
0.09863832592964172
0.0
0.0
-0.09863832592964172
0.0
0.0
0.09863832592964172
0.09863832592964172
0.0
0.0
0.0
-0.09863832592964172
0.0
0.0
0.09863832592964172
0.0
0.0
0.0
0.0
0.09863832592964172
0.09863832592964172
-0.09863832592964172
-0.09863832592964172
0.09863832592964172
0.0
0.0
0.0
0.09863832592964172
0.0
0.0
0.0
0.0
0.09863832592964172
0.09863832592964172
0.0
-0.09863832592964172
0.09863832592964172
0.09863832592964172
0.0
0.0
-0.09863832592964172
-0.09863832592964172
0.0
0.0
0.0
-0.09863832592964172
0.0
-0.09863832592964172
-0.09863832592964172
0.0
0.0
-0.09863832592964172
0.0
0.0
0.09863832592964172
0.0
0.0
0.0
-0.09863832592964172
-0.09863832592964172
-0.09863832592964172
0.0
0.0
-0.09863832592964172
0.0
0.0
0.0
0.0
0.09863832592964172
-0.09863832592964172
-0.09863832592964172
-0.09863832592964172
0.0
0.09863832592964172
0.0
-0.09863832592964172
0.0
0.0
0.0
0.0
0.0
0.0
0.0
0.0
0.0
-0.09863832592964172
0.0
0.0
-0.09863832592964172
0.0
-0.09863832592964172
0.0
0.0
-0.09863832592964172
0.0
0.0
0.0
0.0
-0.09863832592964172
0.0
0.0
0.0
0.0
0.09863832592964172
0.0
-0.09863832592964172
0.0
0.0
-0.09863832592964172
0.0
0.0
0.0
0.0
0.0
0.09863832592964172
0.0
-0.09863832592964172
0.0
0.0
0.0
0.0
-0.09863832592964172
0.0
0.0
0.0
0.0
0.0
0.0
-0.09863832592964172
0.0
0.0
-0.09863832592964172
0.0
0.0
-0.09863832592964172
-0.09863832592964172
0.0
0.0
0.0
0.09863832592964172
-0.09863832592964172
0.0
0.0
-0.09863832592964172
-0.09863832592964172
-0.09863832592964172
0.09863832592964172
0.09863832592964172
0.0
0.0
-0.09863832592964172
0.0
-0.09863832592964172
0.0
0.0
0.0
-0.09863832592964172
0.0
0.0
-0.09863832592964172
-0.09863832592964172
-0.09863832592964172
0.0
0.09863832592964172
0.0
0.0
0.0
0.09863832592964172
0.0
-0.09863832592964172
0.09863832592964172
0.09863832592964172
0.09863832592964172
-0.09863832592964172
-0.09863832592964172
0.0
0.09863832592964172
0.09863832592964172
0.0
-0.09863832592964172
-0.09863832592964172
0.0
0.0
0.0
0.0
0.09863832592964172
0.0
0.0
0.0
0.0
0.0
0.0
0.0
0.0
-0.09863832592964172
0.0
0.09863832592964172
-0.09863832592964172
-0.09863832592964172
0.0
0.0
0.0
-0.09863832592964172
0.0
-0.09863832592964172
0.0
0.09863832592964172
0.09863832592964172
0.09863832592964172
-0.09863832592964172
-0.09863832592964172
0.0
0.09863832592964172
0.0
-0.09863832592964172
-0.09863832592964172
0.09863832592964172
0.09863832592964172
0.0
-0.09863832592964172
-0.09863832592964172
0.09863832592964172
0.0
-0.09863832592964172
-0.09863832592964172
-0.09863832592964172
0.0
0.09863832592964172
0.09863832592964172
0.09863832592964172
-0.09863832592964172
0.0
0.0
0.0
0.0
-0.09863832592964172
0.0
0.0
-0.09863832592964172
0.0
0.0
-0.09863832592964172
-0.09863832592964172
-0.09863832592964172
-0.09863832592964172
0.0
0.0
0.0
0.0
0.0
0.0
0.09863832592964172
0.09863832592964172
0.0
-0.09863832592964172
-0.09863832592964172
0.09863832592964172
0.0
0.0
0.0
0.09863832592964172
-0.09863832592964172
0.0
0.0
0.09863832592964172
0.0
0.0
0.09863832592964172
0.0
-0.09863832592964172
0.09863832592964172
0.09863832592964172
0.0
-0.09863832592964172
0.0
0.09863832592964172
0.0
0.0
0.0
0.0
0.0
0.0
0.0
-0.09863832592964172
-0.09863832592964172
-0.09863832592964172
-0.09863832592964172
-0.09863832592964172
-0.09863832592964172
0.0
0.0
0.09863832592964172
0.0
0.0
0.0
-0.09863832592964172
-0.09863832592964172
0.0
-0.09863832592964172
0.0
-0.09863832592964172
-0.09863832592964172
0.0
0.0
0.09863832592964172
0.09863832592964172
0.0
0.0
0.09863832592964172
0.0
-0.09863832592964172
0.09863832592964172
0.09863832592964172
-0.09863832592964172
-0.09863832592964172
-0.09863832592964172
0.09863832592964172
0.0
0.0
-0.09863832592964172
0.09863832592964172
0.09863832592964172
-0.09863832592964172
-0.09863832592964172
0.09863832592964172
0.09863832592964172
0.09863832592964172
-0.09863832592964172
-0.09863832592964172
0.09863832592964172
0.0
-0.09863832592964172
0.0
0.0
0.09863832592964172
0.0
0.0
0.0
0.0
0.0
0.0
0.0
0.0
0.0
0.0
0.0
-0.09863832592964172
0.0
0.0
0.0
0.0
-0.09863832592964172
0.0
0.0
-0.09863832592964172
0.0
0.09863832592964172
0.0
0.0
0.0
0.0
0.0
0.0
0.0
-0.09863832592964172
-0.09863832592964172
-0.09863832592964172
0.0
0.0
-0.09863832592964172
0.0
0.0
0.09863832592964172
0.0
0.09863832592964172
0.09863832592964172
0.0
0.0
-0.09863832592964172
-0.09863832592964172
0.09863832592964172
0.0
0.0
-0.09863832592964172
0.0
0.0
0.0
-0.09863832592964172
-0.09863832592964172
0.0
0.09863832592964172
0.0
0.0
0.0
0.0
-0.09863832592964172
0.09863832592964172
0.09863832592964172
0.0
-0.09863832592964172
-0.09863832592964172
-0.09863832592964172
-0.09863832592964172
0.0
0.09863832592964172
0.09863832592964172
0.0
-0.09863832592964172
-0.09863832592964172
0.09863832592964172
0.0
0.09863832592964172
0.0
0.0
0.0
0.0
-0.09863832592964172
0.0
0.0
0.09863832592964172
0.09863832592964172
0.0
0.0
-0.09863832592964172
0.09863832592964172
0.0
0.0
-0.09863832592964172
0.0
0.09863832592964172
0.09863832592964172
-0.09863832592964172
-0.09863832592964172
-0.09863832592964172
-0.09863832592964172
0.0
0.0
-0.09863832592964172
0.0
0.0
0.09863832592964172
0.09863832592964172
-0.09863832592964172
-0.09863832592964172
0.09863832592964172
0.09863832592964172
0.0
-0.09863832592964172
0.0
-0.09863832592964172
0.0
0.0
0.09863832592964172
0.09863832592964172
0.0
0.0
-0.09863832592964172
0.0
0.09863832592964172
0.09863832592964172
0.0
0.0
0.09863832592964172
0.09863832592964172
0.09863832592964172
0.09863832592964172
0.0
-0.09863832592964172
0.0
0.09863832592964172
0.0
0.0
-0.09863832592964172
0.0
0.0
-0.09863832592964172
0.09863832592964172
0.09863832592964172
0.09863832592964172
0.0
0.0
0.0
0.0
0.0
0.0
0.0
-0.09863832592964172
0.0
0.0
0.0
0.0
0.0
-0.09863832592964172
0.0
0.0
0.0
0.0
0.09863832592964172
0.09863832592964172
0.0
0.09863832592964172
0.0
-0.09863832592964172
-0.09863832592964172
0.0
0.09863832592964172
0.09863832592964172
-0.09863832592964172
-0.09863832592964172
0.0
0.09863832592964172
-0.09863832592964172
-0.09863832592964172
0.09863832592964172
0.09863832592964172
-0.09863832592964172
-0.09863832592964172
-0.09863832592964172
-0.09863832592964172
-0.09863832592964172
0.0
0.09863832592964172
0.09863832592964172
0.09863832592964172
-0.09863832592964172
-0.09863832592964172
-0.09863832592964172
-0.09863832592964172
0.0
0.0
-0.09863832592964172
-0.09863832592964172
-0.09863832592964172
0.0
0.0
0.0
0.0
-0.09863832592964172
0.0
0.0
-0.09863832592964172
0.0
0.09863832592964172
0.0
0.0
0.09863832592964172
-0.09863832592964172
0.0
0.0
0.0
0.09863832592964172
0.0
0.0
0.09863832592964172
0.09863832592964172
0.09863832592964172
0.0
-0.09863832592964172
0.09863832592964172
0.09863832592964172
0.0
0.0
-0.09863832592964172
0.0
0.09863832592964172
0.0
0.0
-0.09863832592964172
0.0
0.0
0.0
0.09863832592964172
0.0
0.0
0.0
0.0
0.0
0.0
0.0
0.0
0.0
0.0
-0.09863832592964172
0.0
0.0
-0.09863832592964172
0.0
0.0
0.0
0.09863832592964172
0.09863832592964172
0.0
-0.09863832592964172
0.09863832592964172
0.09863832592964172
0.09863832592964172
-0.09863832592964172
-0.09863832592964172
0.0
0.09863832592964172
0.09863832592964172
0.0
-0.09863832592964172
0.0
0.09863832592964172
0.0
0.0
0.0
0.0
0.0
0.0
0.09863832592964172
-0.09863832592964172
0.0
0.0
0.0
0.0
0.0
0.09863832592964172
0.0
0.0
0.0
0.0
0.0
0.0
0.0
0.0
-0.09863832592964172
-0.09863832592964172
0.0
-0.09863832592964172
0.09863832592964172
0.0
0.0
-0.09863832592964172
0.09863832592964172
-0.09863832592964172
-0.09863832592964172
-0.09863832592964172
0.09863832592964172
0.09863832592964172
-0.09863832592964172
-0.09863832592964172
0.09863832592964172
0.0
0.0
0.09863832592964172
0.09863832592964172
0.0
0.0
0.0
-0.09863832592964172
0.0
0.0
0.0
0.0
0.09863832592964172
-0.09863832592964172
0.0
0.0
0.0
0.0
0.09863832592964172
0.0
-0.09863832592964172
0.0
0.09863832592964172
0.09863832592964172
-0.09863832592964172
-0.09863832592964172
-0.09863832592964172
0.0
0.0
0.0
0.09863832592964172
0.09863832592964172
0.09863832592964172
-0.09863832592964172
-0.09863832592964172
-0.09863832592964172
0.0
0.0
-0.09863832592964172
-0.09863832592964172
0.09863832592964172
0.09863832592964172
0.0
0.0
0.0
-0.09863832592964172
-0.09863832592964172
0.0
-0.09863832592964172
-0.09863832592964172
-0.09863832592964172
0.0
0.09863832592964172
0.0
0.0
-0.09863832592964172
0.0
0.09863832592964172
-0.09863832592964172
0.0
0.0
0.0
0.0
-0.09863832592964172
-0.09863832592964172
0.09863832592964172
0.09863832592964172
0.09863832592964172
-0.09863832592964172
-0.09863832592964172
0.0
0.0
-0.09863832592964172
0.0
0.09863832592964172
0.0
0.0
0.09863832592964172
0.09863832592964172
-0.09863832592964172
0.0
0.0
0.09863832592964172
0.09863832592964172
0.0
-0.09863832592964172
0.09863832592964172
-0.09863832592964172
0.0
-0.09863832592964172
0.09863832592964172
0.09863832592964172
0.0
-0.09863832592964172
-0.09863832592964172
0.09863832592964172
0.0
0.0
0.0
0.09863832592964172
0.09863832592964172
0.09863832592964172
-0.09863832592964172
0.09863832592964172
0.09863832592964172
0.0
-0.09863832592964172
-0.09863832592964172
0.09863832592964172
0.0
-0.09863832592964172
0.0
-0.09863832592964172
-0.09863832592964172
0.0
0.0
0.0
0.0
0.0
-0.09863832592964172
0.0
0.0
0.0
0.0
-0.09863832592964172
-0.09863832592964172
0.0
-0.09863832592964172
0.0
0.0
0.0
-0.09863832592964172
-0.09863832592964172
0.0
0.09863832592964172
-0.09863832592964172
-0.09863832592964172
0.0
0.0
0.0
-0.09863832592964172
0.0
0.09863832592964172
0.0
0.09863832592964172
0.09863832592964172
-0.09863832592964172
-0.09863832592964172
0.09863832592964172
0.09863832592964172
0.0
0.09863832592964172
0.0
-0.09863832592964172
-0.09863832592964172
-0.09863832592964172
0.0
0.09863832592964172
0.09863832592964172
0.0
-0.09863832592964172
-0.09863832592964172
0.09863832592964172
0.09863832592964172
0.0
-0.09863832592964172
-0.09863832592964172
0.09863832592964172
0.0
0.0
0.0
0.0
0.0
0.0
0.0
0.09863832592964172
-0.09863832592964172
0.09863832592964172
0.0
0.0
0.0
0.0
0.09863832592964172
0.0
0.0
0.0
0.0
0.09863832592964172
0.0
0.0
0.0
0.0
0.0
0.0
0.09863832592964172
0.0
0.0
-0.09863832592964172
0.0
-0.09863832592964172
-0.09863832592964172
0.0
-0.09863832592964172
0.0
0.0
0.0
-0.09863832592964172
0.09863832592964172
0.09863832592964172
-0.09863832592964172
-0.09863832592964172
0.09863832592964172
0.09863832592964172
0.09863832592964172
0.0
-0.09863832592964172
0.0
0.0
0.0
0.09863832592964172
-0.09863832592964172
0.09863832592964172
0.09863832592964172
-0.09863832592964172
0.0
0.0
0.0
0.0
0.0
-0.09863832592964172
0.0
0.0
0.0
0.09863832592964172
0.09863832592964172
0.09863832592964172
-0.09863832592964172
-0.09863832592964172
-0.09863832592964172
0.0
0.0
0.0
0.0
0.0
0.0
-0.09863832592964172
-0.09863832592964172
-0.09863832592964172
0.09863832592964172
0.0
0.0
-0.09863832592964172
0.09863832592964172
0.0
0.0
0.0
-0.09863832592964172
0.0
-0.09863832592964172
0.0
0.09863832592964172
0.0
0.09863832592964172
-0.09863832592964172
0.0
0.0
0.0
-0.09863832592964172
0.0
0.0
0.0
0.09863832592964172
0.0
0.0
-0.09863832592964172
0.0
0.0
0.0
0.09863832592964172
0.0
0.0
-0.09863832592964172
-0.09863832592964172
0.09863832592964172
0.09863832592964172
0.0
-0.09863832592964172
-0.09863832592964172
0.0
0.0
0.09863832592964172
0.0
-0.09863832592964172
-0.09863832592964172
0.0
0.09863832592964172
0.0
0.0
-0.09863832592964172
-0.09863832592964172
-0.09863832592964172
0.0
0.0
0.0
-0.09863832592964172
0.0
0.0
-0.09863832592964172
-0.09863832592964172
0.0
0.09863832592964172
0.09863832592964172
-0.09863832592964172
-0.09863832592964172
-0.09863832592964172
0.0
0.0
0.0
0.0
0.0
-0.09863832592964172
0.0
0.0
0.0
0.09863832592964172
0.09863832592964172
0.09863832592964172
0.09863832592964172
0.0
-0.09863832592964172
0.09863832592964172
0.0
0.0
0.0
-0.09863832592964172
0.0
0.0
0.09863832592964172
0.0
0.0
0.0
-0.09863832592964172
-0.09863832592964172
0.09863832592964172
0.0
-0.09863832592964172
-0.09863832592964172
0.0
0.0
0.0
0.0
0.0
0.09863832592964172
0.0
-0.09863832592964172
-0.09863832592964172
-0.09863832592964172
0.0
0.0
-0.09863832592964172
0.0
0.0
0.0
-0.09863832592964172
0.0
0.09863832592964172
0.09863832592964172
0.0
0.0
0.09863832592964172
0.09863832592964172
0.0
-0.09863832592964172
0.0
0.09863832592964172
0.09863832592964172
0.0
0.0
0.0
-0.09863832592964172
-0.09863832592964172
-0.09863832592964172
-0.09863832592964172
0.0
0.0
0.0
0.0
0.0
0.0
0.0
0.0
-0.09863832592964172
-0.09863832592964172
0.0
0.09863832592964172
0.0
0.0
0.0
0.0
0.09863832592964172
0.09863832592964172
0.0
0.0
0.0
0.0
0.0
0.0
0.0
0.0
-0.09863832592964172
0.0
0.09863832592964172
0.0
0.09863832592964172
0.0
0.0
-0.09863832592964172
0.0
0.0
0.09863832592964172
0.0
0.0
0.0
0.0
0.0
0.09863832592964172
-0.09863832592964172
0.0
0.0
0.0
0.0
0.0
-0.09863832592964172
-0.09863832592964172
-0.09863832592964172
0.09863832592964172
0.09863832592964172
0.0
-0.09863832592964172
-0.09863832592964172
0.09863832592964172
0.0
0.0
0.0
0.09863832592964172
-0.09863832592964172
0.0
0.0
0.0
0.0
0.09863832592964172
0.0
-0.09863832592964172
-0.09863832592964172
0.09863832592964172
0.09863832592964172
0.09863832592964172
-0.09863832592964172
-0.09863832592964172
-0.09863832592964172
0.0
0.0
-0.09863832592964172
0.0
0.0
0.0
0.0
0.0
-0.09863832592964172
-0.09863832592964172
-0.09863832592964172
0.09863832592964172
0.09863832592964172
0.0
0.0
0.0
0.0
0.0
0.0
-0.09863832592964172
0.0
-0.09863832592964172
0.0
0.09863832592964172
0.0
0.0
0.09863832592964172
0.0
0.0
-0.09863832592964172
0.09863832592964172
0.09863832592964172
-0.09863832592964172
-0.09863832592964172
0.0
0.09863832592964172
0.09863832592964172
0.0
-0.09863832592964172
0.0
0.09863832592964172
0.0
0.0
0.0
0.0
0.0
0.0
0.0
0.0
0.0
0.0
0.09863832592964172
0.0
0.0
-0.09863832592964172
-0.09863832592964172
0.0
0.09863832592964172
0.09863832592964172
0.0
-0.09863832592964172
0.09863832592964172
0.0
0.0
0.0
0.09863832592964172
0.0
0.0
0.0
0.09863832592964172
0.0
0.09863832592964172
-0.09863832592964172
-0.09863832592964172
0.09863832592964172
0.09863832592964172
0.09863832592964172
0.0
0.0
0.0
0.0
0.0
0.0
0.0
0.0
-0.09863832592964172
0.0
0.0
0.0
0.0
-0.09863832592964172
-0.09863832592964172
0.0
-0.09863832592964172
0.0
0.09863832592964172
0.0
0.0
0.0
-0.09863832592964172
-0.09863832592964172
0.0
-0.09863832592964172
0.0
0.0
-0.09863832592964172
0.0
-0.09863832592964172
0.09863832592964172
-0.09863832592964172
0.0
0.09863832592964172
0.09863832592964172
0.0
0.0
0.0
-0.09863832592964172
-0.09863832592964172
0.0
0.09863832592964172
0.0
0.0
0.0
-0.09863832592964172
0.0
0.09863832592964172
0.0
0.09863832592964172
0.0
0.0
0.0
0.0
0.0
0.0
0.09863832592964172
0.09863832592964172
0.09863832592964172
0.09863832592964172
0.09863832592964172
0.09863832592964172
-0.09863832592964172
-0.09863832592964172
0.0
0.0
0.0
-0.09863832592964172
0.0
0.09863832592964172
0.09863832592964172
0.0
0.0
0.0
0.0
0.0
0.0
0.0
0.0
0.0
0.0
0.0
-0.09863832592964172
0.0
0.0
-0.09863832592964172
0.0
0.0
0.09863832592964172
0.0
0.0
-0.09863832592964172
0.0
0.09863832592964172
-0.09863832592964172
0.0
0.0
0.0
0.0
0.0
0.0
-0.09863832592964172
-0.09863832592964172
0.09863832592964172
0.09863832592964172
0.09863832592964172
-0.09863832592964172
0.09863832592964172
0.09863832592964172
0.09863832592964172
0.0
-0.09863832592964172
0.09863832592964172
0.09863832592964172
0.09863832592964172
-0.09863832592964172
-0.09863832592964172
0.0
0.0
0.0
0.0
0.0
0.0
0.0
0.0
0.0
0.0
0.0
0.0
0.0
0.0
0.0
0.0
0.0
0.09863832592964172
0.09863832592964172
-0.09863832592964172
0.09863832592964172
-0.09863832592964172
0.0
0.0
-0.09863832592964172
0.0
0.0
0.0
0.0
0.0
0.0
0.0
0.09863832592964172
0.0
0.0
0.0
0.0
0.0
0.09863832592964172
0.09863832592964172
-0.09863832592964172
0.09863832592964172
0.09863832592964172
0.09863832592964172
-0.09863832592964172
-0.09863832592964172
0.0
0.0
-0.09863832592964172
0.0
0.09863832592964172
0.09863832592964172
-0.09863832592964172
-0.09863832592964172
-0.09863832592964172
-0.09863832592964172
0.09863832592964172
0.09863832592964172
0.09863832592964172
-0.09863832592964172
-0.09863832592964172
-0.09863832592964172
-0.09863832592964172
0.0
-0.09863832592964172
0.0
0.0
0.0
0.09863832592964172
0.0
-0.09863832592964172
0.09863832592964172
0.09863832592964172
0.0
0.0
0.0
0.0
-0.09863832592964172
0.0
0.09863832592964172
0.09863832592964172
0.0
0.0
0.09863832592964172
0.09863832592964172
-0.09863832592964172
0.0
-0.09863832592964172
0.09863832592964172
-0.09863832592964172
0.09863832592964172
0.0
0.0
-0.09863832592964172
-0.09863832592964172
-0.09863832592964172
0.09863832592964172
0.0
-0.09863832592964172
-0.09863832592964172
0.09863832592964172
0.0
-0.09863832592964172
0.0
0.0
-0.09863832592964172
0.0
0.0
0.09863832592964172
0.0
0.09863832592964172
-0.09863832592964172
-0.09863832592964172
0.0
0.09863832592964172
0.09863832592964172
0.0
-0.09863832592964172
0.0
0.0
0.0
0.09863832592964172
0.0
0.0
0.0
0.0
0.09863832592964172
0.09863832592964172
0.09863832592964172
0.09863832592964172
0.09863832592964172
-0.09863832592964172
0.09863832592964172
0.09863832592964172
0.0
0.0
0.0
-0.09863832592964172
-0.09863832592964172
-0.09863832592964172
-0.09863832592964172
-0.09863832592964172
-0.09863832592964172
0.0
0.0
0.0
0.0
0.0
-0.09863832592964172
0.0
0.09863832592964172
0.0
0.0
0.0
0.0
0.0
0.09863832592964172
-0.09863832592964172
0.0
0.09863832592964172
0.09863832592964172
-0.09863832592964172
-0.09863832592964172
0.0
0.09863832592964172
0.09863832592964172
-0.09863832592964172
-0.09863832592964172
0.09863832592964172
0.09863832592964172
0.0
0.0
-0.09863832592964172
0.0
0.0
0.0
-0.09863832592964172
0.0
0.09863832592964172
0.0
0.0
-0.09863832592964172
-0.09863832592964172
0.0
0.0
0.0
-0.09863832592964172
-0.09863832592964172
0.09863832592964172
0.0
0.0
0.0
0.0
0.0
0.0
0.0
-0.09863832592964172
0.0
0.09863832592964172
0.0
0.0
0.0
0.0
0.0
-0.09863832592964172
0.0
0.0
0.0
0.0
0.0
-0.09863832592964172
-0.09863832592964172
0.09863832592964172
0.09863832592964172
0.0
0.09863832592964172
0.0
0.0
0.09863832592964172
-0.09863832592964172
-0.09863832592964172
0.0
0.09863832592964172
0.09863832592964172
0.0
-0.09863832592964172
0.09863832592964172
0.0
0.0
0.09863832592964172
0.0
0.0
0.0
0.0
0.09863832592964172
0.0
0.0
0.09863832592964172
0.0
0.0
-0.09863832592964172
0.0
0.0
0.0
0.0
0.09863832592964172
-0.09863832592964172
0.0
0.0
0.0
0.0
0.0
0.0
0.0
0.0
0.0
0.0
-0.09863832592964172
-0.09863832592964172
-0.09863832592964172
0.0
0.09863832592964172
0.09863832592964172
0.0
0.0
0.0
0.0
0.0
0.0
0.09863832592964172
-0.09863832592964172
0.09863832592964172
0.0
0.0
0.0
0.0
0.09863832592964172
0.09863832592964172
0.09863832592964172
0.09863832592964172
-0.09863832592964172
0.09863832592964172
0.09863832592964172
0.0
-0.09863832592964172
0.0
0.09863832592964172
0.0
0.0
-0.09863832592964172
0.09863832592964172
-0.09863832592964172
-0.09863832592964172
-0.09863832592964172
0.0
0.09863832592964172
0.0
-0.09863832592964172
0.0
0.0
0.09863832592964172
-0.09863832592964172
0.09863832592964172
0.09863832592964172
0.09863832592964172
0.0
0.09863832592964172
0.0
0.0
0.0
0.0
-0.09863832592964172
0.0
0.09863832592964172
0.09863832592964172
0.0
0.0
-0.09863832592964172
-0.09863832592964172
-0.09863832592964172
0.0
-0.09863832592964172
0.0
0.0
0.0
0.0
0.0
0.09863832592964172
0.09863832592964172
0.0
0.0
-0.09863832592964172
0.0
0.0
0.0
0.09863832592964172
0.09863832592964172
0.09863832592964172
0.0
0.09863832592964172
0.09863832592964172
0.0
-0.09863832592964172
0.09863832592964172
0.0
-0.09863832592964172
-0.09863832592964172
0.0
-0.09863832592964172
0.0
-0.09863832592964172
0.0
0.0
0.0
0.09863832592964172
0.09863832592964172
0.0
0.09863832592964172
0.09863832592964172
0.09863832592964172
0.09863832592964172
0.0
0.0
-0.09863832592964172
0.0
0.0
0.09863832592964172
0.09863832592964172
-0.09863832592964172
-0.09863832592964172
0.0
0.09863832592964172
-0.09863832592964172
0.0
0.0
-0.09863832592964172
0.0
0.0
0.0
0.0
0.0
-0.09863832592964172
0.0
0.09863832592964172
0.0
0.0
0.0
-0.09863832592964172
0.0
0.0
-0.09863832592964172
-0.09863832592964172
0.0
0.09863832592964172
0.09863832592964172
0.09863832592964172
0.09863832592964172
0.09863832592964172
0.0
0.0
0.0
-0.09863832592964172
0.0
-0.09863832592964172
0.0
0.09863832592964172
0.0
0.0
0.0
0.0
0.0
0.09863832592964172
0.0
0.0
-0.09863832592964172
0.09863832592964172
0.0
0.0
0.0
0.0
0.0
-0.09863832592964172
0.0
0.0
-0.09863832592964172
0.0
0.0
-0.09863832592964172
0.0
0.0
-0.09863832592964172
0.0
0.0
0.0
0.09863832592964172
0.0
-0.09863832592964172
0.0
0.09863832592964172
0.09863832592964172
-0.09863832592964172
-0.09863832592964172
0.09863832592964172
0.09863832592964172
0.0
-0.09863832592964172
0.0
0.09863832592964172
0.09863832592964172
-0.09863832592964172
0.0
0.0
0.09863832592964172
0.09863832592964172
-0.09863832592964172
-0.09863832592964172
0.09863832592964172
0.09863832592964172
0.0
-0.09863832592964172
-0.09863832592964172
-0.09863832592964172
0.09863832592964172
0.09863832592964172
-0.09863832592964172
-0.09863832592964172
0.09863832592964172
0.0
0.0
-0.09863832592964172
0.0
0.0
0.0
-0.029697339981794357
-0.029697339981794357
0.0
-0.029697339981794357
-0.029697339981794357
0.0
-0.029697339981794357
0.0
-0.029697339981794357
0.0
0.0
0.0
0.0
0.0
0.0
-0.029697339981794357
-0.029697339981794357
0.029697339981794357
-0.029697339981794357
-0.029697339981794357
-0.029697339981794357
0.0
-0.029697339981794357
0.0
-0.029697339981794357
0.0
0.0
0.0
0.0
0.0
0.0
0.0
0.0
0.0
0.0
0.0
0.029697339981794357
0.0
0.029697339981794357
0.029697339981794357
0.0
0.0
-0.029697339981794357
0.0
0.0
-0.029697339981794357
0.0
0.0
0.0
0.0
0.0
0.029697339981794357
0.0
0.0
0.029697339981794357
0.0
0.0
-0.029697339981794357
0.0
0.029697339981794357
0.0
0.0
0.0
0.0
0.0
0.0
0.0
-0.029697339981794357
0.0
0.029697339981794357
0.029697339981794357
0.0
0.029697339981794357
0.029697339981794357
0.0
-0.029697339981794357
0.0
-0.029697339981794357
0.0
0.0
0.0
0.0
0.029697339981794357
0.029697339981794357
0.0
0.0
0.029697339981794357
0.029697339981794357
0.0
0.0
0.029697339981794357
0.0
0.0
-0.029697339981794357
0.0
0.029697339981794357
0.0
0.0
0.0
0.029697339981794357
0.029697339981794357
0.0
0.0
0.029697339981794357
0.029697339981794357
-0.029697339981794357
0.029697339981794357
0.0
0.0
0.029697339981794357
0.0
-0.029697339981794357
0.029697339981794357
-0.029697339981794357
-0.029697339981794357
0.0
-0.029697339981794357
0.029697339981794357
0.029697339981794357
0.0
0.0
0.029697339981794357
0.0
0.029697339981794357
0.0
0.0
0.029697339981794357
0.029697339981794357
0.0
0.029697339981794357
0.029697339981794357
-0.029697339981794357
0.029697339981794357
0.0
-0.029697339981794357
0.0
0.029697339981794357
0.0
-0.029697339981794357
0.0
0.029697339981794357
0.0
0.0
0.0
0.0
-0.029697339981794357
-0.029697339981794357
-0.029697339981794357
-0.029697339981794357
-0.029697339981794357
0.029697339981794357
0.029697339981794357
0.0
0.0
0.0
0.0
0.029697339981794357
0.029697339981794357
0.029697339981794357
0.0
-0.029697339981794357
0.0
0.0
0.0
0.0
0.0
-0.029697339981794357
0.029697339981794357
-0.029697339981794357
0.0
0.0
-0.029697339981794357
-0.029697339981794357
0.0
0.029697339981794357
-0.029697339981794357
0.0
0.0
0.029697339981794357
0.0
0.029697339981794357
0.029697339981794357
0.029697339981794357
0.0
0.029697339981794357
0.0
-0.029697339981794357
0.0
0.0
0.0
0.0
0.0
0.029697339981794357
0.0
0.0
0.029697339981794357
0.029697339981794357
-0.029697339981794357
0.0
0.029697339981794357
0.0
0.029697339981794357
0.029697339981794357
0.0
0.029697339981794357
-0.029697339981794357
-0.029697339981794357
0.029697339981794357
0.0
0.0
0.0
0.0
-0.029697339981794357
-0.029697339981794357
-0.029697339981794357
0.0
-0.029697339981794357
-0.029697339981794357
0.0
0.029697339981794357
0.0
0.0
0.0
-0.029697339981794357
-0.029697339981794357
-0.029697339981794357
-0.029697339981794357
-0.029697339981794357
-0.029697339981794357
-0.029697339981794357
0.0
0.029697339981794357
0.029697339981794357
0.029697339981794357
0.029697339981794357
0.029697339981794357
0.029697339981794357
-0.029697339981794357
0.029697339981794357
0.0
-0.029697339981794357
-0.029697339981794357
0.0
-0.029697339981794357
-0.029697339981794357
0.0
-0.029697339981794357
-0.029697339981794357
-0.029697339981794357
-0.029697339981794357
0.0
0.0
0.0
0.0
0.029697339981794357
0.0
0.0
0.029697339981794357
0.0
0.029697339981794357
-0.029697339981794357
0.029697339981794357
0.029697339981794357
0.0
0.0
0.029697339981794357
0.0
0.0
0.0
0.0
-0.029697339981794357
-0.029697339981794357
0.0
-0.029697339981794357
-0.029697339981794357
0.0
0.0
0.0
0.0
0.0
-0.029697339981794357
0.0
0.029697339981794357
0.029697339981794357
0.0
0.0
0.029697339981794357
0.029697339981794357
0.0
0.029697339981794357
0.029697339981794357
-0.029697339981794357
0.029697339981794357
0.0
0.0
-0.029697339981794357
-0.029697339981794357
-0.029697339981794357
-0.029697339981794357
0.0
0.0
0.0
0.0
0.0
0.0
0.0
-0.029697339981794357
-0.029697339981794357
0.0
-0.029697339981794357
-0.029697339981794357
-0.029697339981794357
0.0
0.029697339981794357
0.0
0.0
0.029697339981794357
0.0
0.0
0.0
-0.029697339981794357
0.0
0.029697339981794357
0.0
0.0
0.029697339981794357
0.029697339981794357
0.029697339981794357
0.0
0.029697339981794357
0.0
0.029697339981794357
-0.029697339981794357
0.029697339981794357
0.029697339981794357
0.0
0.0
0.029697339981794357
0.029697339981794357
0.029697339981794357
0.0
0.0
0.0
0.0
0.0
0.0
0.0
-0.029697339981794357
0.0
0.029697339981794357
-0.029697339981794357
0.029697339981794357
0.029697339981794357
0.029697339981794357
0.0
0.0
0.0
0.0
-0.029697339981794357
0.0
0.0
-0.029697339981794357
0.0
0.0
-0.029697339981794357
0.029697339981794357
0.0
-0.029697339981794357
0.0
0.0
0.029697339981794357
0.029697339981794357
0.0
0.029697339981794357
-0.029697339981794357
0.029697339981794357
0.0
0.0
0.0
0.029697339981794357
0.029697339981794357
0.0
0.029697339981794357
0.029697339981794357
0.0
0.0
0.0
-0.029697339981794357
-0.029697339981794357
-0.029697339981794357
0.0
0.0
-0.029697339981794357
0.0
0.029697339981794357
0.029697339981794357
0.0
0.029697339981794357
0.029697339981794357
0.029697339981794357
0.029697339981794357
0.029697339981794357
0.0
0.029697339981794357
-0.029697339981794357
-0.029697339981794357
0.029697339981794357
0.0
0.0
0.0
0.0
-0.029697339981794357
0.029697339981794357
0.0
0.0
0.029697339981794357
0.0
0.0
0.0
-0.029697339981794357
0.0
0.0
0.029697339981794357
0.0
0.029697339981794357
0.029697339981794357
0.0
0.029697339981794357
0.029697339981794357
0.0
0.0
0.0
0.029697339981794357
0.0
0.029697339981794357
0.0
0.029697339981794357
0.029697339981794357
0.0
-0.029697339981794357
-0.029697339981794357
-0.029697339981794357
-0.029697339981794357
-0.029697339981794357
0.0
0.0
-0.029697339981794357
0.0
-0.029697339981794357
0.0
0.029697339981794357
-0.029697339981794357
0.0
0.029697339981794357
0.0
0.0
0.0
-0.029697339981794357
0.0
0.0
-0.029697339981794357
-0.029697339981794357
0.029697339981794357
-0.029697339981794357
-0.029697339981794357
0.0
0.0
0.0
-0.029697339981794357
0.0
-0.029697339981794357
0.0
0.0
0.0
-0.029697339981794357
-0.029697339981794357
0.029697339981794357
-0.029697339981794357
-0.029697339981794357
0.0
0.0
-0.029697339981794357
0.0
0.0
0.0
-0.029697339981794357
-0.029697339981794357
0.0
-0.029697339981794357
0.0
0.029697339981794357
0.0
0.0
0.0
-0.029697339981794357
0.029697339981794357
0.029697339981794357
-0.029697339981794357
0.0
0.029697339981794357
0.0
-0.029697339981794357
0.029697339981794357
0.0
0.0
0.029697339981794357
0.0
0.029697339981794357
0.029697339981794357
0.0
-0.029697339981794357
0.0
0.0
0.0
0.0
0.0
0.0
0.029697339981794357
0.0
0.0
-0.029697339981794357
0.029697339981794357
0.0
-0.029697339981794357
0.0
0.0
-0.029697339981794357
0.0
0.0
0.0
0.0
0.0
0.0
0.0
0.0
0.029697339981794357
0.0
-0.029697339981794357
0.0
0.0
0.0
-0.029697339981794357
0.029697339981794357
0.0
-0.029697339981794357
0.0
-0.029697339981794357
0.0
0.0
-0.029697339981794357
0.0
0.0
0.0
0.0
0.0
-0.029697339981794357
-0.029697339981794357
-0.029697339981794357
-0.029697339981794357
-0.029697339981794357
-0.029697339981794357
-0.029697339981794357
-0.029697339981794357
0.0
0.0
0.029697339981794357
0.029697339981794357
0.0
0.029697339981794357
0.029697339981794357
0.029697339981794357
0.0
0.0
0.029697339981794357
0.0
0.029697339981794357
0.029697339981794357
0.0
0.029697339981794357
0.0
-0.029697339981794357
0.029697339981794357
0.0
0.0
0.0
0.0
0.029697339981794357
0.0
0.0
0.029697339981794357
-0.029697339981794357
-0.029697339981794357
0.0
-0.029697339981794357
0.0
-0.029697339981794357
0.0
0.029697339981794357
0.0
0.0
-0.029697339981794357
-0.029697339981794357
0.0
-0.029697339981794357
-0.029697339981794357
-0.029697339981794357
0.0
-0.029697339981794357
0.0
-0.029697339981794357
0.029697339981794357
-0.029697339981794357
0.0
0.029697339981794357
0.0
-0.029697339981794357
0.029697339981794357
0.029697339981794357
-0.029697339981794357
-0.029697339981794357
0.0
-0.029697339981794357
-0.029697339981794357
-0.029697339981794357
0.029697339981794357
-0.029697339981794357
-0.029697339981794357
0.0
0.0
0.0
0.0
0.029697339981794357
0.0
0.0
0.029697339981794357
0.0
0.029697339981794357
0.0
0.0
0.0
0.029697339981794357
0.0
-0.029697339981794357
0.0
0.0
-0.029697339981794357
0.029697339981794357
-0.029697339981794357
-0.029697339981794357
0.029697339981794357
0.0
0.0
0.029697339981794357
0.0
-0.029697339981794357
-0.029697339981794357
-0.029697339981794357
-0.029697339981794357
-0.029697339981794357
-0.029697339981794357
-0.029697339981794357
-0.029697339981794357
0.0
0.0
0.0
0.029697339981794357
0.0
0.0
0.029697339981794357
0.0
0.0
0.029697339981794357
-0.029697339981794357
0.029697339981794357
-0.029697339981794357
-0.029697339981794357
0.029697339981794357
-0.029697339981794357
-0.029697339981794357
0.0
-0.029697339981794357
0.0
0.0
0.0
-0.029697339981794357
-0.029697339981794357
0.0
0.0
-0.029697339981794357
0.0
0.029697339981794357
0.0
0.0
0.0
0.0
0.029697339981794357
0.0
0.029697339981794357
0.029697339981794357
0.0
0.029697339981794357
-0.029697339981794357
0.029697339981794357
0.0
0.0
0.029697339981794357
0.029697339981794357
0.0
-0.029697339981794357
0.0
0.0
-0.029697339981794357
0.0
-0.029697339981794357
-0.029697339981794357
0.0
0.0
-0.029697339981794357
-0.029697339981794357
-0.029697339981794357
-0.029697339981794357
-0.029697339981794357
0.0
-0.029697339981794357
0.0
0.029697339981794357
0.0
0.0
0.0
-0.029697339981794357
-0.029697339981794357
-0.029697339981794357
-0.029697339981794357
-0.029697339981794357
0.0
0.0
0.029697339981794357
0.0
0.029697339981794357
0.029697339981794357
0.0
0.029697339981794357
0.029697339981794357
-0.029697339981794357
0.0
0.0
0.029697339981794357
0.029697339981794357
0.029697339981794357
0.029697339981794357
0.0
0.029697339981794357
0.029697339981794357
0.0
0.029697339981794357
0.0
-0.029697339981794357
0.0
0.0
0.0
0.029697339981794357
0.0
0.0
0.0
0.0
-0.029697339981794357
-0.029697339981794357
-0.029697339981794357
0.0
-0.029697339981794357
0.0
-0.029697339981794357
0.0
-0.029697339981794357
0.0
0.029697339981794357
0.0
0.0
0.029697339981794357
0.029697339981794357
0.0
0.0
0.0
0.029697339981794357
0.029697339981794357
0.0
0.0
0.029697339981794357
-0.029697339981794357
0.029697339981794357
0.0
0.0
0.0
0.0
-0.029697339981794357
-0.029697339981794357
-0.029697339981794357
0.0
0.0
0.0
0.0
-0.029697339981794357
0.0
0.0
0.0
0.029697339981794357
0.0
0.029697339981794357
0.029697339981794357
-0.029697339981794357
-0.029697339981794357
0.0
0.0
0.0
0.0
0.0
0.0
0.0
-0.029697339981794357
0.0
0.029697339981794357
0.0
-0.029697339981794357
0.029697339981794357
-0.029697339981794357
-0.029697339981794357
0.029697339981794357
0.0
0.0
0.029697339981794357
0.029697339981794357
0.0
0.0
0.0
0.0
0.0
0.0
0.0
0.029697339981794357
0.0
0.0
0.0
0.0
0.0
0.0
0.0
0.0
0.029697339981794357
0.0
0.0
0.0
0.029697339981794357
0.0
0.029697339981794357
0.029697339981794357
0.0
0.0
0.0
0.029697339981794357
0.0
0.0
0.0
0.029697339981794357
0.0
0.029697339981794357
0.029697339981794357
0.029697339981794357
-0.029697339981794357
0.029697339981794357
0.029697339981794357
0.0
0.0
0.0
0.0
0.029697339981794357
0.029697339981794357
0.0
0.029697339981794357
0.029697339981794357
-0.029697339981794357
-0.029697339981794357
0.0
0.029697339981794357
0.0
0.029697339981794357
0.029697339981794357
0.0
0.0
0.0
0.0
0.0
0.0
0.029697339981794357
0.0
0.0
0.029697339981794357
0.029697339981794357
-0.029697339981794357
-0.029697339981794357
-0.029697339981794357
-0.029697339981794357
0.029697339981794357
0.0
0.0
0.029697339981794357
0.0
0.0
-0.029697339981794357
-0.029697339981794357
0.0
0.0
0.0
-0.029697339981794357
0.029697339981794357
0.0
0.029697339981794357
0.029697339981794357
0.0
0.029697339981794357
0.029697339981794357
0.029697339981794357
0.0
0.029697339981794357
0.0
0.029697339981794357
0.029697339981794357
0.0
0.029697339981794357
0.029697339981794357
0.029697339981794357
0.0
0.029697339981794357
0.0
0.029697339981794357
0.029697339981794357
0.0
0.0
0.029697339981794357
0.0
-0.029697339981794357
-0.029697339981794357
-0.029697339981794357
0.0
0.029697339981794357
0.0
0.0
0.029697339981794357
0.029697339981794357
0.0
0.029697339981794357
0.029697339981794357
-0.029697339981794357
0.0
-0.029697339981794357
-0.029697339981794357
0.029697339981794357
0.0
0.0
0.029697339981794357
0.0
0.029697339981794357
0.029697339981794357
0.029697339981794357
0.0
0.029697339981794357
0.029697339981794357
0.0
0.029697339981794357
0.0
0.029697339981794357
0.029697339981794357
0.0
0.029697339981794357
0.029697339981794357
-0.029697339981794357
0.029697339981794357
0.029697339981794357
-0.029697339981794357
-0.029697339981794357
0.029697339981794357
0.0
-0.029697339981794357
0.029697339981794357
0.0
-0.029697339981794357
0.029697339981794357
0.0
0.029697339981794357
-0.029697339981794357
-0.029697339981794357
-0.029697339981794357
-0.029697339981794357
-0.029697339981794357
0.0
-0.029697339981794357
0.029697339981794357
-0.029697339981794357
0.0
-0.029697339981794357
0.0
0.0
0.0
0.029697339981794357
0.029697339981794357
0.0
0.0
-0.029697339981794357
0.029697339981794357
-0.029697339981794357
-0.029697339981794357
0.0
-0.029697339981794357
-0.029697339981794357
0.0
0.0
0.0
0.0
0.0
0.029697339981794357
0.029697339981794357
-0.029697339981794357
0.029697339981794357
0.0
0.0
0.0
0.0
0.029697339981794357
0.029697339981794357
0.0
0.0
0.029697339981794357
0.0
0.0
0.0
-0.029697339981794357
0.0
0.0
0.0
0.0
0.0
0.0
0.0
0.0
0.029697339981794357
-0.029697339981794357
-0.029697339981794357
-0.029697339981794357
0.0
-0.029697339981794357
-0.029697339981794357
0.0
0.029697339981794357
0.0
0.029697339981794357
0.029697339981794357
0.029697339981794357
0.0
0.029697339981794357
0.0
0.0
-0.029697339981794357
0.0
-0.029697339981794357
-0.029697339981794357
0.0
-0.029697339981794357
0.0
0.029697339981794357
0.0
0.0
-0.029697339981794357
0.029697339981794357
0.0
0.0
0.029697339981794357
0.029697339981794357
0.0
-0.029697339981794357
-0.029697339981794357
0.0
-0.029697339981794357
-0.029697339981794357
0.0
0.0
-0.029697339981794357
0.0
-0.029697339981794357
-0.029697339981794357
0.029697339981794357
-0.029697339981794357
-0.029697339981794357
-0.029697339981794357
0.029697339981794357
0.0
-0.029697339981794357
-0.029697339981794357
-0.029697339981794357
-0.029697339981794357
-0.029697339981794357
-0.029697339981794357
-0.029697339981794357
0.0
-0.029697339981794357
-0.029697339981794357
0.0
0.029697339981794357
0.0
0.0
0.0
0.0
-0.029697339981794357
0.0
-0.029697339981794357
0.0
-0.029697339981794357
0.0
0.0
-0.029697339981794357
0.0
0.0
0.0
0.029697339981794357
0.0
0.0
0.0
0.0
0.0
0.0
0.0
-0.029697339981794357
0.0
-0.029697339981794357
0.0
0.0
0.0
0.0
0.029697339981794357
0.029697339981794357
0.029697339981794357
0.029697339981794357
0.0
-0.029697339981794357
0.0
-0.029697339981794357
-0.029697339981794357
-0.029697339981794357
-0.029697339981794357
-0.029697339981794357
0.0
0.0
0.0
0.0
0.0
-0.029697339981794357
-0.029697339981794357
0.0
0.0
0.0
-0.029697339981794357
-0.029697339981794357
-0.029697339981794357
0.0
-0.029697339981794357
-0.029697339981794357
0.0
-0.029697339981794357
-0.029697339981794357
0.0
0.0
0.0
0.0
-0.029697339981794357
-0.029697339981794357
0.0
-0.029697339981794357
-0.029697339981794357
0.029697339981794357
0.0
0.0
0.0
0.0
0.0
0.0
-0.029697339981794357
0.0
0.0
-0.029697339981794357
0.0
-0.029697339981794357
-0.029697339981794357
-0.029697339981794357
-0.029697339981794357
-0.029697339981794357
0.0
0.0
0.0
0.029697339981794357
0.0
0.0
0.0
0.029697339981794357
0.0
-0.029697339981794357
0.0
0.0
0.0
0.0
0.0
0.0
0.029697339981794357
-0.029697339981794357
-0.029697339981794357
0.0
0.029697339981794357
0.0
0.0
0.029697339981794357
0.029697339981794357
0.0
0.029697339981794357
0.0
0.0
0.0
0.0
0.029697339981794357
0.029697339981794357
0.0
0.0
0.029697339981794357
-0.029697339981794357
0.0
0.0
0.0
0.0
-0.029697339981794357
0.0
0.0
0.029697339981794357
0.029697339981794357
0.0
0.029697339981794357
0.0
0.0
0.029697339981794357
0.0
0.0
0.029697339981794357
0.0
0.0
0.0
0.0
0.0
-0.029697339981794357
0.0
0.0
0.029697339981794357
0.029697339981794357
0.0
0.0
0.0
0.0
0.0
0.0
0.0
0.029697339981794357
0.029697339981794357
0.0
0.029697339981794357
0.0
-0.029697339981794357
0.029697339981794357
0.0
0.0
0.0
0.0
-0.029697339981794357
-0.029697339981794357
0.029697339981794357
0.0
-0.029697339981794357
0.0
0.029697339981794357
0.0
-0.029697339981794357
0.029697339981794357
0.029697339981794357
0.0
0.0
0.029697339981794357
0.0
0.0
0.0
0.0
0.029697339981794357
0.029697339981794357
0.029697339981794357
0.0
0.029697339981794357
0.029697339981794357
0.0
0.029697339981794357
0.0
0.0
0.0
-0.029697339981794357
0.029697339981794357
0.029697339981794357
0.029697339981794357
-0.029697339981794357
0.029697339981794357
-0.029697339981794357
0.0
0.0
0.0
0.029697339981794357
0.029697339981794357
0.0
0.029697339981794357
0.029697339981794357
0.029697339981794357
0.0
0.0
-0.029697339981794357
-0.029697339981794357
0.0
0.0
-0.029697339981794357
-0.029697339981794357
-0.029697339981794357
0.029697339981794357
0.029697339981794357
0.0
0.029697339981794357
0.029697339981794357
0.029697339981794357
0.0
0.029697339981794357
0.0
0.0
0.0
0.0
0.0
0.029697339981794357
0.029697339981794357
0.0
0.0
0.0
0.029697339981794357
0.0
0.029697339981794357
0.029697339981794357
0.0
0.029697339981794357
0.029697339981794357
0.029697339981794357
0.029697339981794357
0.029697339981794357
0.0
0.0
-0.029697339981794357
-0.029697339981794357
-0.029697339981794357
-0.029697339981794357
0.0
0.0
0.0
0.0
0.0
0.0
0.0
0.029697339981794357
0.029697339981794357
0.0
0.0
0.0
0.029697339981794357
0.0
0.029697339981794357
0.029697339981794357
0.0
0.0
0.029697339981794357
0.0
-0.029697339981794357
0.0
0.029697339981794357
-0.029697339981794357
0.029697339981794357
0.029697339981794357
0.0
0.0
0.0
0.029697339981794357
0.0
0.029697339981794357
-0.029697339981794357
-0.029697339981794357
-0.029697339981794357
-0.029697339981794357
-0.029697339981794357
0.0
-0.029697339981794357
-0.029697339981794357
-0.029697339981794357
0.0
-0.029697339981794357
0.0
0.029697339981794357
0.0
0.0
0.029697339981794357
0.029697339981794357
0.0
0.029697339981794357
0.029697339981794357
0.0
0.0
0.029697339981794357
0.0
0.0
-0.029697339981794357
-0.029697339981794357
0.029697339981794357
0.0
0.0
0.029697339981794357
0.029697339981794357
0.0
0.0
0.0
0.0
0.029697339981794357
0.029697339981794357
0.0
0.0
0.029697339981794357
-0.029697339981794357
-0.029697339981794357
-0.029697339981794357
0.0
0.0
0.0
0.0
0.0
0.0
0.0
0.0
0.0
0.0
-0.029697339981794357
-0.029697339981794357
-0.029697339981794357
0.0
-0.029697339981794357
0.0
-0.029697339981794357
0.0
-0.029697339981794357
0.0
0.029697339981794357
0.0
0.0
0.029697339981794357
0.029697339981794357
0.0
0.029697339981794357
0.0
-0.029697339981794357
0.0
0.0
-0.029697339981794357
-0.029697339981794357
-0.029697339981794357
-0.029697339981794357
-0.029697339981794357
0.0
-0.029697339981794357
-0.029697339981794357
-0.029697339981794357
0.0
-0.029697339981794357
0.0
0.0
0.0
-0.029697339981794357
0.029697339981794357
0.029697339981794357
0.0
0.029697339981794357
0.029697339981794357
0.0
0.0
0.0
0.0
0.0
0.029697339981794357
0.029697339981794357
0.0
0.029697339981794357
0.0
0.0
0.029697339981794357
-0.029697339981794357
0.0
0.029697339981794357
0.0
0.0
0.0
-0.029697339981794357
0.029697339981794357
0.029697339981794357
0.0
0.029697339981794357
0.029697339981794357
0.029697339981794357
-0.029697339981794357
0.029697339981794357
0.029697339981794357
0.0
0.0
0.0
-0.029697339981794357
-0.029697339981794357
0.0
0.0
0.0
0.029697339981794357
0.0
0.029697339981794357
0.0
0.0
0.0
0.0
0.0
0.0
0.0
0.029697339981794357
0.0
0.0
0.029697339981794357
0.0
0.029697339981794357
0.029697339981794357
0.029697339981794357
0.029697339981794357
0.0
0.0
0.029697339981794357
0.029697339981794357
0.0
0.029697339981794357
0.0
0.029697339981794357
0.0
0.029697339981794357
0.029697339981794357
-0.029697339981794357
0.0
0.029697339981794357
0.0
-0.029697339981794357
0.0
0.0
-0.029697339981794357
0.0
0.029697339981794357
0.029697339981794357
0.029697339981794357
0.029697339981794357
0.0
0.029697339981794357
0.029697339981794357
0.029697339981794357
-0.029697339981794357
-0.029697339981794357
0.0
-0.029697339981794357
-0.029697339981794357
0.0
-0.029697339981794357
0.0
0.0
0.0
0.0
-0.029697339981794357
-0.029697339981794357
-0.029697339981794357
0.0
-0.029697339981794357
0.0
-0.029697339981794357
0.0
0.0
0.0
0.029697339981794357
0.0
-0.029697339981794357
0.0
-0.029697339981794357
-0.029697339981794357
-0.029697339981794357
0.0
-0.029697339981794357
-0.029697339981794357
-0.029697339981794357
-0.029697339981794357
-0.029697339981794357
-0.029697339981794357
0.0
0.0
-0.029697339981794357
0.0
0.029697339981794357
0.0
-0.029697339981794357
0.0
-0.029697339981794357
0.0
-0.029697339981794357
0.0
-0.029697339981794357
-0.029697339981794357
0.0
-0.029697339981794357
0.0
0.029697339981794357
0.0
0.0
0.0
0.0
0.0
0.0
0.0
0.0
-0.029697339981794357
0.029697339981794357
0.0
0.029697339981794357
0.0
-0.029697339981794357
-0.029697339981794357
0.0
-0.029697339981794357
-0.029697339981794357
0.0
-0.029697339981794357
0.0
0.0
0.0
0.0
0.029697339981794357
0.0
0.0
0.0
0.0
0.0
0.029697339981794357
0.0
0.0
0.029697339981794357
0.029697339981794357
0.0
0.0
0.029697339981794357
-0.029697339981794357
0.0
0.0
-0.029697339981794357
0.0
0.029697339981794357
-0.029697339981794357
0.0
0.029697339981794357
0.0
-0.029697339981794357
0.029697339981794357
-0.029697339981794357
0.0
0.029697339981794357
0.0
-0.029697339981794357
0.0
0.0
0.0
0.0
0.029697339981794357
0.0
0.029697339981794357
0.029697339981794357
0.0
0.0
0.0
0.0
0.0
-0.029697339981794357
0.029697339981794357
0.029697339981794357
0.0
0.0
-0.029697339981794357
-0.029697339981794357
0.0
-0.029697339981794357
-0.029697339981794357
0.0
-0.029697339981794357
-0.029697339981794357
0.0
0.029697339981794357
0.0
0.029697339981794357
0.029697339981794357
0.0
0.0
0.029697339981794357
0.0
0.0
-0.029697339981794357
-0.029697339981794357
0.0
-0.029697339981794357
-0.029697339981794357
-0.029697339981794357
-0.029697339981794357
0.0
0.0
0.029697339981794357
0.0
0.029697339981794357
0.029697339981794357
0.029697339981794357
0.029697339981794357
0.029697339981794357
0.0
0.0
-0.029697339981794357
0.0
-0.029697339981794357
-0.029697339981794357
-0.029697339981794357
0.0
-0.029697339981794357
-0.029697339981794357
0.029697339981794357
0.029697339981794357
0.0
0.029697339981794357
0.029697339981794357
0.029697339981794357
0.0
0.0
0.0
0.0
0.0
0.0
0.029697339981794357
0.0
-0.029697339981794357
0.029697339981794357
-0.029697339981794357
-0.029697339981794357
0.0
-0.029697339981794357
0.0
0.0
-0.029697339981794357
0.0
0.0
0.0
0.0
0.0
0.029697339981794357
0.029697339981794357
0.0
0.029697339981794357
0.0
0.0
-0.029697339981794357
0.0
0.0
0.0
0.0
0.029697339981794357
0.029697339981794357
0.0
0.029697339981794357
0.029697339981794357
0.0
0.0
0.029697339981794357
-0.029697339981794357
0.029697339981794357
0.029697339981794357
0.0
0.0
0.029697339981794357
-0.029697339981794357
-0.029697339981794357
0.0
-0.029697339981794357
-0.029697339981794357
0.029697339981794357
0.029697339981794357
0.0
0.0
0.0
0.0
0.0
0.0
0.0
-0.029697339981794357
-0.029697339981794357
0.0
0.0
-0.029697339981794357
0.0
0.029697339981794357
0.0
0.0
0.029697339981794357
-0.029697339981794357
0.0
0.029697339981794357
0.0
0.0
0.0
0.0
0.0
0.0
-0.029697339981794357
0.0
0.0
0.0
-0.029697339981794357
0.0
0.0
0.029697339981794357
0.029697339981794357
0.029697339981794357
0.0
0.029697339981794357
0.0
0.0
0.029697339981794357
0.0
0.0
-0.029697339981794357
-0.029697339981794357
0.0
-0.029697339981794357
-0.029697339981794357
0.029697339981794357
-0.029697339981794357
-0.029697339981794357
-0.029697339981794357
-0.029697339981794357
-0.029697339981794357
0.0
-0.029697339981794357
0.029697339981794357
0.0
-0.029697339981794357
0.0
-0.029697339981794357
-0.029697339981794357
0.0
-0.029697339981794357
0.029697339981794357
0.0
0.0
0.029697339981794357
0.029697339981794357
0.0
-0.029697339981794357
0.0
-0.029697339981794357
-0.029697339981794357
-0.029697339981794357
0.0
0.029697339981794357
0.0
0.029697339981794357
0.029697339981794357
0.029697339981794357
0.0
0.029697339981794357
0.029697339981794357
0.0
0.029697339981794357
0.029697339981794357
0.029697339981794357
0.029697339981794357
0.029697339981794357
0.0
0.029697339981794357
-0.029697339981794357
0.0
0.0
0.0
0.0
0.0
-0.029697339981794357
0.0
0.0
0.0
0.0
0.029697339981794357
0.0
0.0
0.029697339981794357
0.029697339981794357
0.0
0.029697339981794357
0.0
0.0
0.0
0.0
0.0
0.0
-0.029697339981794357
-0.029697339981794357
0.029697339981794357
0.0
-0.029697339981794357
-0.029697339981794357
0.029697339981794357
-0.029697339981794357
-0.029697339981794357
-0.029697339981794357
0.0
-0.029697339981794357
-0.029697339981794357
0.0
0.029697339981794357
0.0
0.0
0.029697339981794357
0.0
0.0
0.029697339981794357
0.0
-0.029697339981794357
0.029697339981794357
0.029697339981794357
-0.029697339981794357
-0.029697339981794357
0.0
0.0
-0.029697339981794357
-0.029697339981794357
-0.029697339981794357
0.0
-0.029697339981794357
0.0
0.0
0.0
0.0
0.0
0.0
0.0
-0.029697339981794357
0.0
0.0
-0.029697339981794357
0.0
0.0
-0.029697339981794357
0.029697339981794357
0.0
0.029697339981794357
0.0
0.0
0.029697339981794357
0.029697339981794357
0.0
0.029697339981794357
0.029697339981794357
0.0
0.029697339981794357
0.029697339981794357
0.0
0.0
0.0
0.0
0.0
0.0
0.0
0.0
-0.029697339981794357
0.0
0.029697339981794357
0.0
0.029697339981794357
0.0
0.029697339981794357
0.0
0.0
0.0
0.029697339981794357
0.0
0.0
0.0
0.0
0.0
-0.029697339981794357
-0.029697339981794357
-0.029697339981794357
-0.029697339981794357
-0.029697339981794357
-0.029697339981794357
-0.029697339981794357
0.0
0.0
0.0
0.0
0.0
0.0
-0.029697339981794357
-0.029697339981794357
0.0
-0.029697339981794357
0.0
-0.029697339981794357
0.0
-0.029697339981794357
0.0
0.029697339981794357
-0.029697339981794357
0.0
0.029697339981794357
0.0
0.0
0.029697339981794357
0.0
0.0
0.029697339981794357
0.029697339981794357
0.0
-0.029697339981794357
0.0
0.0
0.0
0.0
0.0
0.029697339981794357
0.0
0.0
0.029697339981794357
0.0
-0.029697339981794357
0.0
0.0
-0.029697339981794357
-0.029697339981794357
0.0
0.0
-0.029697339981794357
0.0
0.029697339981794357
0.029697339981794357
0.029697339981794357
0.029697339981794357
0.029697339981794357
0.029697339981794357
0.029697339981794357
0.029697339981794357
0.0
-0.029697339981794357
0.0
0.0
0.0
0.0
0.0
0.029697339981794357
0.029697339981794357
0.029697339981794357
0.0
-0.029697339981794357
-0.029697339981794357
0.0
-0.029697339981794357
-0.029697339981794357
0.0
-0.029697339981794357
-0.029697339981794357
0.0
0.0
0.029697339981794357
0.029697339981794357
0.029697339981794357
0.029697339981794357
0.0
0.029697339981794357
0.029697339981794357
0.0
-0.029697339981794357
-0.029697339981794357
-0.029697339981794357
-0.029697339981794357
-0.029697339981794357
0.0
-0.029697339981794357
-0.029697339981794357
-0.029697339981794357
0.0
-0.029697339981794357
-0.029697339981794357
0.029697339981794357
0.029697339981794357
-0.029697339981794357
0.029697339981794357
0.029697339981794357
0.029697339981794357
0.029697339981794357
0.029697339981794357
0.029697339981794357
0.029697339981794357
0.029697339981794357
0.029697339981794357
0.029697339981794357
0.0
0.0
-0.029697339981794357
0.0
0.0
-0.029697339981794357
0.0
0.029697339981794357
-0.029697339981794357
0.0
-0.029697339981794357
0.0
-0.029697339981794357
-0.029697339981794357
0.029697339981794357
0.0
-0.029697339981794357
0.029697339981794357
0.029697339981794357
-0.029697339981794357
0.029697339981794357
0.0
0.0
0.029697339981794357
0.0
0.0
0.029697339981794357
0.0
0.029697339981794357
0.029697339981794357
0.029697339981794357
0.029697339981794357
0.0
0.029697339981794357
0.029697339981794357
0.0
0.029697339981794357
0.0
0.0
0.0
0.0
0.029697339981794357
0.029697339981794357
-0.029697339981794357
0.029697339981794357
0.0
0.0
0.0
0.029697339981794357
0.0
0.0
0.0
0.0
-0.029697339981794357
0.0
0.029697339981794357
0.0
0.0
0.0
-0.029697339981794357
0.0
0.0
0.0
0.0
-0.029697339981794357
-0.029697339981794357
-0.029697339981794357
-0.029697339981794357
-0.029697339981794357
-0.029697339981794357
0.0
0.0
-0.029697339981794357
0.029697339981794357
0.0
-0.029697339981794357
0.029697339981794357
0.0
0.0
0.029697339981794357
0.029697339981794357
0.029697339981794357
0.0
-0.029697339981794357
-0.029697339981794357
-0.029697339981794357
-0.029697339981794357
-0.029697339981794357
0.0
-0.029697339981794357
0.029697339981794357
0.0
0.0
0.0
0.0
-0.029697339981794357
0.0
0.0
0.0
0.0
-0.029697339981794357
0.029697339981794357
0.0
0.0
0.029697339981794357
0.029697339981794357
0.0
0.029697339981794357
0.0
-0.029697339981794357
-0.029697339981794357
-0.029697339981794357
-0.029697339981794357
-0.029697339981794357
-0.029697339981794357
0.0
0.0
0.0
0.029697339981794357
0.029697339981794357
0.0
0.0
0.0
0.0
-0.029697339981794357
-0.029697339981794357
0.0
0.0
0.0
0.0
0.0
0.029697339981794357
0.029697339981794357
-0.029697339981794357
0.029697339981794357
0.029697339981794357
0.0
0.0
0.0
0.0
0.0
0.0
0.0
0.0
0.0
0.0
0.029697339981794357
-0.029697339981794357
0.029697339981794357
0.029697339981794357
0.0
0.029697339981794357
0.029697339981794357
-0.029697339981794357
0.0
0.0
-0.029697339981794357
0.0
-0.029697339981794357
-0.029697339981794357
0.0
0.0
0.0
0.0
0.0
0.029697339981794357
0.0
0.029697339981794357
0.029697339981794357
0.0
0.029697339981794357
0.029697339981794357
0.0
-0.029697339981794357
0.0
0.0
-0.029697339981794357
-0.029697339981794357
0.0
0.0
0.0
0.0
0.0
0.0
0.08441523462533951
0.08441523462533951
0.0
0.08441523462533951
0.0
-0.08441523462533951
0.0
-0.08441523462533951
0.0
0.0
-0.08441523462533951
0.0
0.0
0.0
0.08441523462533951
0.0
0.0
-0.08441523462533951
-0.08441523462533951
0.0
0.0
0.0
0.0
0.0
0.0
-0.08441523462533951
0.0
-0.08441523462533951
0.0
0.0
-0.08441523462533951
0.0
-0.08441523462533951
0.0
0.0
0.0
0.0
0.08441523462533951
0.0
0.0
0.08441523462533951
0.08441523462533951
-0.08441523462533951
0.0
0.08441523462533951
0.0
-0.08441523462533951
0.0
0.08441523462533951
0.0
0.0
0.0
0.0
0.0
0.0
0.08441523462533951
0.0
-0.08441523462533951
0.08441523462533951
-0.08441523462533951
0.0
-0.08441523462533951
0.0
-0.08441523462533951
-0.08441523462533951
-0.08441523462533951
0.0
-0.08441523462533951
0.0
0.08441523462533951
0.08441523462533951
0.08441523462533951
0.08441523462533951
0.08441523462533951
0.0
0.0
0.0
0.0
0.0
0.0
0.0
0.08441523462533951
0.0
0.0
0.08441523462533951
-0.08441523462533951
0.0
0.0
0.08441523462533951
0.0
0.08441523462533951
0.08441523462533951
0.08441523462533951
-0.08441523462533951
0.0
0.0
-0.08441523462533951
0.0
0.0
0.0
0.08441523462533951
0.08441523462533951
0.0
0.08441523462533951
-0.08441523462533951
0.0
0.0
0.0
-0.08441523462533951
-0.08441523462533951
0.0
-0.08441523462533951
0.0
0.0
0.0
0.08441523462533951
0.08441523462533951
0.08441523462533951
0.08441523462533951
0.08441523462533951
0.08441523462533951
0.08441523462533951
0.08441523462533951
0.0
0.08441523462533951
0.0
0.0
0.08441523462533951
0.0
0.0
0.0
0.0
0.0
0.0
0.0
0.0
0.0
0.0
0.0
0.0
0.0
0.0
0.08441523462533951
0.08441523462533951
0.0
0.0
0.0
0.08441523462533951
0.0
0.0
0.0
0.0
0.0
0.0
0.0
0.0
0.0
0.0
0.0
0.0
0.08441523462533951
0.0
0.0
-0.08441523462533951
-0.08441523462533951
0.0
0.0
0.08441523462533951
0.0
-0.08441523462533951
0.0
0.08441523462533951
0.0
0.0
0.0
0.0
0.0
0.0
0.0
-0.08441523462533951
0.0
0.0
0.0
0.0
0.08441523462533951
0.0
0.0
0.0
0.0
0.0
0.08441523462533951
0.0
-0.08441523462533951
0.0
-0.08441523462533951
0.0
0.08441523462533951
0.08441523462533951
0.08441523462533951
0.08441523462533951
0.08441523462533951
0.08441523462533951
0.08441523462533951
0.0
-0.08441523462533951
0.08441523462533951
0.08441523462533951
0.0
0.08441523462533951
0.08441523462533951
0.08441523462533951
0.08441523462533951
0.0
0.0
0.08441523462533951
0.0
-0.08441523462533951
0.08441523462533951
0.0
0.0
0.0
0.0
0.0
0.0
0.0
0.0
0.08441523462533951
0.0
-0.08441523462533951
0.08441523462533951
0.0
0.0
0.0
0.08441523462533951
0.0
0.08441523462533951
0.08441523462533951
0.0
-0.08441523462533951
-0.08441523462533951
0.0
0.08441523462533951
-0.08441523462533951
0.08441523462533951
-0.08441523462533951
-0.08441523462533951
0.0
-0.08441523462533951
0.0
0.0
-0.08441523462533951
0.0
-0.08441523462533951
-0.08441523462533951
0.0
-0.08441523462533951
-0.08441523462533951
-0.08441523462533951
-0.08441523462533951
0.0
0.0
0.08441523462533951
0.0
0.08441523462533951
0.08441523462533951
0.08441523462533951
0.0
0.0
0.0
0.0
0.0
0.08441523462533951
0.0
0.0
0.08441523462533951
-0.08441523462533951
0.0
0.0
0.0
0.0
0.0
0.08441523462533951
0.08441523462533951
0.08441523462533951
-0.08441523462533951
0.0
0.08441523462533951
0.08441523462533951
0.0
0.08441523462533951
0.08441523462533951
0.0
0.0
-0.08441523462533951
-0.08441523462533951
0.08441523462533951
0.08441523462533951
0.08441523462533951
0.0
0.08441523462533951
-0.08441523462533951
0.08441523462533951
0.08441523462533951
0.0
0.0
-0.08441523462533951
-0.08441523462533951
0.0
0.0
0.0
0.0
-0.08441523462533951
0.08441523462533951
-0.08441523462533951
0.08441523462533951
0.0
-0.08441523462533951
0.0
0.0
-0.08441523462533951
0.0
-0.08441523462533951
0.08441523462533951
0.08441523462533951
0.0
0.08441523462533951
0.08441523462533951
0.08441523462533951
0.0
0.0
0.0
0.08441523462533951
0.08441523462533951
0.08441523462533951
0.08441523462533951
0.08441523462533951
0.08441523462533951
0.08441523462533951
0.08441523462533951
0.0
0.0
0.08441523462533951
0.0
-0.08441523462533951
-0.08441523462533951
0.0
-0.08441523462533951
0.0
0.08441523462533951
0.08441523462533951
0.08441523462533951
0.08441523462533951
0.08441523462533951
0.08441523462533951
0.08441523462533951
0.08441523462533951
-0.08441523462533951
0.0
0.0
0.0
0.0
-0.08441523462533951
-0.08441523462533951
0.0
-0.08441523462533951
-0.08441523462533951
0.0
0.0
0.0
-0.08441523462533951
0.08441523462533951
-0.08441523462533951
0.0
0.0
-0.08441523462533951
0.0
-0.08441523462533951
0.0
0.0
0.0
-0.08441523462533951
0.0
-0.08441523462533951
-0.08441523462533951
0.0
-0.08441523462533951
0.0
-0.08441523462533951
0.0
0.0
0.0
0.0
-0.08441523462533951
0.0
0.0
-0.08441523462533951
0.0
-0.08441523462533951
0.0
0.08441523462533951
0.0
0.0
0.0
0.0
0.08441523462533951
0.0
0.0
0.08441523462533951
0.08441523462533951
0.08441523462533951
0.0
0.08441523462533951
0.08441523462533951
0.0
0.08441523462533951
0.0
0.0
0.0
0.0
0.0
0.0
-0.08441523462533951
0.08441523462533951
0.0
0.0
0.0
0.0
0.08441523462533951
0.0
0.0
0.0
0.08441523462533951
0.0
0.08441523462533951
0.08441523462533951
-0.08441523462533951
0.08441523462533951
0.0
0.0
0.0
-0.08441523462533951
0.0
0.08441523462533951
-0.08441523462533951
-0.08441523462533951
0.0
-0.08441523462533951
0.0
0.0
0.0
-0.08441523462533951
-0.08441523462533951
-0.08441523462533951
0.0
-0.08441523462533951
0.0
0.0
-0.08441523462533951
-0.08441523462533951
0.0
0.08441523462533951
0.0
-0.08441523462533951
0.0
-0.08441523462533951
0.0
-0.08441523462533951
0.0
0.0
-0.08441523462533951
0.0
0.0
0.0
0.0
-0.08441523462533951
0.0
-0.08441523462533951
0.08441523462533951
0.0
0.0
0.0
0.0
0.0
0.0
0.0
-0.08441523462533951
0.08441523462533951
0.08441523462533951
0.08441523462533951
0.08441523462533951
0.08441523462533951
0.0
0.0
0.08441523462533951
0.0
0.08441523462533951
0.0
0.08441523462533951
0.0
-0.08441523462533951
0.08441523462533951
-0.08441523462533951
0.0
0.0
0.0
0.08441523462533951
0.0
0.08441523462533951
0.0
-0.08441523462533951
0.0
0.0
-0.08441523462533951
0.0
0.0
0.0
0.0
0.0
0.0
0.0
0.0
0.0
0.08441523462533951
0.08441523462533951
0.0
-0.08441523462533951
0.08441523462533951
0.0
0.0
0.0
0.0
-0.08441523462533951
0.0
0.0
0.0
0.08441523462533951
0.0
0.0
0.0
0.08441523462533951
0.0
0.08441523462533951
0.08441523462533951
0.0
0.0
0.0
-0.08441523462533951
-0.08441523462533951
0.0
-0.08441523462533951
-0.08441523462533951
0.0
0.0
-0.08441523462533951
0.0
0.0
0.08441523462533951
-0.08441523462533951
0.0
0.0
0.0
0.0
0.0
0.0
0.0
-0.08441523462533951
0.0
0.0
0.08441523462533951
-0.08441523462533951
-0.08441523462533951
0.0
0.0
0.08441523462533951
0.0
-0.08441523462533951
0.0
-0.08441523462533951
0.0
0.0
-0.08441523462533951
0.08441523462533951
0.0
0.0
0.0
0.0
0.08441523462533951
-0.08441523462533951
0.08441523462533951
0.0
-0.08441523462533951
0.0
0.0
0.08441523462533951
-0.08441523462533951
0.0
0.0
0.0
0.0
-0.08441523462533951
0.0
0.0
-0.08441523462533951
0.0
-0.08441523462533951
-0.08441523462533951
-0.08441523462533951
-0.08441523462533951
0.0
0.0
0.0
0.08441523462533951
-0.08441523462533951
-0.08441523462533951
0.0
-0.08441523462533951
0.0
0.0
0.0
0.0
0.0
-0.08441523462533951
0.08441523462533951
0.0
-0.08441523462533951
0.0
-0.08441523462533951
-0.08441523462533951
0.08441523462533951
0.0
0.08441523462533951
0.08441523462533951
0.0
0.08441523462533951
0.0
0.0
0.0
0.08441523462533951
0.08441523462533951
0.08441523462533951
0.08441523462533951
0.08441523462533951
0.0
0.0
0.0
-0.08441523462533951
0.08441523462533951
0.08441523462533951
0.0
0.08441523462533951
0.0
0.0
0.0
0.0
0.0
0.08441523462533951
0.0
0.08441523462533951
0.08441523462533951
0.0
0.0
0.0
0.0
0.0
0.0
0.08441523462533951
0.08441523462533951
0.0
0.0
0.0
0.0
0.0
-0.08441523462533951
0.0
0.08441523462533951
0.08441523462533951
0.08441523462533951
0.08441523462533951
0.08441523462533951
0.0
-0.08441523462533951
-0.08441523462533951
0.0
0.0
0.0
0.08441523462533951
0.0
0.0
0.08441523462533951
0.0
0.0
0.0
0.0
0.0
0.08441523462533951
0.0
0.08441523462533951
0.08441523462533951
-0.08441523462533951
0.0
-0.08441523462533951
0.0
0.0
0.0
0.0
0.0
0.0
0.0
-0.08441523462533951
-0.08441523462533951
0.0
-0.08441523462533951
0.0
-0.08441523462533951
0.0
-0.08441523462533951
0.0
-0.08441523462533951
0.0
0.0
0.0
0.08441523462533951
-0.08441523462533951
0.0
0.08441523462533951
0.08441523462533951
0.0
0.08441523462533951
0.0
0.0
0.0
0.0
0.0
-0.08441523462533951
-0.08441523462533951
0.0
-0.08441523462533951
-0.08441523462533951
-0.08441523462533951
-0.08441523462533951
0.0
0.0
0.0
-0.08441523462533951
0.0
0.0
0.08441523462533951
0.0
0.08441523462533951
0.08441523462533951
0.0
0.08441523462533951
0.08441523462533951
0.0
0.08441523462533951
0.0
0.0
0.08441523462533951
0.0
0.08441523462533951
0.08441523462533951
0.0
0.08441523462533951
0.0
-0.08441523462533951
0.0
-0.08441523462533951
-0.08441523462533951
0.08441523462533951
-0.08441523462533951
-0.08441523462533951
0.0
0.0
0.0
0.0
-0.08441523462533951
-0.08441523462533951
-0.08441523462533951
0.0
-0.08441523462533951
0.0
0.0
0.0
0.0
0.08441523462533951
0.08441523462533951
0.08441523462533951
0.08441523462533951
0.0
0.0
0.0
0.0
-0.08441523462533951
0.0
0.0
0.0
0.0
0.0
0.0
0.0
0.0
0.0
0.0
0.0
0.0
0.0
-0.08441523462533951
0.0
0.08441523462533951
0.0
0.08441523462533951
0.0
0.0
0.0
0.0
0.0
-0.08441523462533951
-0.08441523462533951
0.0
-0.08441523462533951
0.0
-0.08441523462533951
-0.08441523462533951
0.0
-0.08441523462533951
0.0
0.0
0.0
0.0
0.08441523462533951
0.08441523462533951
0.0
0.08441523462533951
0.0
0.0
0.0
0.0
0.0
-0.08441523462533951
-0.08441523462533951
0.0
0.0
-0.08441523462533951
-0.08441523462533951
0.0
0.08441523462533951
0.0
0.08441523462533951
0.0
0.0
0.08441523462533951
-0.08441523462533951
0.0
0.0
0.0
0.0
0.0
0.0
0.0
0.0
0.0
0.0
0.08441523462533951
0.08441523462533951
0.08441523462533951
0.08441523462533951
0.08441523462533951
0.0
0.08441523462533951
0.08441523462533951
0.0
0.08441523462533951
0.0
0.0
0.0
-0.08441523462533951
0.0
-0.08441523462533951
-0.08441523462533951
0.0
0.0
0.08441523462533951
-0.08441523462533951
0.0
-0.08441523462533951
0.0
0.0
0.0
-0.08441523462533951
-0.08441523462533951
0.0
-0.08441523462533951
0.0
0.0
0.0
-0.08441523462533951
0.0
0.0
0.0
0.0
0.0
0.0
0.0
-0.08441523462533951
0.0
0.0
0.0
0.0
0.0
0.08441523462533951
-0.08441523462533951
-0.08441523462533951
0.0
-0.08441523462533951
0.0
0.0
-0.08441523462533951
-0.08441523462533951
-0.08441523462533951
-0.08441523462533951
-0.08441523462533951
-0.08441523462533951
-0.08441523462533951
0.0
0.0
0.0
0.0
0.0
0.08441523462533951
0.0
-0.08441523462533951
0.0
0.0
0.0
0.0
0.0
0.0
0.08441523462533951
0.08441523462533951
0.0
0.08441523462533951
0.08441523462533951
-0.08441523462533951
-0.08441523462533951
0.08441523462533951
0.0
-0.08441523462533951
0.08441523462533951
0.08441523462533951
0.08441523462533951
0.0
0.0
0.0
0.0
0.0
0.08441523462533951
0.0
0.0
0.0
0.0
0.08441523462533951
0.08441523462533951
0.08441523462533951
0.0
0.08441523462533951
0.08441523462533951
-0.08441523462533951
0.0
0.0
-0.08441523462533951
0.0
0.0
-0.08441523462533951
0.08441523462533951
0.08441523462533951
0.08441523462533951
0.08441523462533951
0.08441523462533951
-0.08441523462533951
0.0
0.0
0.0
0.08441523462533951
-0.08441523462533951
0.0
0.0
0.0
0.08441523462533951
0.0
0.0
0.0
-0.08441523462533951
-0.08441523462533951
0.0
-0.08441523462533951
0.0
0.0
0.08441523462533951
0.08441523462533951
0.08441523462533951
0.08441523462533951
0.08441523462533951
-0.08441523462533951
0.08441523462533951
0.0
0.0
0.0
0.0
0.0
-0.08441523462533951
0.0
-0.08441523462533951
-0.08441523462533951
0.0
0.0
0.0
0.0
0.0
0.08441523462533951
0.08441523462533951
0.0
0.0
0.0
-0.08441523462533951
0.08441523462533951
0.08441523462533951
0.0
0.0
0.0
0.08441523462533951
0.0
-0.08441523462533951
0.08441523462533951
0.08441523462533951
0.0
0.08441523462533951
0.08441523462533951
0.08441523462533951
0.08441523462533951
0.08441523462533951
0.0
0.0
0.0
0.0
0.0
-0.08441523462533951
0.0
0.0
0.0
-0.08441523462533951
0.0
-0.08441523462533951
-0.08441523462533951
0.08441523462533951
0.08441523462533951
0.08441523462533951
0.0
0.08441523462533951
0.0
0.0
-0.08441523462533951
0.0
0.0
-0.08441523462533951
0.0
0.0
-0.08441523462533951
0.0
0.0
0.08441523462533951
0.0
0.0
0.0
-0.08441523462533951
0.0
0.0
0.0
-0.08441523462533951
0.0
-0.08441523462533951
0.08441523462533951
0.0
0.0
0.0
0.0
0.0
-0.08441523462533951
0.08441523462533951
-0.08441523462533951
0.0
-0.08441523462533951
-0.08441523462533951
0.0
0.0
0.0
0.0
0.0
0.0
0.0
0.08441523462533951
0.0
0.0
0.08441523462533951
0.0
0.0
0.08441523462533951
0.08441523462533951
0.0
0.08441523462533951
0.0
0.0
0.08441523462533951
0.0
-0.08441523462533951
-0.08441523462533951
0.0
0.0
0.08441523462533951
0.08441523462533951
-0.08441523462533951
0.08441523462533951
0.0
0.0
-0.08441523462533951
0.0
0.0
0.0
0.0
-0.08441523462533951
0.0
-0.08441523462533951
0.0
0.08441523462533951
0.0
0.08441523462533951
0.08441523462533951
0.0
0.0
0.0
0.0
0.08441523462533951
0.0
0.0
0.0
0.0
-0.08441523462533951
-0.08441523462533951
-0.08441523462533951
0.0
0.0
0.0
0.08441523462533951
0.0
0.0
0.08441523462533951
-0.08441523462533951
0.0
0.08441523462533951
0.0
-0.08441523462533951
0.0
0.08441523462533951
0.08441523462533951
-0.08441523462533951
-0.08441523462533951
0.08441523462533951
0.0
0.08441523462533951
0.0
-0.08441523462533951
-0.08441523462533951
0.0
0.0
-0.08441523462533951
0.0
0.0
0.08441523462533951
0.0
0.0
0.08441523462533951
0.0
0.0
0.0
0.0
0.08441523462533951
0.08441523462533951
0.0
0.0
-0.08441523462533951
-0.08441523462533951
-0.08441523462533951
-0.08441523462533951
-0.08441523462533951
0.0
0.08441523462533951
-0.08441523462533951
0.0
-0.08441523462533951
-0.08441523462533951
0.0
0.0
0.0
-0.08441523462533951
0.0
-0.08441523462533951
-0.08441523462533951
0.0
-0.08441523462533951
0.0
0.0
0.0
-0.08441523462533951
0.0
0.0
0.0
0.0
0.08441523462533951
0.08441523462533951
-0.08441523462533951
0.08441523462533951
0.0
0.0
0.0
-0.08441523462533951
-0.08441523462533951
-0.08441523462533951
-0.08441523462533951
-0.08441523462533951
-0.08441523462533951
-0.08441523462533951
0.08441523462533951
-0.08441523462533951
-0.08441523462533951
-0.08441523462533951
-0.08441523462533951
-0.08441523462533951
0.0
-0.08441523462533951
0.0
0.0
0.0
0.0
0.0
0.0
0.0
0.0
0.0
0.0
0.0
0.0
0.0
0.0
0.0
0.08441523462533951
0.0
0.08441523462533951
0.08441523462533951
0.0
0.0
0.08441523462533951
0.0
0.08441523462533951
0.08441523462533951
0.0
0.0
0.0
0.0
0.0
0.0
0.0
0.08441523462533951
0.0
0.08441523462533951
0.08441523462533951
0.0
0.0
0.0
0.0
0.0
0.08441523462533951
0.0
-0.08441523462533951
0.0
-0.08441523462533951
0.0
0.0
0.0
-0.08441523462533951
0.08441523462533951
0.08441523462533951
0.0
0.0
0.0
0.0
-0.08441523462533951
0.0
0.08441523462533951
0.08441523462533951
0.0
0.0
0.0
0.0
0.0
0.0
0.0
-0.08441523462533951
0.08441523462533951
0.0
0.08441523462533951
0.08441523462533951
0.08441523462533951
0.0
-0.08441523462533951
0.08441523462533951
0.0
0.0
0.08441523462533951
0.0
0.08441523462533951
0.08441523462533951
0.0
0.08441523462533951
0.0
-0.08441523462533951
0.08441523462533951
0.08441523462533951
-0.08441523462533951
0.08441523462533951
0.0
0.0
0.0
0.0
-0.08441523462533951
-0.08441523462533951
0.0
0.0
0.0
0.0
-0.08441523462533951
0.0
0.0
0.0
0.08441523462533951
0.0
0.0
0.0
0.0
0.08441523462533951
-0.08441523462533951
0.0
-0.08441523462533951
-0.08441523462533951
-0.08441523462533951
0.0
-0.08441523462533951
-0.08441523462533951
0.0
-0.08441523462533951
0.0
0.0
-0.08441523462533951
-0.08441523462533951
-0.08441523462533951
-0.08441523462533951
0.08441523462533951
-0.08441523462533951
0.0
-0.08441523462533951
0.0
0.0
-0.08441523462533951
0.0
0.0
0.0
0.0
-0.08441523462533951
0.08441523462533951
0.0
0.08441523462533951
0.08441523462533951
